
#include <cmath>
#include <iostream>
#include <cstdint>
#define restrict __restrict__

template <typename T, typename S, int degree>
struct Operator
{
  inline void apply(T *restrict A, const T *restrict w, const T *restrict coordinate_dofs){};
};

// =========================================
// Mass operator degree 1
// =========================================
template <typename T, typename S>
struct Operator<T, S, 1>
{
  constexpr static std::size_t num_dofs = 4;
  inline void apply(T *restrict A, const T *restrict w, const T *restrict coordinate_dofs)
  {
    // Quadrature rules
    static const S weights_fad[4] = {0.04166666666666666, 0.04166666666666666, 0.04166666666666666, 0.04166666666666666};
    // Precomputed values of basis functions and precomputations
    // FE* dimensions: [permutation][entities][points][dofs]
    static const S FE8_C0_Qfad[1][1][4][4] =
        {{{{0.1381966011250091, 0.5854101966249688, 0.138196601125011, 0.138196601125011},
           {0.1381966011250091, 0.138196601125011, 0.585410196624969, 0.138196601125011},
           {0.1381966011250091, 0.1381966011250109, 0.138196601125011, 0.585410196624969},
           {0.585410196624967, 0.1381966011250109, 0.138196601125011, 0.138196601125011}}}};
    static const S FE9_C0_D100_Qfad[1][1][1][4] = {{{{-1.0, 1.0, 0.0, 0.0}}}};
    static const S FE9_C1_D010_Qfad[1][1][1][4] = {{{{-1.0, 0.0, 1.0, 0.0}}}};
    static const S FE9_C2_D001_Qfad[1][1][1][4] = {{{{-1.0, 0.0, 0.0, 1.0}}}};
    // Quadrature loop independent computations for quadrature rule fad
    T J_c0 = {0.0};
    T J_c4 = {0.0};
    T J_c8 = {0.0};
    T J_c5 = {0.0};
    T J_c7 = {0.0};
    T J_c1 = {0.0};
    T J_c6 = {0.0};
    T J_c3 = {0.0};
    T J_c2 = {0.0};
    for (int ic = 0; ic < 4; ++ic)
    {
      J_c0 += coordinate_dofs[ic] * FE9_C0_D100_Qfad[0][0][0][ic];
      J_c4 += coordinate_dofs[ic + 4] * FE9_C1_D010_Qfad[0][0][0][ic];
      J_c8 += coordinate_dofs[ic + 8] * FE9_C2_D001_Qfad[0][0][0][ic];
      J_c5 += coordinate_dofs[ic + 4] * FE9_C2_D001_Qfad[0][0][0][ic];
      J_c7 += coordinate_dofs[ic + 8] * FE9_C1_D010_Qfad[0][0][0][ic];
      J_c1 += coordinate_dofs[ic] * FE9_C1_D010_Qfad[0][0][0][ic];
      J_c6 += coordinate_dofs[ic + 8] * FE9_C0_D100_Qfad[0][0][0][ic];
      J_c3 += coordinate_dofs[ic + 4] * FE9_C0_D100_Qfad[0][0][0][ic];
      J_c2 += coordinate_dofs[ic] * FE9_C2_D001_Qfad[0][0][0][ic];
    }
    T sp_fad[14];
    sp_fad[0] = J_c4 * J_c8;
    sp_fad[1] = J_c5 * J_c7;
    sp_fad[2] = sp_fad[0] - sp_fad[1];
    sp_fad[3] = J_c0 * sp_fad[2];
    sp_fad[4] = J_c5 * J_c6;
    sp_fad[5] = J_c3 * J_c8;
    sp_fad[6] = sp_fad[4] - sp_fad[5];
    sp_fad[7] = J_c1 * sp_fad[6];
    sp_fad[8] = sp_fad[3] + sp_fad[7];
    sp_fad[9] = J_c3 * J_c7;
    sp_fad[10] = J_c4 * J_c6;
    sp_fad[11] = sp_fad[9] - sp_fad[10];
    sp_fad[12] = J_c2 * sp_fad[11];
    sp_fad[13] = sp_fad[8] + sp_fad[12];
    for (int iq = 0; iq < 4; ++iq)
    {
      // Quadrature loop body setup for quadrature rule fad
      // Varying computations for quadrature rule fad
      T w0 = {0.0};
      for (int ic = 0; ic < 4; ++ic)
        w0 += w[ic] * FE8_C0_Qfad[0][0][iq][ic];
      T sv_fad[1];
      sv_fad[0] = sp_fad[13] * w0;
      const T fw0 = sv_fad[0] * weights_fad[iq];
      for (int i = 0; i < 4; ++i)
        A[i] += fw0 * FE8_C0_Qfad[0][0][iq][i];
    };
  }
};

// =========================================
// Mass operator degree 2
// =========================================
template <typename T, typename S>
struct Operator<T, S, 2>
{
  constexpr static std::size_t num_dofs = 10;
  inline void apply(T *restrict A, const T *restrict w, const T *restrict coordinate_dofs)
  {
    // Quadrature rules
    static const S weights_d8a[14] = {0.003174603174603167, 0.003174603174603167, 0.003174603174603167, 0.003174603174603167, 0.003174603174603167, 0.003174603174603167, 0.01476497079049678, 0.01476497079049678, 0.01476497079049678, 0.01476497079049678, 0.02213979111426512, 0.02213979111426512, 0.02213979111426512, 0.02213979111426512};
    // Precomputed values of basis functions and precomputations
    // FE* dimensions: [permutation][entities][points][dofs]
    static const S FE11_C0_Qd8a[1][1][14][10] =
        {{{{0.0, 0.0, 0.0, 0.0, 1.0, 0.0, 0.0, 0.0, 0.0, 0.0},
           {0.0, 0.0, 0.0, 0.0, 0.0, 1.0, 0.0, 0.0, 0.0, 0.0},
           {0.0, 0.0, 0.0, 0.0, 0.0, 0.0, 1.0, 0.0, 0.0, 0.0},
           {0.0, 0.0, 0.0, 0.0, 0.0, 0.0, 0.0, 0.0, 0.0, 1.0},
           {0.0, 0.0, 0.0, 0.0, 0.0, 0.0, 0.0, 0.0, 1.0, 0.0},
           {0.0, 0.0, 0.0, 0.0, 0.0, 0.0, 0.0, 1.0, 0.0, 0.0},
           {-0.08031550417191768, 0.2771604624527406, -0.08031550417191773, -0.08031550417191774, 0.04042252210657356, 0.2808394945810975, 0.2808394945810974, 0.04042252210657353, 0.04042252210657356, 0.2808394945810972},
           {0.2771604624527405, -0.08031550417191775, -0.08031550417191773, -0.08031550417191774, 0.04042252210657366, 0.04042252210657363, 0.04042252210657363, 0.2808394945810975, 0.2808394945810975, 0.2808394945810974},
           {-0.08031550417191777, -0.08031550417191774, -0.08031550417191773, 0.2771604624527406, 0.2808394945810974, 0.2808394945810973, 0.04042252210657359, 0.2808394945810974, 0.04042252210657358, 0.04042252210657351},
           {-0.08031550417191773, -0.08031550417191773, 0.2771604624527406, -0.08031550417191774, 0.2808394945810974, 0.04042252210657354, 0.2808394945810974, 0.04042252210657354, 0.2808394945810974, 0.04042252210657356},
           {-0.116712266316459, -0.05041039684813053, -0.1167122663164589, -0.116712266316459, 0.3953212143534667, 0.07152785091236928, 0.07152785091236939, 0.3953212143534666, 0.3953212143534667, 0.0715278509123693},
           {-0.05041039684813056, -0.116712266316459, -0.116712266316459, -0.1167122663164589, 0.3953212143534665, 0.3953212143534666, 0.3953212143534665, 0.07152785091236931, 0.07152785091236925, 0.07152785091236927},
           {-0.116712266316459, -0.116712266316459, -0.1167122663164589, -0.05041039684813052, 0.07152785091236931, 0.07152785091236931, 0.3953212143534667, 0.0715278509123693, 0.3953212143534666, 0.3953212143534665},
           {-0.116712266316459, -0.116712266316459, -0.05041039684813054, -0.116712266316459, 0.07152785091236939, 0.3953212143534666, 0.07152785091236936, 0.3953212143534666, 0.07152785091236938, 0.3953212143534666}}}};

    // Quadrature independent code
    // FLOPS: 9 * 2
    T J[9] = {0};
    J[0] = coordinate_dofs[1] - coordinate_dofs[0];
    J[1] = coordinate_dofs[2] - coordinate_dofs[0];
    J[2] = coordinate_dofs[3] - coordinate_dofs[0];
    J[3] = coordinate_dofs[5] - coordinate_dofs[4];
    J[4] = coordinate_dofs[6] - coordinate_dofs[4];
    J[5] = coordinate_dofs[7] - coordinate_dofs[4];
    J[6] = coordinate_dofs[9] - coordinate_dofs[8];
    J[7] = coordinate_dofs[10] - coordinate_dofs[8];
    J[8] = coordinate_dofs[11] - coordinate_dofs[8];

    // Determinant of jacobian
    // FLOPS: 3 * 4
    T detJ = {0};
    detJ += J[0] * (J[4] * J[8] - J[5] * J[7]);
    detJ -= J[1] * (J[3] * J[8] - J[6] * J[5]);
    detJ += J[2] * (J[3] * J[7] - J[6] * J[4]);

    for (int iq = 0; iq < 14; ++iq)
    {
      // Quadrature loop body setup for quadrature rule d8a
      // Varying computations for quadrature rule d8a
      T w0 = {0.0};
      for (int ic = 0; ic < 10; ++ic)
        w0 += w[ic] * FE11_C0_Qd8a[0][0][iq][ic];
      T sv_d8a[1];
      sv_d8a[0] = detJ * w0;
      const T fw0 = sv_d8a[0] * weights_d8a[iq];
      for (int i = 0; i < 10; ++i)
        A[i] += fw0 * FE11_C0_Qd8a[0][0][iq][i];
    }
  }
};

// =========================================
// Mass operator degree 3
// =========================================
template <typename T, typename S>
struct Operator<T, S, 3>
{
  constexpr static std::size_t num_dofs = 20;
  inline void apply(T *restrict A, const T *restrict w, const T *restrict coordinate_dofs)
  {
    // Quadrature rules
    static const S weights_818[24] = {0.006653791709694649, 0.006653791709694649, 0.006653791709694649, 0.006653791709694649, 0.001679535175886783, 0.001679535175886783, 0.001679535175886783, 0.001679535175886783, 0.009226196923942399, 0.009226196923942399, 0.009226196923942399, 0.009226196923942399, 0.008035714285714283, 0.008035714285714283, 0.008035714285714283, 0.008035714285714283, 0.008035714285714283, 0.008035714285714283, 0.008035714285714283, 0.008035714285714283, 0.008035714285714283, 0.008035714285714283, 0.008035714285714283, 0.008035714285714283};
    // Precomputed values of basis functions and precomputations
    // FE* dimensions: [permutation][entities][points][dofs]
    static const S FE11_C0_Q818[1][1][24][20] =
        {{{{0.07643969420113561, -0.003003489815198027, 0.07643969420113562, 0.07643969420113558, -0.08202088926867614, -0.08202088926867612, 0.005538880769914016, -0.1154657453762929, 0.005538880769914016, -0.115465745376293, -0.08202088926867616, -0.08202088926867616, -0.08202088926867614, -0.08202088926867618, -0.1154657453762929, 0.005538880769914004, 0.442912802050851, 0.2668519304904314, 0.4429128020508514, 0.4429128020508514},
           {-0.003003489815198061, 0.07643969420113568, 0.0764396942011356, 0.07643969420113558, -0.08202088926867612, -0.08202088926867611, -0.08202088926867626, -0.08202088926867608, -0.08202088926867626, -0.08202088926867611, 0.00553888076991411, -0.1154657453762929, 0.005538880769914102, -0.1154657453762929, 0.005538880769914084, -0.115465745376293, 0.2668519304904313, 0.442912802050851, 0.4429128020508513, 0.4429128020508514},
           {0.07643969420113564, 0.07643969420113568, 0.0764396942011356, -0.003003489815198106, -0.1154657453762929, 0.005538880769914083, -0.115465745376293, 0.005538880769914146, -0.08202088926867628, -0.08202088926867614, -0.115465745376293, 0.0055388807699141, -0.08202088926867619, -0.08202088926867609, -0.08202088926867615, -0.08202088926867621, 0.442912802050851, 0.4429128020508511, 0.4429128020508514, 0.2668519304904315},
           {0.07643969420113564, 0.07643969420113568, -0.00300348981519809, 0.07643969420113557, 0.005538880769914143, -0.1154657453762929, -0.08202088926867626, -0.08202088926867609, -0.1154657453762931, 0.00553888076991408, -0.08202088926867619, -0.08202088926867614, -0.1154657453762929, 0.005538880769914124, -0.08202088926867615, -0.08202088926867622, 0.442912802050851, 0.4429128020508512, 0.2668519304904317, 0.4429128020508513},
           {0.03571084582598552, 0.412035507199761, 0.03571084582598551, 0.03571084582598549, -0.007262507311810208, -0.007262507311810236, 0.2346403695592354, -0.09966118430016867, 0.2346403695592354, -0.09966118430016853, -0.007262507311810227, -0.007262507311810227, -0.007262507311810186, -0.007262507311809989, -0.09966118430016882, 0.2346403695592352, 0.0392175394837748, 0.001816824964619025, 0.03921753948377484, 0.03921753948377496},
           {0.4120355071997613, 0.03571084582598553, 0.03571084582598545, 0.03571084582598546, -0.007262507311810224, -0.007262507311810109, -0.007262507311810301, -0.007262507311810116, -0.007262507311810315, -0.007262507311810098, 0.234640369559235, -0.09966118430016858, 0.2346403695592352, -0.09966118430016856, 0.2346403695592347, -0.09966118430016865, 0.001816824964618996, 0.03921753948377486, 0.03921753948377461, 0.03921753948377491},
           {0.03571084582598549, 0.03571084582598557, 0.03571084582598547, 0.4120355071997613, -0.09966118430016871, 0.2346403695592351, -0.09966118430016878, 0.2346403695592352, -0.007262507311810216, -0.007262507311810175, -0.09966118430016872, 0.2346403695592352, -0.007262507311810152, -0.007262507311810152, -0.007262507311810194, -0.007262507311810183, 0.03921753948377493, 0.03921753948377493, 0.03921753948377496, 0.001816824964619173},
           {0.0357108458259855, 0.03571084582598555, 0.4120355071997611, 0.03571084582598546, 0.234640369559235, -0.09966118430016854, -0.007262507311810339, -0.007262507311810097, -0.09966118430016865, 0.2346403695592351, -0.007262507311810185, -0.007262507311810044, -0.09966118430016876, 0.234640369559235, -0.007262507311810153, -0.007262507311810209, 0.03921753948377502, 0.03921753948377504, 0.001816824964619272, 0.03921753948377506},
           {0.01063274387815454, 0.03800731035001659, 0.01063274387815434, 0.01063274387815429, -0.01713668114053718, -0.01713668114053723, -0.04202690635694211, -0.007629461095510489, -0.0420269063569421, -0.007629461095510451, -0.01713668114053764, -0.01713668114053724, -0.0171366811405377, -0.01713668114053725, -0.007629461095510635, -0.04202690635694208, 0.09253807815890204, 0.9042694127393964, 0.09253807815890214, 0.09253807815890194},
           {0.03800731035001629, 0.01063274387815437, 0.01063274387815433, 0.01063274387815428, -0.01713668114053731, -0.01713668114053716, -0.01713668114053739, -0.0171366811405372, -0.01713668114053742, -0.01713668114053743, -0.04202690635694175, -0.007629461095510473, -0.04202690635694169, -0.007629461095510571, -0.04202690635694172, -0.007629461095510589, 0.904269412739397, 0.09253807815890169, 0.09253807815890164, 0.09253807815890155},
           {0.01063274387815449, 0.01063274387815436, 0.01063274387815434, 0.03800731035001642, -0.007629461095510548, -0.04202690635694187, -0.007629461095510623, -0.04202690635694185, -0.01713668114053731, -0.01713668114053731, -0.00762946109551064, -0.04202690635694187, -0.01713668114053756, -0.0171366811405373, -0.01713668114053758, -0.01713668114053734, 0.09253807815890207, 0.0925380781589019, 0.092538078158902, 0.9042694127393965},
           {0.01063274387815449, 0.01063274387815432, 0.03800731035001645, 0.01063274387815433, -0.04202690635694193, -0.00762946109551061, -0.01713668114053724, -0.01713668114053728, -0.00762946109551057, -0.04202690635694189, -0.0171366811405375, -0.01713668114053734, -0.007629461095510563, -0.0420269063569419, -0.01713668114053751, -0.01713668114053728, 0.09253807815890196, 0.09253807815890187, 0.9042694127393966, 0.09253807815890205},
           {-0.09561331408564126, 0.02591086922452629, 0.05857627704860427, 0.05857627704860427, -0.01639360954859649, -0.01639360954859649, -0.02314814814814813, -0.06268990584489278, -0.02314814814814818, -0.06268990584489274, 0.1157407407407406, -0.1157407407407407, 0.1157407407407407, -0.1157407407407406, 0.5542655534722029, -0.05176083281249506, 0.02950849718747384, 0.06598300562505269, 0.2795084971874736, 0.2795084971874738},
           {-0.09561331408564132, 0.0585762770486043, 0.02591086922452626, 0.05857627704860423, -0.02314814814814813, -0.06268990584489273, -0.0163936095485966, -0.01639360954859652, -0.06268990584489285, -0.02314814814814811, 0.1157407407407407, -0.1157407407407406, 0.554265553472203, -0.05176083281249492, 0.1157407407407405, -0.1157407407407407, 0.02950849718747377, 0.2795084971874738, 0.06598300562505248, 0.2795084971874734},
           {-0.09561331408564132, 0.05857627704860429, 0.05857627704860428, 0.02591086922452625, -0.0626899058448929, -0.02314814814814806, -0.06268990584489287, -0.023148148148148, -0.0163936095485966, -0.0163936095485965, 0.5542655534722029, -0.05176083281249491, 0.1157407407407407, -0.1157407407407407, 0.1157407407407406, -0.1157407407407407, 0.02950849718747373, 0.2795084971874737, 0.2795084971874736, 0.06598300562505267},
           {0.02591086922452622, -0.09561331408564139, 0.05857627704860432, 0.0585762770486043, -0.01639360954859654, -0.01639360954859649, 0.1157407407407408, -0.1157407407407408, 0.1157407407407408, -0.1157407407407407, -0.02314814814814804, -0.06268990584489287, -0.02314814814814807, -0.06268990584489294, -0.05176083281249482, 0.5542655534722027, 0.06598300562505255, 0.02950849718747365, 0.2795084971874737, 0.2795084971874737},
           {0.02591086922452632, 0.05857627704860439, -0.09561331408564137, 0.05857627704860426, 0.1157407407407408, -0.1157407407407406, -0.01639360954859662, -0.0163936095485965, -0.1157407407407409, 0.1157407407407408, -0.02314814814814819, -0.0626899058448928, -0.05176083281249514, 0.5542655534722027, -0.02314814814814815, -0.06268990584489288, 0.06598300562505263, 0.2795084971874738, 0.02950849718747387, 0.2795084971874738},
           {0.02591086922452636, 0.05857627704860437, 0.05857627704860426, -0.09561331408564135, -0.1157407407407407, 0.1157407407407406, -0.1157407407407409, 0.1157407407407407, -0.01639360954859661, -0.01639360954859648, -0.05176083281249519, 0.554265553472203, -0.02314814814814818, -0.0626899058448928, -0.02314814814814817, -0.0626899058448929, 0.06598300562505255, 0.2795084971874737, 0.2795084971874739, 0.0295084971874737},
           {0.05857627704860436, 0.05857627704860441, 0.02591086922452633, -0.09561331408564135, -0.05176083281249511, 0.5542655534722029, -0.115740740740741, 0.1157407407407408, -0.06268990584489295, -0.02314814814814815, -0.1157407407407409, 0.1157407407407407, -0.06268990584489291, -0.0231481481481481, -0.01639360954859658, -0.01639360954859657, 0.2795084971874738, 0.2795084971874738, 0.06598300562505278, 0.02950849718747385},
           {0.05857627704860432, 0.02591086922452633, -0.09561331408564137, 0.05857627704860428, 0.1157407407407408, -0.1157407407407407, -0.02314814814814823, -0.06268990584489283, -0.05176083281249519, 0.5542655534722029, -0.01639360954859653, -0.01639360954859653, -0.1157407407407408, 0.1157407407407407, -0.0626899058448928, -0.0231481481481482, 0.2795084971874737, 0.06598300562505273, 0.02950849718747388, 0.2795084971874739},
           {0.05857627704860428, -0.09561331408564139, 0.05857627704860434, 0.02591086922452629, -0.06268990584489292, -0.02314814814814811, 0.5542655534722029, -0.0517608328124949, 0.1157407407407408, -0.1157407407407408, -0.06268990584489288, -0.02314814814814823, -0.01639360954859647, -0.01639360954859655, -0.1157407407407407, 0.1157407407407406, 0.2795084971874735, 0.02950849718747374, 0.279508497187474, 0.06598300562505277},
           {0.05857627704860435, 0.05857627704860439, -0.0956133140856414, 0.02591086922452627, 0.5542655534722027, -0.05176083281249483, -0.06268990584489299, -0.02314814814814811, -0.1157407407407409, 0.1157407407407407, -0.06268990584489295, -0.02314814814814813, -0.1157407407407409, 0.1157407407407407, -0.01639360954859656, -0.01639360954859655, 0.2795084971874739, 0.2795084971874738, 0.0295084971874739, 0.06598300562505277},
           {0.05857627704860432, 0.02591086922452635, 0.05857627704860427, -0.09561331408564133, -0.1157407407407408, 0.1157407407407406, -0.05176083281249514, 0.5542655534722029, -0.02314814814814813, -0.06268990584489283, -0.1157407407407408, 0.1157407407407406, -0.01639360954859651, -0.01639360954859655, -0.06268990584489284, -0.02314814814814816, 0.2795084971874736, 0.06598300562505272, 0.2795084971874739, 0.02950849718747385},
           {0.05857627704860426, -0.09561331408564136, 0.02591086922452632, 0.05857627704860427, -0.02314814814814817, -0.06268990584489274, 0.1157407407407407, -0.1157407407407408, 0.5542655534722027, -0.05176083281249505, -0.0163936095485965, -0.01639360954859655, -0.06268990584489278, -0.02314814814814826, -0.1157407407407406, 0.1157407407407406, 0.2795084971874736, 0.0295084971874738, 0.06598300562505267, 0.2795084971874739}}}};
    static const S FE9_C0_D100_Q818[1][1][1][4] = {{{{-1.0, 1.0, 0.0, 0.0}}}};
    static const S FE9_C1_D010_Q818[1][1][1][4] = {{{{-1.0, 0.0, 1.0, 0.0}}}};
    static const S FE9_C2_D001_Q818[1][1][1][4] = {{{{-1.0, 0.0, 0.0, 1.0}}}};

    // Quadrature loop independent computations for quadrature rule 818
    T J_c0 = {0.0};
    T J_c4 = {0.0};
    T J_c8 = {0.0};
    T J_c5 = {0.0};
    T J_c7 = {0.0};
    T J_c1 = {0.0};
    T J_c6 = {0.0};
    T J_c3 = {0.0};
    T J_c2 = {0.0};
    for (int ic = 0; ic < 4; ++ic)
    {
      J_c0 += coordinate_dofs[ic] * FE9_C0_D100_Q818[0][0][0][ic];
      J_c4 += coordinate_dofs[ic + 4] * FE9_C1_D010_Q818[0][0][0][ic];
      J_c8 += coordinate_dofs[ic + 8] * FE9_C2_D001_Q818[0][0][0][ic];
      J_c5 += coordinate_dofs[ic + 4] * FE9_C2_D001_Q818[0][0][0][ic];
      J_c7 += coordinate_dofs[ic + 8] * FE9_C1_D010_Q818[0][0][0][ic];
      J_c1 += coordinate_dofs[ic] * FE9_C1_D010_Q818[0][0][0][ic];
      J_c6 += coordinate_dofs[ic + 8] * FE9_C0_D100_Q818[0][0][0][ic];
      J_c3 += coordinate_dofs[ic + 4] * FE9_C0_D100_Q818[0][0][0][ic];
      J_c2 += coordinate_dofs[ic] * FE9_C2_D001_Q818[0][0][0][ic];
    }
    T sp_818[14];
    sp_818[0] = J_c4 * J_c8;
    sp_818[1] = J_c5 * J_c7;
    sp_818[2] = sp_818[0] - sp_818[1];
    sp_818[3] = J_c0 * sp_818[2];
    sp_818[4] = J_c5 * J_c6;
    sp_818[5] = J_c3 * J_c8;
    sp_818[6] = sp_818[4] - sp_818[5];
    sp_818[7] = J_c1 * sp_818[6];
    sp_818[8] = sp_818[3] + sp_818[7];
    sp_818[9] = J_c3 * J_c7;
    sp_818[10] = J_c4 * J_c6;
    sp_818[11] = sp_818[9] - sp_818[10];
    sp_818[12] = J_c2 * sp_818[11];
    sp_818[13] = sp_818[8] + sp_818[12];
    for (int iq = 0; iq < 24; ++iq)
    {
      // Quadrature loop body setup for quadrature rule 818
      // Varying computations for quadrature rule 818
      T w0 = {0.0};
      for (int ic = 0; ic < 20; ++ic)
        w0 += w[ic] * FE11_C0_Q818[0][0][iq][ic];
      T sv_818[1];
      sv_818[0] = sp_818[13] * w0;
      const T fw0 = sv_818[0] * weights_818[iq];
      for (int i = 0; i < 20; ++i)
        A[i] += fw0 * FE11_C0_Q818[0][0][iq][i];
    }
  }
};

// =========================================
// Mass operator degree 4
// =========================================
template <typename T, typename S>
struct Operator<T, S, 4>
{
  constexpr static std::size_t num_dofs = 35;
  inline void apply(T *restrict A, const T *restrict w, const T *restrict coordinate_dofs)
  {
    // Quadrature rules
    static const S weights_a86[45] = {-0.03932700664129262, 0.0040813160593427, 0.0040813160593427, 0.0040813160593427, 0.0040813160593427, 0.0006580867733043499, 0.0006580867733043499, 0.0006580867733043499, 0.0006580867733043499, 0.00438425882512285, 0.00438425882512285, 0.00438425882512285, 0.00438425882512285, 0.00438425882512285, 0.00438425882512285, 0.01383006384250982, 0.01383006384250982, 0.01383006384250982, 0.01383006384250982, 0.01383006384250982, 0.01383006384250982, 0.004240437424683717, 0.004240437424683717, 0.004240437424683717, 0.004240437424683717, 0.004240437424683717, 0.004240437424683717, 0.004240437424683717, 0.004240437424683717, 0.004240437424683717, 0.004240437424683717, 0.004240437424683717, 0.004240437424683717, 0.0022387397396142, 0.0022387397396142, 0.0022387397396142, 0.0022387397396142, 0.0022387397396142, 0.0022387397396142, 0.0022387397396142, 0.0022387397396142, 0.0022387397396142, 0.0022387397396142, 0.0022387397396142, 0.0022387397396142};
    // Precomputed values of basis functions and precomputations
    // FE* dimensions: [permutation][entities][points][dofs]
    static const S FE11_C0_Qa86[1][1][45][35] =
        {{{{0.0, 0.0, 0.0, 0.0, 0.0, 0.0, 0.0, 0.0, 0.0, 0.0, 0.0, 0.0, 0.0, 0.0, 0.0, 0.0, 0.0, 0.0, 0.0, 0.0, 0.0, 0.0, 0.0, 0.0, 0.0, 0.0, 0.0, 0.0, 0.0, 0.0, 0.0, 0.0, 0.0, 0.0, 1.0},
           {-0.05956971139541252, -0.03559323724590319, -0.05956971139541232, -0.05956971139541225, 0.03421814844650566, 0.0232720595882471, 0.0342181484465056, 0.06149632303518762, -0.1163663901510845, 0.1180157565197705, 0.0614963230351877, -0.1163663901510845, 0.1180157565197706, 0.03421814844650563, 0.02327205958824706, 0.0342181484465056, 0.03421814844650565, 0.02327205958824718, 0.03421814844650562, 0.1180157565197707, -0.1163663901510848, 0.06149632303518773, 0.4203612754739532, -0.1214980831966771, -0.1214980831966767, -0.03660842861355743, -0.03660842861355736, -0.03660842861355738, -0.1214980831966772, 0.4203612754739531, -0.1214980831966769, -0.121498083196677, 0.4203612754739528, -0.121498083196677, 0.3274701923756189},
           {-0.03559323724590299, -0.05956971139541225, -0.05956971139541234, -0.05956971139541228, 0.03421814844650564, 0.02327205958824705, 0.03421814844650545, 0.03421814844650548, 0.02327205958824713, 0.03421814844650562, 0.03421814844650556, 0.02327205958824713, 0.03421814844650563, 0.06149632303518742, -0.1163663901510845, 0.1180157565197704, 0.06149632303518751, -0.1163663901510847, 0.1180157565197705, 0.06149632303518741, -0.1163663901510845, 0.1180157565197704, -0.03660842861355729, -0.03660842861355733, -0.03660842861355738, 0.4203612754739532, -0.1214980831966771, -0.1214980831966771, 0.4203612754739531, -0.121498083196677, -0.1214980831966768, 0.4203612754739532, -0.1214980831966767, -0.121498083196677, 0.3274701923756191},
           {-0.05956971139541246, -0.05956971139541238, -0.05956971139541235, -0.03559323724590319, 0.1180157565197704, -0.1163663901510845, 0.0614963230351878, 0.1180157565197705, -0.1163663901510846, 0.06149632303518773, 0.03421814844650573, 0.02327205958824709, 0.03421814844650561, 0.1180157565197708, -0.1163663901510848, 0.06149632303518768, 0.03421814844650568, 0.02327205958824715, 0.03421814844650565, 0.03421814844650571, 0.02327205958824713, 0.03421814844650561, -0.1214980831966769, -0.121498083196677, 0.420361275473953, -0.121498083196677, -0.1214980831966769, 0.4203612754739533, -0.1214980831966771, -0.1214980831966768, 0.4203612754739531, -0.03660842861355744, -0.0366084286135574, -0.03660842861355745, 0.3274701923756188},
           {-0.05956971139541247, -0.05956971139541237, -0.03559323724590324, -0.05956971139541224, 0.06149632303518781, -0.1163663901510845, 0.1180157565197705, 0.03421814844650566, 0.0232720595882471, 0.03421814844650561, 0.1180157565197706, -0.1163663901510846, 0.06149632303518772, 0.03421814844650575, 0.0232720595882471, 0.03421814844650563, 0.1180157565197708, -0.1163663901510848, 0.06149632303518773, 0.03421814844650573, 0.0232720595882471, 0.03421814844650561, -0.1214980831966771, 0.4203612754739528, -0.1214980831966767, -0.1214980831966771, 0.420361275473953, -0.1214980831966769, -0.03660842861355725, -0.03660842861355742, -0.03660842861355736, -0.1214980831966771, -0.1214980831966769, 0.420361275473953, 0.3274701923756188},
           {-0.02809900990690439, 0.2970657280769631, -0.02809900990690425, -0.02809900990690428, 0.004558767108314035, 0.004111445129968258, 0.004558767108314267, 0.265692243508087, -0.120043659889527, 0.07278995032112372, 0.265692243508087, -0.1200436598895273, 0.07278995032112362, 0.004558767108314364, 0.004111445129968236, 0.00455876710831412, 0.004558767108314327, 0.004111445129968336, 0.004558767108314211, 0.07278995032112377, -0.1200436598895273, 0.2656922435080868, 0.06928739412624044, -0.02002631085972274, -0.0200263108597223, -0.001037679986468228, -0.001037679986467819, -0.001037679986468196, -0.0200263108597229, 0.06928739412624028, -0.02002631085972263, -0.02002631085972313, 0.0692873941262403, -0.02002631085972233, 0.007637484523928206},
           {0.2970657280769628, -0.02809900990690425, -0.02809900990690423, -0.02809900990690431, 0.00455876710831407, 0.004111445129968374, 0.004558767108314132, 0.004558767108314122, 0.004111445129968286, 0.004558767108314038, 0.0045587671083141, 0.004111445129968548, 0.004558767108314042, 0.2656922435080871, -0.1200436598895272, 0.07278995032112348, 0.265692243508087, -0.1200436598895273, 0.07278995032112373, 0.265692243508087, -0.1200436598895272, 0.07278995032112374, -0.001037679986468042, -0.001037679986468128, -0.001037679986468066, 0.06928739412624035, -0.02002631085972231, -0.02002631085972273, 0.06928739412624005, -0.02002631085972267, -0.02002631085972266, 0.06928739412624035, -0.02002631085972281, -0.02002631085972258, 0.007637484523928817},
           {-0.02809900990690437, -0.02809900990690434, -0.02809900990690433, 0.2970657280769633, 0.07278995032112368, -0.1200436598895275, 0.2656922435080873, 0.07278995032112374, -0.1200436598895273, 0.2656922435080867, 0.004558767108314309, 0.004111445129968201, 0.004558767108314118, 0.07278995032112374, -0.1200436598895273, 0.2656922435080867, 0.004558767108314152, 0.004111445129968338, 0.004558767108314189, 0.004558767108314233, 0.0041114451299683, 0.004558767108314197, -0.02002631085972249, -0.02002631085972267, 0.06928739412624016, -0.02002631085972268, -0.02002631085972241, 0.06928739412624009, -0.02002631085972264, -0.02002631085972243, 0.06928739412623998, -0.001037679986468113, -0.001037679986467934, -0.00103767998646808, 0.007637484523928761},
           {-0.02809900990690432, -0.02809900990690429, 0.2970657280769632, -0.02809900990690428, 0.2656922435080867, -0.1200436598895271, 0.07278995032112362, 0.004558767108314135, 0.004111445129968229, 0.004558767108314302, 0.07278995032112363, -0.1200436598895273, 0.2656922435080869, 0.004558767108314214, 0.004111445129968299, 0.004558767108314334, 0.07278995032112374, -0.1200436598895274, 0.265692243508087, 0.004558767108314228, 0.00411144512996845, 0.004558767108314164, -0.02002631085972269, 0.06928739412624021, -0.0200263108597223, -0.02002631085972286, 0.06928739412623987, -0.02002631085972234, -0.001037679986468036, -0.001037679986468002, -0.001037679986467726, -0.02002631085972272, -0.02002631085972255, 0.06928739412624009, 0.007637484523928761},
           {0.04814795365975433, 0.04814795365975422, -0.05850752128263513, -0.05850752128263513, 0.01174951340939668, 0.009174510910055651, 0.01174951340939666, -0.03407920401692631, -0.03510290871594129, 0.08394207924151809, -0.03407920401692638, -0.03510290871594138, 0.08394207924151798, -0.03407920401692653, -0.03510290871594116, 0.08394207924151811, -0.0340792040169266, -0.03510290871594122, 0.08394207924151803, -0.106271769849048, 0.4945891610563035, -0.1062717698490478, 0.02207039611286, -0.02714458065332566, -0.02714458065332587, 0.02207039611286005, -0.02714458065332568, -0.02714458065332579, 0.245516773956962, 0.2455167739569622, -0.1996218885377327, 0.2455167739569621, 0.2455167739569622, -0.1996218885377327, 0.1285743217593033},
           {0.04814795365975435, -0.0585075212826352, 0.04814795365975413, -0.05850752128263513, -0.03407920401692636, -0.03510290871594127, 0.08394207924151802, 0.0117495134093967, 0.009174510910055758, 0.01174951340939664, 0.08394207924151804, -0.03510290871594131, -0.03407920401692643, -0.03407920401692653, -0.03510290871594113, 0.08394207924151811, -0.1062717698490481, 0.4945891610563035, -0.1062717698490478, -0.03407920401692655, -0.03510290871594113, 0.08394207924151814, -0.02714458065332575, 0.02207039611286013, -0.02714458065332594, 0.2455167739569623, 0.2455167739569621, -0.1996218885377329, 0.02207039611286023, -0.02714458065332579, -0.02714458065332592, 0.2455167739569621, -0.1996218885377327, 0.245516773956962, 0.1285743217593033},
           {0.04814795365975435, -0.05850752128263524, -0.05850752128263519, 0.04814795365975415, 0.08394207924151807, -0.03510290871594119, -0.03407920401692639, 0.08394207924151809, -0.03510290871594118, -0.03407920401692648, 0.01174951340939667, 0.009174510910055665, 0.01174951340939673, -0.106271769849048, 0.4945891610563035, -0.1062717698490477, -0.03407920401692646, -0.03510290871594132, 0.08394207924151813, -0.03407920401692652, -0.03510290871594121, 0.0839420792415181, -0.02714458065332568, -0.02714458065332558, 0.02207039611285995, 0.2455167739569622, -0.1996218885377329, 0.2455167739569619, 0.2455167739569625, -0.199621888537733, 0.2455167739569623, 0.02207039611286022, -0.0271445806533258, -0.02714458065332568, 0.1285743217593033},
           {-0.05850752128263528, -0.05850752128263528, 0.04814795365975429, 0.04814795365975415, -0.106271769849048, 0.4945891610563038, -0.1062717698490477, 0.08394207924151822, -0.03510290871594129, -0.03407920401692644, 0.08394207924151817, -0.03510290871594122, -0.03407920401692654, 0.08394207924151832, -0.0351029087159413, -0.0340792040169264, 0.08394207924151835, -0.03510290871594125, -0.03407920401692652, 0.01174951340939676, 0.009174510910055656, 0.01174951340939666, -0.1996218885377329, 0.2455167739569621, 0.2455167739569621, -0.1996218885377329, 0.2455167739569621, 0.2455167739569622, -0.02714458065332566, -0.02714458065332561, 0.02207039611286002, -0.02714458065332568, -0.02714458065332568, 0.02207039611286002, 0.1285743217593029},
           {-0.05850752128263531, 0.04814795365975424, -0.05850752128263519, 0.04814795365975411, 0.08394207924151803, -0.03510290871594125, -0.03407920401692632, -0.106271769849048, 0.4945891610563036, -0.1062717698490477, -0.03407920401692648, -0.0351029087159412, 0.08394207924151817, 0.08394207924151824, -0.03510290871594135, -0.03407920401692643, 0.01174951340939664, 0.009174510910055779, 0.01174951340939676, 0.08394207924151821, -0.03510290871594116, -0.03407920401692644, 0.245516773956962, -0.1996218885377329, 0.2455167739569621, -0.02714458065332563, -0.02714458065332554, 0.02207039611286, -0.1996218885377329, 0.2455167739569621, 0.245516773956962, -0.02714458065332562, 0.02207039611285994, -0.02714458065332574, 0.128574321759303},
           {-0.05850752128263537, 0.04814795365975422, 0.04814795365975411, -0.05850752128263513, -0.03407920401692625, -0.03510290871594131, 0.08394207924151813, -0.03407920401692655, -0.03510290871594115, 0.08394207924151813, -0.1062717698490479, 0.4945891610563037, -0.1062717698490476, 0.01174951340939679, 0.00917451091005562, 0.01174951340939665, 0.08394207924151834, -0.03510290871594137, -0.03407920401692632, 0.08394207924151832, -0.03510290871594122, -0.03407920401692643, 0.2455167739569623, 0.2455167739569621, -0.1996218885377325, -0.02714458065332574, 0.02207039611286003, -0.0271445806533258, -0.02714458065332559, 0.02207039611286008, -0.02714458065332572, -0.199621888537733, 0.2455167739569619, 0.2455167739569618, 0.1285743217593032},
           {0.04429386840206617, 0.04429386840206617, -0.04723641650858094, -0.04723641650858089, 0.03721800766006429, 0.01841204515236551, 0.03721800766006424, -0.04356056858617147, -0.009970686165233092, 0.05772369917411615, -0.04356056858617144, -0.009970686165233122, 0.05772369917411613, -0.04356056858617143, -0.009970686165233021, 0.05772369917411613, -0.04356056858617149, -0.009970686165233038, 0.05772369917411614, -0.06406626010022326, 0.01275219252351942, -0.06406626010022327, 0.06991065442183773, -0.08598374889948603, -0.08598374889948603, 0.06991065442183761, -0.08598374889948601, -0.0859837488994861, 0.1480105348921632, 0.1480105348921634, -0.1203426634460134, 0.1480105348921632, 0.1480105348921635, -0.1203426634460134, 0.864404459804258},
           {0.04429386840206619, -0.04723641650858092, 0.04429386840206608, -0.04723641650858087, -0.04356056858617136, -0.009970686165233148, 0.05772369917411607, 0.03721800766006433, 0.0184120451523656, 0.03721800766006429, 0.05772369917411613, -0.009970686165233073, -0.04356056858617145, -0.04356056858617146, -0.009970686165233028, 0.05772369917411613, -0.06406626010022329, 0.0127521925235194, -0.06406626010022332, -0.04356056858617146, -0.009970686165233045, 0.05772369917411616, -0.08598374889948603, 0.06991065442183758, -0.08598374889948607, 0.1480105348921634, 0.1480105348921634, -0.1203426634460134, 0.06991065442183776, -0.08598374889948604, -0.08598374889948598, 0.1480105348921633, -0.1203426634460133, 0.1480105348921633, 0.864404459804258},
           {0.04429386840206619, -0.0472364165085809, -0.04723641650858092, 0.04429386840206606, 0.05772369917411607, -0.009970686165233096, -0.04356056858617142, 0.05772369917411611, -0.009970686165233111, -0.04356056858617137, 0.03721800766006435, 0.01841204515236557, 0.03721800766006426, -0.06406626010022329, 0.01275219252351942, -0.06406626010022323, -0.04356056858617147, -0.009970686165233063, 0.05772369917411613, -0.04356056858617147, -0.009970686165233044, 0.05772369917411613, -0.08598374889948597, -0.08598374889948607, 0.06991065442183754, 0.1480105348921633, -0.1203426634460135, 0.1480105348921635, 0.1480105348921633, -0.1203426634460134, 0.1480105348921633, 0.06991065442183765, -0.08598374889948594, -0.08598374889948601, 0.864404459804258},
           {-0.04723641650858109, -0.04723641650858094, 0.04429386840206614, 0.04429386840206608, -0.06406626010022332, 0.01275219252351962, -0.06406626010022325, 0.05772369917411618, -0.009970686165233144, -0.04356056858617142, 0.05772369917411619, -0.009970686165233106, -0.0435605685861715, 0.05772369917411637, -0.009970686165233143, -0.04356056858617136, 0.05772369917411636, -0.009970686165233108, -0.04356056858617143, 0.03721800766006443, 0.0184120451523656, 0.03721800766006429, -0.1203426634460134, 0.1480105348921634, 0.1480105348921635, -0.1203426634460136, 0.1480105348921634, 0.1480105348921635, -0.085983748899486, -0.08598374889948587, 0.06991065442183748, -0.08598374889948608, -0.0859837488994859, 0.06991065442183748, 0.8644044598042577},
           {-0.04723641650858112, 0.04429386840206619, -0.04723641650858091, 0.04429386840206607, 0.05772369917411607, -0.009970686165233096, -0.04356056858617138, -0.0640662601002234, 0.01275219252351951, -0.06406626010022325, -0.04356056858617146, -0.009970686165233118, 0.05772369917411615, 0.05772369917411636, -0.009970686165233174, -0.04356056858617137, 0.03721800766006438, 0.01841204515236567, 0.03721800766006432, 0.05772369917411638, -0.009970686165233117, -0.04356056858617142, 0.1480105348921635, -0.1203426634460135, 0.1480105348921635, -0.08598374889948611, -0.08598374889948597, 0.0699106544218376, -0.1203426634460137, 0.1480105348921635, 0.1480105348921633, -0.0859837488994861, 0.06991065442183761, -0.08598374889948603, 0.8644044598042577},
           {-0.04723641650858115, 0.04429386840206619, 0.04429386840206609, -0.04723641650858087, -0.04356056858617134, -0.00997068616523315, 0.05772369917411613, -0.04356056858617147, -0.009970686165233099, 0.05772369917411612, -0.06406626010022337, 0.01275219252351955, -0.06406626010022329, 0.03721800766006446, 0.01841204515236562, 0.03721800766006426, 0.05772369917411638, -0.009970686165233132, -0.04356056858617138, 0.05772369917411641, -0.009970686165233136, -0.04356056858617141, 0.1480105348921636, 0.1480105348921634, -0.1203426634460133, -0.08598374889948614, 0.06991065442183757, -0.08598374889948598, -0.08598374889948605, 0.06991065442183768, -0.08598374889948593, -0.1203426634460138, 0.1480105348921634, 0.1480105348921633, 0.8644044598042577},
           {0.02939305272811426, -0.03552801150567084, 0.001453964621104683, 0.001453964621104701, -0.002167794072909343, -0.001199810083075704, -0.002167794072909425, 0.02794445212842833, 0.005824475375486917, 0.0003518720844766654, 0.02794445212842823, 0.005824475375486997, 0.0003518720844766663, -0.05165786788596587, 0.0008182367424715691, -0.002793133340848982, -0.05165786788596578, 0.0008182367424714207, -0.002793133340849008, -0.01244816791388628, -0.02677577427144548, 0.05345316987024893, -0.03451968571962992, -0.006143324832796106, -0.006143324832796325, 0.8718535133744798, 0.01615971598050604, 0.01615971598050625, 0.07968597625001102, -0.06768559695086633, -0.004878563570740474, 0.07968597625001105, -0.06768559695086614, -0.004878563570740639, 0.1619468884641492},
           {0.02939305272811439, 0.001453964621104815, -0.03552801150567085, 0.00145396462110466, 0.02794445212842835, 0.005824475375486828, 0.0003518720844766102, -0.002167794072909549, -0.001199810083075673, -0.002167794072909308, 0.0003518720844766099, 0.00582447537548689, 0.02794445212842829, -0.05165786788596606, 0.0008182367424715033, -0.002793133340848875, -0.01244816791388628, -0.02677577427144559, 0.05345316987024908, -0.05165786788596594, 0.0008182367424716573, -0.002793133340849175, -0.006143324832796393, -0.03451968571962989, -0.006143324832796488, 0.07968597625001107, -0.06768559695086632, -0.00487856357074075, 0.87185351337448, 0.01615971598050627, 0.01615971598050627, 0.07968597625001117, -0.004878563570740576, -0.06768559695086621, 0.1619468884641493},
           {0.02939305272811435, 0.001453964621104832, 0.001453964621104669, -0.03552801150567075, 0.0003518720844766494, 0.005824475375486848, 0.02794445212842817, 0.0003518720844764954, 0.005824475375487029, 0.02794445212842821, -0.00216779407290958, -0.001199810083075727, -0.002167794072909362, -0.01244816791388625, -0.02677577427144542, 0.05345316987024885, -0.05165786788596608, 0.0008182367424714199, -0.002793133340848972, -0.05165786788596602, 0.0008182367424716798, -0.002793133340849178, -0.006143324832796345, -0.006143324832796358, -0.03451968571962989, 0.07968597625001107, -0.004878563570740711, -0.06768559695086611, 0.07968597625001099, -0.00487856357074061, -0.06768559695086603, 0.87185351337448, 0.01615971598050663, 0.01615971598050617, 0.1619468884641491},
           {-0.03552801150567072, 0.0293930527281141, 0.001453964621104702, 0.001453964621104714, -0.002167794072909398, -0.001199810083075729, -0.002167794072909381, -0.05165786788596572, 0.0008182367424716597, -0.002793133340848986, -0.05165786788596569, 0.0008182367424715434, -0.002793133340848966, 0.02794445212842831, 0.005824475375486698, 0.0003518720844766496, 0.02794445212842821, 0.005824475375486899, 0.0003518720844767345, 0.05345316987024885, -0.02677577427144536, -0.01244816791388619, 0.8718535133744804, 0.01615971598050618, 0.01615971598050662, -0.03451968571962991, -0.006143324832796091, -0.006143324832796334, -0.06768559695086591, 0.07968597625001053, -0.004878563570740554, -0.06768559695086582, 0.07968597625001045, -0.004878563570740629, 0.1619468884641484},
           {-0.03552801150567073, 0.001453964621104578, 0.02939305272811399, 0.00145396462110473, -0.05165786788596531, 0.0008182367424716872, -0.002793133340848992, -0.002167794072909232, -0.001199810083075677, -0.002167794072909382, -0.002793133340848757, 0.0008182367424712714, -0.05165786788596548, 0.02794445212842837, 0.005824475375486808, 0.0003518720844766709, 0.05345316987024887, -0.02677577427144541, -0.01244816791388613, 0.02794445212842832, 0.005824475375486855, 0.0003518720844766765, 0.01615971598050578, 0.8718535133744805, 0.01615971598050654, -0.06768559695086601, 0.0796859762500107, -0.004878563570740625, -0.03451968571962986, -0.006143324832796343, -0.006143324832796291, -0.06768559695086597, -0.004878563570740632, 0.07968597625001055, 0.1619468884641484},
           {-0.03552801150567066, 0.001453964621104579, 0.00145396462110473, 0.02939305272811393, -0.002793133340849094, 0.0008182367424716474, -0.0516578678859653, -0.002793133340848758, 0.0008182367424712931, -0.05165786788596546, -0.00216779407290926, -0.001199810083075747, -0.002167794072909456, 0.05345316987024881, -0.02677577427144539, -0.01244816791388611, 0.02794445212842821, 0.005824475375486941, 0.0003518720844767104, 0.02794445212842826, 0.005824475375486878, 0.0003518720844766566, 0.01615971598050572, 0.01615971598050614, 0.8718535133744805, -0.0676855969508659, -0.004878563570740562, 0.07968597625001052, -0.06768559695086585, -0.004878563570740518, 0.07968597625001046, -0.03451968571962968, -0.006143324832796332, -0.006143324832796324, 0.1619468884641482},
           {0.001453964621104514, 0.001453964621104673, -0.03552801150567084, 0.02939305272811396, 0.05345316987024902, -0.02677577427144549, -0.01244816791388617, -0.002793133340849042, 0.0008182367424716564, -0.05165786788596531, 0.0003518720844767592, 0.005824475375486873, 0.02794445212842831, -0.002793133340848538, 0.0008182367424710401, -0.05165786788596546, 0.0003518720844766671, 0.005824475375486885, 0.02794445212842838, -0.002167794072909156, -0.001199810083075611, -0.002167794072909428, -0.004878563570740703, -0.06768559695086621, 0.07968597625001105, -0.004878563570740693, -0.06768559695086616, 0.0796859762500112, 0.01615971598050535, 0.01615971598050609, 0.8718535133744798, -0.006143324832796364, -0.006143324832796345, -0.03451968571963, 0.1619468884641493},
           {0.001453964621104593, -0.03552801150567074, 0.02939305272811396, 0.001453964621104738, -0.05165786788596528, 0.0008182367424716552, -0.002793133340849106, 0.02794445212842827, 0.005824475375486985, 0.0003518720844766118, 0.05345316987024887, -0.02677577427144547, -0.01244816791388626, -0.002167794072909179, -0.001199810083075602, -0.002167794072909379, -0.002793133340848645, 0.0008182367424711288, -0.05165786788596545, 0.0003518720844767257, 0.005824475375486932, 0.02794445212842821, -0.06768559695086611, 0.0796859762500108, -0.004878563570740678, 0.01615971598050563, 0.87185351337448, 0.01615971598050632, -0.00614332483279619, -0.03451968571962991, -0.006143324832796354, -0.004878563570740598, -0.06768559695086596, 0.07968597625001066, 0.1619468884641486},
           {0.001453964621104489, 0.02939305272811406, 0.001453964621104686, -0.03552801150567073, 0.0003518720844767264, 0.005824475375486872, 0.02794445212842829, -0.01244816791388627, -0.02677577427144549, 0.05345316987024895, -0.05165786788596553, 0.0008182367424716561, -0.002793133340848917, 0.0003518720844766451, 0.00582447537548699, 0.0279444521284282, -0.002167794072909179, -0.001199810083075667, -0.002167794072909389, -0.002793133340848669, 0.000818236742471112, -0.05165786788596557, 0.07968597625001118, -0.004878563570740653, -0.06768559695086601, -0.006143324832796451, -0.006143324832796541, -0.03451968571962986, -0.004878563570740744, 0.07968597625001105, -0.06768559695086594, 0.01615971598050527, 0.87185351337448, 0.0161597159805061, 0.1619468884641491},
           {0.001453964621104507, 0.001453964621104759, 0.02939305272811396, -0.03552801150567071, -0.01244816791388617, -0.02677577427144555, 0.05345316987024901, 0.0003518720844766362, 0.00582447537548688, 0.02794445212842828, -0.002793133340849051, 0.0008182367424716324, -0.05165786788596535, 0.0003518720844767199, 0.005824475375486889, 0.02794445212842823, -0.002793133340848593, 0.0008182367424710811, -0.05165786788596545, -0.002167794072909151, -0.001199810083075675, -0.002167794072909419, -0.004878563570740676, 0.07968597625001075, -0.06768559695086594, -0.004878563570740712, 0.07968597625001088, -0.06768559695086596, -0.006143324832796289, -0.006143324832796437, -0.03451968571962977, 0.01615971598050536, 0.01615971598050623, 0.8718535133744798, 0.1619468884641489},
           {0.001453964621104517, -0.03552801150567077, 0.001453964621104727, 0.02939305272811397, -0.0027931333408491, 0.0008182367424717363, -0.05165786788596535, 0.05345316987024888, -0.02677577427144547, -0.01244816791388622, 0.02794445212842824, 0.005824475375486999, 0.0003518720844766314, -0.002793133340848603, 0.0008182367424711425, -0.05165786788596551, -0.002167794072909193, -0.001199810083075698, -0.002167794072909397, 0.0003518720844767149, 0.005824475375486854, 0.0279444521284282, -0.06768559695086596, -0.00487856357074074, 0.07968597625001088, 0.01615971598050546, 0.01615971598050611, 0.8718535133744801, -0.004878563570740593, -0.06768559695086596, 0.07968597625001085, -0.006143324832796393, -0.03451968571962989, -0.006143324832796395, 0.1619468884641485},
           {0.001453964621104524, 0.02939305272811402, -0.03552801150567082, 0.001453964621104702, 0.02794445212842842, 0.005824475375486905, 0.0003518720844767362, -0.05165786788596544, 0.0008182367424716133, -0.002793133340848937, -0.01244816791388616, -0.02677577427144558, 0.05345316987024916, -0.00216779407290927, -0.001199810083075711, -0.002167794072909395, 0.0003518720844765597, 0.005824475375486993, 0.02794445212842841, -0.002793133340848732, 0.0008182367424711779, -0.05165786788596551, 0.07968597625001098, -0.06768559695086633, -0.004878563570740578, -0.006143324832796464, -0.03451968571962979, -0.006143324832796339, 0.0161597159805052, 0.8718535133744804, 0.01615971598050629, -0.00487856357074064, 0.079685976250011, -0.06768559695086612, 0.1619468884641492},
           {-0.002285516719551695, -0.09391847935691018, -0.04218830954326268, -0.04218830954326269, 0.006919459749059602, 0.005749303640543257, 0.006919459749059467, 0.08162486917359667, -0.09785352801284189, 0.08848419115449387, 0.08162486917359671, -0.09785352801284213, 0.08848419115449378, 0.00219852502604695, 0.01005508189813967, 0.03193067766512404, 0.002198525026046937, 0.01005508189813966, 0.03193067766512411, 0.004330032258036287, 0.0125331203417944, 0.5411958429158777, 0.05638920039850558, -0.0239227129993961, -0.02392271299939594, -0.003255112835795241, -0.008048965604004548, -0.008048965604004522, -0.02035717853158609, 0.2972388103890563, -0.1125618289984667, -0.02035717853158568, 0.2972388103890563, -0.1125618289984667, 0.05222342662558074},
           {-0.002285516719551657, -0.04218830954326266, -0.09391847935691017, -0.04218830954326267, 0.08162486917359651, -0.09785352801284194, 0.08848419115449377, 0.006919459749059523, 0.005749303640543143, 0.006919459749059514, 0.08848419115449377, -0.09785352801284199, 0.08162486917359642, 0.00219852502604712, 0.01005508189813958, 0.03193067766512415, 0.004330032258036296, 0.0125331203417948, 0.5411958429158777, 0.002198525026047092, 0.01005508189813961, 0.03193067766512406, -0.0239227129993958, 0.05638920039850531, -0.02392271299939558, -0.02035717853158573, 0.2972388103890564, -0.1125618289984668, -0.003255112835795103, -0.008048965604004506, -0.008048965604004558, -0.02035717853158564, -0.1125618289984665, 0.2972388103890559, 0.05222342662558024},
           {-0.002285516719551654, -0.04218830954326272, -0.04218830954326271, -0.09391847935691013, 0.08848419115449375, -0.09785352801284188, 0.08162486917359656, 0.08848419115449381, -0.09785352801284188, 0.08162486917359635, 0.006919459749059604, 0.005749303640543209, 0.006919459749059455, 0.004330032258036366, 0.01253312034179479, 0.5411958429158779, 0.002198525026047086, 0.01005508189813962, 0.03193067766512415, 0.002198525026047154, 0.01005508189813962, 0.03193067766512408, -0.02392271299939558, -0.02392271299939572, 0.05638920039850531, -0.02035717853158565, -0.1125618289984666, 0.2972388103890563, -0.02035717853158554, -0.1125618289984665, 0.2972388103890556, -0.003255112835795295, -0.008048965604004405, -0.008048965604004461, 0.05222342662558059},
           {-0.09391847935691028, -0.002285516719551533, -0.04218830954326264, -0.04218830954326266, 0.006919459749059441, 0.005749303640543212, 0.006919459749059407, 0.002198525026047015, 0.01005508189813956, 0.0319306776651241, 0.002198525026046975, 0.01005508189813966, 0.03193067766512396, 0.0816248691735964, -0.09785352801284194, 0.08848419115449375, 0.08162486917359643, -0.09785352801284206, 0.08848419115449367, 0.5411958429158774, 0.01253312034179506, 0.004330032258036192, -0.003255112835795319, -0.008048965604004444, -0.008048965604004338, 0.05638920039850567, -0.02392271299939586, -0.02392271299939592, 0.2972388103890565, -0.02035717853158583, -0.1125618289984668, 0.2972388103890563, -0.02035717853158563, -0.1125618289984666, 0.05222342662558088},
           {-0.09391847935691029, -0.04218830954326273, -0.002285516719551644, -0.04218830954326269, 0.002198525026047154, 0.01005508189813964, 0.03193067766512408, 0.006919459749059354, 0.005749303640543272, 0.006919459749059391, 0.03193067766512413, 0.01005508189813971, 0.002198525026047103, 0.08162486917359636, -0.09785352801284188, 0.08848419115449374, 0.5411958429158773, 0.01253312034179499, 0.004330032258036244, 0.0816248691735965, -0.09785352801284203, 0.08848419115449381, -0.00804896560400418, -0.003255112835795322, -0.008048965604004466, 0.2972388103890565, -0.02035717853158573, -0.1125618289984668, 0.05638920039850575, -0.02392271299939568, -0.02392271299939563, 0.2972388103890568, -0.1125618289984667, -0.0203571785315859, 0.05222342662558069},
           {-0.09391847935691028, -0.04218830954326274, -0.04218830954326269, -0.002285516719551648, 0.03193067766512413, 0.01005508189813957, 0.002198525026047049, 0.03193067766512402, 0.01005508189813962, 0.002198525026047048, 0.006919459749059391, 0.005749303640543436, 0.006919459749059615, 0.5411958429158772, 0.01253312034179495, 0.004330032258036214, 0.0816248691735966, -0.09785352801284203, 0.08848419115449385, 0.08162486917359645, -0.097853528012842, 0.08848419115449387, -0.008048965604004442, -0.008048965604004237, -0.003255112835795267, 0.2972388103890565, -0.1125618289984667, -0.02035717853158578, 0.2972388103890567, -0.1125618289984669, -0.02035717853158567, 0.05638920039850572, -0.02392271299939581, -0.02392271299939569, 0.05222342662558066},
           {-0.04218830954326279, -0.04218830954326275, -0.09391847935691028, -0.002285516719551621, 0.5411958429158773, 0.01253312034179502, 0.004330032258036275, 0.03193067766512406, 0.0100550818981396, 0.00219852502604716, 0.08848419115449384, -0.09785352801284201, 0.08162486917359642, 0.03193067766512421, 0.01005508189813956, 0.002198525026047181, 0.088484191154494, -0.09785352801284201, 0.08162486917359649, 0.006919459749059512, 0.005749303640543336, 0.006919459749059437, -0.1125618289984669, 0.2972388103890563, -0.0203571785315855, -0.1125618289984669, 0.2972388103890565, -0.02035717853158561, -0.008048965604004464, -0.008048965604004548, -0.003255112835795213, -0.02392271299939573, -0.02392271299939577, 0.05638920039850547, 0.05222342662558044},
           {-0.04218830954326291, -0.09391847935691024, -0.002285516719551595, -0.04218830954326271, 0.002198525026047059, 0.01005508189813962, 0.03193067766512427, 0.08162486917359622, -0.09785352801284188, 0.08848419115449388, 0.5411958429158773, 0.01253312034179521, 0.004330032258036255, 0.006919459749059513, 0.005749303640543066, 0.006919459749059459, 0.03193067766512443, 0.01005508189813962, 0.002198525026047017, 0.08848419115449402, -0.09785352801284206, 0.08162486917359638, 0.2972388103890566, -0.02035717853158561, -0.1125618289984665, -0.008048965604004685, -0.003255112835795398, -0.008048965604004591, -0.02392271299939567, 0.05638920039850564, -0.02392271299939578, -0.112561828998467, 0.2972388103890561, -0.02035717853158562, 0.05222342662558049},
           {-0.0421883095432628, -0.002285516719551688, -0.04218830954326272, -0.0939184793569101, 0.08848419115449375, -0.09785352801284201, 0.08162486917359667, 0.004330032258036381, 0.01253312034179466, 0.5411958429158775, 0.002198525026047171, 0.0100550818981396, 0.03193067766512409, 0.08848419115449399, -0.09785352801284217, 0.08162486917359656, 0.006919459749059467, 0.0057493036405433, 0.00691945974905953, 0.03193067766512422, 0.01005508189813966, 0.002198525026047093, -0.02035717853158575, -0.1125618289984667, 0.2972388103890561, -0.02392271299939566, -0.0239227129993957, 0.05638920039850553, -0.1125618289984668, -0.02035717853158561, 0.2972388103890561, -0.008048965604004484, -0.003255112835795345, -0.008048965604004525, 0.0522234266255806},
           {-0.04218830954326279, -0.04218830954326277, -0.002285516719551658, -0.0939184793569101, 0.004330032258036309, 0.01253312034179479, 0.5411958429158777, 0.08848419115449402, -0.09785352801284206, 0.08162486917359657, 0.03193067766512422, 0.01005508189813963, 0.002198525026047072, 0.08848419115449396, -0.09785352801284207, 0.08162486917359649, 0.03193067766512422, 0.0100550818981396, 0.002198525026047053, 0.006919459749059553, 0.005749303640543205, 0.006919459749059502, -0.1125618289984667, -0.02035717853158565, 0.2972388103890561, -0.1125618289984667, -0.02035717853158568, 0.2972388103890563, -0.02392271299939571, -0.02392271299939558, 0.05638920039850546, -0.008048965604004515, -0.008048965604004459, -0.003255112835795349, 0.05222342662558049},
           {-0.04218830954326291, -0.09391847935691029, -0.04218830954326266, -0.00228551671955162, 0.03193067766512406, 0.01005508189813962, 0.002198525026047192, 0.5411958429158774, 0.01253312034179501, 0.004330032258036212, 0.08162486917359643, -0.09785352801284203, 0.08848419115449395, 0.03193067766512416, 0.01005508189813948, 0.002198525026047136, 0.006919459749059495, 0.005749303640543358, 0.006919459749059509, 0.08848419115449396, -0.09785352801284203, 0.08162486917359653, 0.2972388103890564, -0.1125618289984669, -0.02035717853158541, -0.008048965604004603, -0.008048965604004124, -0.003255112835795201, -0.1125618289984672, 0.2972388103890565, -0.02035717853158567, -0.02392271299939588, 0.05638920039850547, -0.02392271299939567, 0.05222342662558024},
           {-0.04218830954326274, -0.002285516719551651, -0.09391847935691015, -0.04218830954326266, 0.08162486917359646, -0.09785352801284194, 0.08848419115449377, 0.002198525026047089, 0.01005508189813961, 0.03193067766512415, 0.00433003225803629, 0.01253312034179468, 0.5411958429158775, 0.006919459749059603, 0.005749303640543215, 0.006919459749059515, 0.08848419115449399, -0.09785352801284218, 0.08162486917359653, 0.03193067766512426, 0.01005508189813961, 0.002198525026047071, -0.02035717853158583, 0.2972388103890563, -0.1125618289984665, -0.02392271299939589, 0.05638920039850551, -0.02392271299939564, -0.008048965604004548, -0.003255112835795285, -0.008048965604004473, -0.112561828998467, -0.02035717853158571, 0.2972388103890563, 0.05222342662558047}}}};
    static const S FE9_C0_D100_Qa86[1][1][1][4] = {{{{-1.0, 1.0, 0.0, 0.0}}}};
    static const S FE9_C1_D010_Qa86[1][1][1][4] = {{{{-1.0, 0.0, 1.0, 0.0}}}};
    static const S FE9_C2_D001_Qa86[1][1][1][4] = {{{{-1.0, 0.0, 0.0, 1.0}}}};
    // Quadrature loop independent computations for quadrature rule a86
    T J_c0 = {0.0};
    T J_c4 = {0.0};
    T J_c8 = {0.0};
    T J_c5 = {0.0};
    T J_c7 = {0.0};
    T J_c1 = {0.0};
    T J_c6 = {0.0};
    T J_c3 = {0.0};
    T J_c2 = {0.0};
    for (int ic = 0; ic < 4; ++ic)
    {
      J_c0 += coordinate_dofs[ic] * FE9_C0_D100_Qa86[0][0][0][ic];
      J_c4 += coordinate_dofs[ic + 4] * FE9_C1_D010_Qa86[0][0][0][ic];
      J_c8 += coordinate_dofs[ic + 8] * FE9_C2_D001_Qa86[0][0][0][ic];
      J_c5 += coordinate_dofs[ic + 4] * FE9_C2_D001_Qa86[0][0][0][ic];
      J_c7 += coordinate_dofs[ic + 8] * FE9_C1_D010_Qa86[0][0][0][ic];
      J_c1 += coordinate_dofs[ic] * FE9_C1_D010_Qa86[0][0][0][ic];
      J_c6 += coordinate_dofs[ic + 8] * FE9_C0_D100_Qa86[0][0][0][ic];
      J_c3 += coordinate_dofs[ic + 4] * FE9_C0_D100_Qa86[0][0][0][ic];
      J_c2 += coordinate_dofs[ic] * FE9_C2_D001_Qa86[0][0][0][ic];
    }
    T sp_a86[14];
    sp_a86[0] = J_c4 * J_c8;
    sp_a86[1] = J_c5 * J_c7;
    sp_a86[2] = sp_a86[0] - sp_a86[1];
    sp_a86[3] = J_c0 * sp_a86[2];
    sp_a86[4] = J_c5 * J_c6;
    sp_a86[5] = J_c3 * J_c8;
    sp_a86[6] = sp_a86[4] - sp_a86[5];
    sp_a86[7] = J_c1 * sp_a86[6];
    sp_a86[8] = sp_a86[3] + sp_a86[7];
    sp_a86[9] = J_c3 * J_c7;
    sp_a86[10] = J_c4 * J_c6;
    sp_a86[11] = sp_a86[9] - sp_a86[10];
    sp_a86[12] = J_c2 * sp_a86[11];
    sp_a86[13] = sp_a86[8] + sp_a86[12];
    for (int iq = 0; iq < 45; ++iq)
    {
      // Quadrature loop body setup for quadrature rule a86
      // Varying computations for quadrature rule a86
      T w0 = {0.0};
      for (int ic = 0; ic < 35; ++ic)
        w0 += w[ic] * FE11_C0_Qa86[0][0][iq][ic];
      T sv_a86[1];
      sv_a86[0] = sp_a86[13] * w0;
      const T fw0 = sv_a86[0] * weights_a86[iq];
      for (int i = 0; i < 35; ++i)
        A[i] += fw0 * FE11_C0_Qa86[0][0][iq][i];
    }
  }
};

// =========================================
// Mass operator degree 5
// =========================================
template <typename T, typename S>
struct Operator<T, S, 5>
{
  constexpr static std::size_t num_dofs = 56;
  inline void apply(T *restrict A, const T *restrict w, const T *restrict coordinate_dofs)
  {
    // Quadrature rules
    static const S weights_1eb[74] = {6.365271938318e-5, 0.0001316831857909544, 0.0001316831857919753, 0.0001316831857927753, 0.0002820943065241142, 0.0002820943065245265, 0.0002820943065259753, 0.001023192373304246, 0.001023192373307521, 0.00102319237330796, 0.001103390983747505, 0.001103390983748027, 0.001103390983748754, 0.00116416016749959, 0.001164160167500397, 0.001164160167500605, 0.001191461909106609, 0.001191461909106978, 0.00119146190910779, 0.001368674554135069, 0.001368674554136909, 0.001368674554137219, 0.001522996656033314, 0.00152299665603406, 0.001522996656034905, 0.001695831015223938, 0.001695831015224265, 0.00169583101522512, 0.001873698558482353, 0.001873698558483607, 0.001873698558484433, 0.001898703097503022, 0.001898703097503797, 0.001898703097504038, 0.001902828894582963, 0.001959184315344779, 0.001969493864818562, 0.001969493864819973, 0.001969493864825328, 0.002064660777657845, 0.002064660777661681, 0.002064660777662242, 0.002083913166714165, 0.002083913166715285, 0.00208391316671666, 0.002094685984369893, 0.002094685984373115, 0.002094685984375275, 0.00219141969443908, 0.002191419694439428, 0.002191419694440678, 0.002284450780288395, 0.002284450780289186, 0.002284450780289795, 0.00277740490917553, 0.00277740490917618, 0.002777404909179498, 0.003445098889335028, 0.003445098889341516, 0.003445098889342072, 0.004234512641858648, 0.004234512641859507, 0.004234512641860643, 0.004471157472950426, 0.004471157472951478, 0.004471157472952013, 0.004553883199161187, 0.004553883199161758, 0.004553883199163369, 0.004651927948037353, 0.004682093742486137, 0.004682093742490215, 0.004682093742491071, 0.007763086997403201};
    // Precomputed values of basis functions and precomputations
    // FE* dimensions: [permutation][entities][points][dofs]
    static const S FE11_C0_Q1eb[1][1][74][56] =
        {{{{0.004757195471838557, 0.0047571954717022, 0.004757195471528583, 0.7973003319854147, -0.01265895315041329, 0.02060088415856189, -0.03599409156628062, 0.08819915780913663, -0.01265895315087941, 0.0206008841593308, -0.03599409156765753, 0.08819915781270667, -0.0001356410888578301, -0.0001016297735813198, -0.0001016297735817286, -0.0001356410888578919, -0.01265895315124502, 0.02060088415993513, -0.0359940915687388, 0.08819915781550938, -0.0001356410888619575, -0.0001016297735848209, -0.0001016297735849802, -0.0001356410888622201, -0.0001356410888672696, -0.0001016297735887338, -0.0001016297735886965, -0.0001356410888674148, 0.0005434569457070462, 0.0004396246125118952, 0.0005434569457084598, -0.001465746306317172, -0.001465746306319319, 0.004520065128002164, 0.0005434569457228263, 0.0004396246125243024, 0.0005434569457254557, -0.00146574630636172, -0.001465746306365507, 0.004520065128145386, 0.0005434569457447886, 0.000439624612541931, 0.0005434569457458015, -0.001465746306420685, -0.001465746306422475, 0.004520065128328095, 4.367685170205891e-6, 4.266643299516033e-6, 4.367685170307382e-6, 4.266643299362372e-6, 4.266643299372459e-6, 4.367685170392818e-6, -2.781592553491125e-5, -2.78159255346951e-5, -2.78159255347099e-5, 0.0001229267472278539},
           {0.02294694908182798, 0.3863447829091131, 0.007545428127674218, 0.008908606950142723, -0.0003284336010992318, -0.0002377264774108639, -0.0002358464713444832, -0.0003229854843160862, 0.1063281864888858, -0.05248049007677964, 0.03386946990787447, -0.0225457292303174, 0.08768478311297485, -0.0439459504274653, 0.02853109400258128, -0.01905808648222615, -0.001185236686257362, -0.0009283524656009724, -0.001140415173227323, -0.001796825391807284, -0.0009816043639935819, -0.0007734315036498857, -0.000957605092110729, -0.001513040923833947, -0.06074627809604442, 0.09879406212170838, -0.176131993863447, 0.531774338284442, 0.008713642057571214, -0.003122100671642992, 0.001250802294761027, -0.003091598777216237, 0.0009773322118930437, 0.001232831271561885, 5.75275552853655e-5, 6.471420500888018e-5, 7.929085001063784e-5, 6.429942767009178e-5, 7.48415097170416e-5, 7.829633070775518e-5, 0.004810140986490258, -0.01372713465723663, 0.05104673972494487, 0.004438965794840809, -0.01758849428759858, 0.006918526213595186, 0.003981792302863862, -0.01135517071376187, 0.04216141215881591, 0.003706180053694783, -0.01469197759472356, 0.005810049757093943, -0.0003964295750891537, 0.002048590092606166, -0.0004822539866626963, -0.0004784837114951871},
           {0.3863447829077535, 0.007545428127987927, 0.022946949081852, 0.008908606950030961, -0.00118523668623967, -0.0009283524655874739, -0.001140415173211323, -0.001796825391782514, -0.0003284336011083927, -0.000237726477417903, -0.0002358464713518622, -0.0003229854843265028, -0.001513040923897708, -0.0009576050921513313, -0.000773431503684302, -0.000981604364038766, 0.1063281864870599, -0.05248049007600359, 0.03386946990741171, -0.0225457292300253, 0.5317743382834411, -0.17613199386336, 0.09879406212173461, -0.06074627809608928, 0.08768478311693712, -0.04394595042934814, 0.02853109400378355, -0.01905808648302189, 7.92908500130999e-5, 6.471420501075142e-5, 5.752755528649185e-5, 7.484150971908809e-5, 6.429942767183758e-5, 7.829633071042875e-5, 0.05104673972409063, -0.0137271346570182, 0.00481014098641686, -0.01758849428733158, 0.004438965794774653, 0.006918526213496041, 0.008713642057832312, -0.003122100671730861, 0.001250802294795846, -0.003091598777312593, 0.0009773322119219041, 0.001232831271601993, 0.04216141216071903, -0.01469197759535868, 0.005810049757340728, -0.01135517071427884, 0.003706180053857133, 0.003981792303046391, 0.002048590092667814, -0.0004822539866768923, -0.0003964295751015761, -0.0004784837115094477},
           {0.007545428127833128, 0.02294694908190551, 0.3863447829049775, 0.008908606950416674, 0.1063281864920002, -0.05248049007832126, 0.03386946990888932, -0.02254572923100383, -0.001185236686299125, -0.0009283524656324036, -0.001140415173264621, -0.001796825391866897, -0.06074627809620921, 0.09879406212187375, -0.1761319938634681, 0.5317743382834305, -0.0003284336011170549, -0.0002377264774232862, -0.0002358464713568155, -0.0003229854843330384, -0.01905808648261772, 0.02853109400314557, -0.04394595042828459, 0.08768478311447876, -0.001513040923868812, -0.0009576050921321801, -0.0007734315036668861, -0.0009816043640167025, 0.004810140986657498, -0.01372713465770234, 0.05104673972665488, 0.00443896579498788, -0.01758849428817555, 0.00691852621382299, 0.001250802294828231, -0.003122100671807492, 0.00871364205802915, 0.000977332211943545, -0.003091598777376609, 0.001232831271626284, 7.92908500154171e-5, 6.471420501211693e-5, 5.752755528874157e-5, 7.484150972072446e-5, 6.42994276734616e-5, 7.829633071256039e-5, 0.005810049757224016, 0.003706180053776346, 0.003981792302955234, -0.01469197759504403, -0.01135517071401314, 0.04216141215972277, -0.0004822539866904963, -0.00039642957511185, 0.002048590092721118, -0.0004784837115211024},
           {0.01112859801806018, 0.005755365987770646, -0.009955752513873465, 0.02213865790758876, 0.1184342857554304, -0.08706022857182787, 0.06873967912860326, -0.05193165563546488, -0.0005040004085308896, -0.0003352477954106406, -0.0003100901875906322, -0.0004268550577022648, -0.01325110217340861, 0.01696353860541957, -0.02027193955141228, 0.02364382246704071, -0.002008641321561464, -0.001794554571379663, -0.004488862343945994, -0.01032995958131171, -0.02878757101852071, 0.04592683119555784, -0.08092243279892598, 0.7902702769157349, -0.0004337248178812276, -0.0004137571486351059, -0.001101437550934433, -0.002578212195848735, 0.001737740969576978, -0.003696123161034447, 0.008034394018458971, 0.001223030937336792, -0.003346352318768322, 0.001504517863792941, 0.008410508573688986, -0.03018934852754566, 0.2283055578449675, 0.012887810325892, -0.08603047774382558, 0.03725035452964282, 7.678678655564888e-5, 0.0001506977708357038, 0.0002932808511241233, 0.0001397171060463729, 0.0002481917189334851, 0.0002573188769034713, 0.001800692019727485, 0.00301409122498778, 0.009051156864536888, -0.006387980918527263, -0.01985827114455053, 0.04676292067732627, -0.0007248832542657971, -0.001604667966580597, 0.006069100783295954, -0.001474795445571604},
           {-0.009955752515534029, 0.01112859801780532, 0.005755365987799101, 0.02213865790760788, -0.0005040004085325788, -0.0003352477954117686, -0.0003100901875920282, -0.0004268550577034268, -0.002008641321534895, -0.001794554571361079, -0.004488862343950599, -0.01032995958136259, -0.0004337248178775247, -0.0004137571486332415, -0.001101437550940647, -0.002578212195872527, 0.1184342857545189, -0.08706022857157825, 0.06873967912853873, -0.05193165563547539, 0.02364382246697239, -0.02027193955144271, 0.01696353860547536, -0.0132511021734658, 0.7902702769161584, -0.08092243279681487, 0.04592683119445175, -0.02878757101784606, 7.678678655490029e-5, 0.0001506977708367553, 0.0002932808511256193, 0.0001397171060470763, 0.000248191718935455, 0.0002573188769054017, 0.008034394018456313, -0.003696123161040146, 0.001737740969581207, -0.003346352318773963, 0.001223030937339892, 0.001504517863796682, 0.2283055578453484, -0.03018934852728259, 0.008410508573580651, -0.08603047774410177, 0.01288781032585049, 0.03725035452980277, 0.04676292067763031, -0.006387980918504559, 0.001800692019713916, -0.01985827114470395, 0.003014091224993099, 0.009051156864615183, 0.006069100783336174, -0.0007248832542663871, -0.001604667966592272, -0.001474795445582919},
           {0.005755365987969811, -0.0099557525144851, 0.01112859801803727, 0.02213865790759661, -0.002008641321557089, -0.001794554571376773, -0.004488862343946802, -0.01032995958132117, 0.1184342857550284, -0.08706022857170866, 0.06873967912856971, -0.05193165563546673, 0.7902702769147651, -0.08092243279858487, 0.04592683119542092, -0.02878757101845083, -0.0005040004085478852, -0.0003352477954222179, -0.0003100901876018036, -0.0004268550577171762, -0.002578212195940296, -0.001101437550973395, -0.0004137571486490557, -0.0004337248178957611, -0.01325110217386555, 0.01696353860600175, -0.02027193955210209, 0.02364382246783319, 0.2283055578447968, -0.03018934852748305, 0.008410508573669555, -0.08603047774383074, 0.01288781032588068, 0.03725035452966496, 0.0002932808511342634, 0.0001506977708415684, 7.678678655825846e-5, 0.0002481917189423846, 0.000139717106051212, 0.0002573188769125322, 0.001737740969636056, -0.00369612316116071, 0.008034394018733274, 0.001223030937378422, -0.003346352318884854, 0.001504517863845853, 0.009051156864859291, -0.01985827114525719, 0.04676292067900688, 0.00301409122509231, -0.006387980918746715, 0.001800692019789043, -0.00160466796663741, 0.006069100783513467, -0.0007248832542912848, -0.001474795445624509},
           {-0.02354814683123197, 0.032677396644823, 0.0322583035248638, 0.0496179693827792, -0.0349538464337253, -0.02645997913336452, 0.06813484510045403, -0.0876670234197636, -0.004356326111395978, -0.002626970419356394, -0.002446911740683023, -0.003724003729408881, -0.05664661366560501, 0.04235176408742702, -0.0147049941817228, -0.01925148010294949, 0.007925727912502303, 0.01462094285331847, 0.008491041129697929, -0.05449583018007872, 0.06043020465812331, -0.09270164798630443, 0.6082968326632453, -0.06544769057994758, 0.00433532899495747, 0.00871254682311038, 0.004970392169113757, -0.03512404339099743, 0.01103085026239565, -0.013972033847544, 0.008849405034711242, 0.007318865667115514, -0.01278839341324252, 0.009635434752481834, -0.04806842709210726, 0.2828874876079627, 0.2535053651424852, -0.07806452814077176, -0.2127687365230018, 0.1469569160144199, -0.002960870888189681, -0.002250863283824336, 0.006637337338291661, -0.002130446532177884, 0.004797980414178124, 0.005814160854247574, -0.0262700037975959, -0.04572686894766727, 0.09238842562904472, 0.1498901167933601, -0.127618002103931, 0.1336946515970918, 0.02276321861808929, -0.02659177028259675, 0.068588856721139, -0.02421591563224511},
           {0.03267739664495731, 0.03225830352498727, -0.02354814683121467, 0.04961796938278878, 0.007925727912497158, 0.0146209428533193, 0.008491041129708995, -0.05449583018009598, -0.03495384643371829, -0.02645997913330655, 0.0681348451004168, -0.08766702341975915, -0.06544769058028863, 0.6082968326627273, -0.09270164798615207, 0.06043020465806714, -0.004356326111413952, -0.002626970419367456, -0.002446911740694443, -0.003724003729427715, -0.03512404339115092, 0.004970392169143847, 0.008712546823150581, 0.00433532899497651, -0.05664661366583059, 0.04235176408758447, -0.01470499418176167, -0.01925148010304085, 0.2535053651421337, 0.2828874876079287, -0.04806842709208031, -0.2127687365229204, -0.0780645281408032, 0.1469569160144285, 0.006637337338321139, -0.002250863283837056, -0.002960870888204676, 0.004797980414200503, -0.002130446532190463, 0.005814160854277774, 0.01103085026244028, -0.01397203384759832, 0.008849405034737978, 0.007318865667146837, -0.0127883934132983, 0.009635434752528163, 0.09238842562943854, -0.1276180021044545, 0.1336946515976047, -0.04572686894789839, 0.1498901167941237, -0.02627000379771389, -0.026591770282714, 0.06858885672145094, 0.02276321861821394, -0.02421591563236462},
           {0.03225830352519097, -0.02354814683110429, 0.03267739664498207, 0.04961796938281342, -0.004356326111418962, -0.00262697041937008, -0.002446911740696951, -0.003724003729431781, 0.00792572791248068, 0.01462094285333359, 0.008491041129754621, -0.05449583018015759, 0.004335328994968812, 0.008712546823162063, 0.004970392169173261, -0.03512404339119998, -0.03495384643373994, -0.02645997913321438, 0.06813484510036961, -0.08766702341976927, -0.01925148010305545, -0.01470499418171015, 0.04235176408756533, -0.05664661366585178, -0.06544769058093478, 0.608296832662633, -0.09270164798559569, 0.06043020465777536, -0.002960870888210292, -0.002250863283847518, 0.006637337338332795, -0.002130446532200573, 0.004797980414208434, 0.005814160854288302, 0.008849405034712357, -0.01397203384759743, 0.01103085026244789, -0.01278839341329739, 0.007318865667151854, 0.00963543475253475, 0.2535053651417628, 0.2828874876084118, -0.04806842709204744, -0.2127687365229373, -0.07806452814100301, 0.1469569160145369, 0.1336946515974387, 0.1498901167944178, -0.02627000379770457, -0.1276180021044972, -0.04572686894802935, 0.09238842562953133, 0.06858885672150095, 0.02276321861829096, -0.02659177028275032, -0.02421591563239714},
           {0.03656267273080051, 0.03684793567655201, 0.007373839887477307, -0.08366386092614587, -0.01704517242583439, 0.02263131824913666, -0.02098501919434952, 0.481337621042105, -0.08111124586819395, 0.09637944136772933, -0.1019170967879777, 0.08710364372885268, -0.01967819820438845, -0.007226200152711698, -0.001966377862626674, -0.002263134554144687, -0.08043722677913609, 0.09547744329004033, -0.100770048368071, 0.08561794549383563, -0.01950409860857174, -0.007159519332477431, -0.001944802421104495, -0.002232967055038274, -0.00532056501656067, -0.003418722399670702, -0.003409198294179802, -0.005289869165203013, 0.06665006037263849, 0.01710796287510496, 0.00882438664746138, -0.1403077504777174, -0.03187317357235649, 0.3381012688321972, 0.06600448583094735, 0.01692676500393092, 0.008704345185537594, -0.1387197078134745, -0.0314278752277133, 0.3328159325480767, 0.01767099418491563, 0.01243619373685212, 0.01758150884429916, -0.03597611508633408, -0.03584703454385134, 0.0775942897104985, 0.003840207562468538, 0.003282140465544868, 0.003822275311156239, 0.001707668855492402, 0.001702807948181537, 0.0007337860589327164, -0.02092858986050005, -0.02086390416665332, -0.007982551140092005, 0.08443108386431261},
           {0.03684793567660042, 0.007373839887321164, 0.03656267273080945, -0.08366386092626452, -0.08043722677912581, 0.0954774432899637, -0.1007700483678691, 0.08561794549330985, -0.01704517242544323, 0.02263131824854723, -0.02098501919330448, 0.4813376210416024, -0.002232967055010313, -0.001944802421084259, -0.007159519332474362, -0.0195040986086092, -0.08111124586827631, 0.0963794413677766, -0.1019170967879323, 0.08710364372852422, -0.005289869165204087, -0.003409198294180888, -0.003418722399672832, -0.005320565016565897, -0.0196781982044503, -0.007226200152718134, -0.001966377862609231, -0.002263134554120509, 0.008704345185425589, 0.01692676500387006, 0.06600448583104759, -0.03142787522742093, -0.1387197078135914, 0.3328159325479824, 0.01758150884429662, 0.01243619373685371, 0.01767099418492559, -0.03584703454382722, -0.0359761150863276, 0.07759428971037383, 0.06665006037282878, 0.01710796287506815, 0.008824386647364364, -0.1403077504780552, -0.03187317357212133, 0.3381012688328321, 0.003822275311164342, 0.001702807948180417, 0.0007337860589272766, 0.003282140465552347, 0.001707668855491756, 0.003840207562479474, -0.0208639041666921, -0.007982551140069806, -0.0209285898605483, 0.08443108386445064},
           {0.00737383988721531, 0.03656267273085948, 0.03684793567660536, -0.0836638609263458, -0.08111124586826368, 0.09637944136771125, -0.1019170967877683, 0.08710364372810782, -0.08043722677921968, 0.09547744329004129, -0.100770048367888, 0.08561794549313446, -0.005320565016568234, -0.003418722399674887, -0.003409198294184256, -0.005289869165211279, -0.0170451724251774, 0.02263131824814562, -0.02098501919258857, 0.48133762104114, -0.002263134554100663, -0.001966377862594993, -0.007226200152715571, -0.01967819820447519, -0.002232967054995529, -0.001944802421073714, -0.007159519332482414, -0.0195040986086614, 0.01767099418492933, 0.01243619373686041, 0.01758150884431499, -0.03597611508632388, -0.0358470345438442, 0.07759428971032528, 0.008824386647284735, 0.01710796287502345, 0.06665006037289223, -0.03187317357190985, -0.140307750478114, 0.3381012688326638, 0.00870434518536611, 0.01692676500385457, 0.06600448583121235, -0.03142787522728341, -0.1387197078139005, 0.3328159325486494, 0.0007337860589238023, 0.001707668855491784, 0.003840207562486551, 0.001702807948181308, 0.003282140465559193, 0.00382227531117457, -0.007982551140058806, -0.02092858986058404, -0.02086390416673838, 0.08443108386459179},
           {-0.005113095458350089, -0.08206162861665028, 0.04210448874881902, 0.04091970905285396, -0.006378826155705916, -0.004050602527485569, -0.004100312277033949, -0.006542687656765692, 0.05045951461546717, -0.09208921127949703, 0.09729156881137963, -0.08704383536547335, 0.05430120017825711, -0.09628408261147973, 0.1008346967928123, -0.08979020140614134, 2.341749451337934e-5, -0.0002290395856705707, -0.007412387556178394, -0.0249366926924375, 4.467047894275817e-5, -0.0002228939390845597, -0.007665043120125093, -0.02577129333286383, 0.01413186617363783, -0.0242011088790853, 0.06450838624550002, 0.3891902635489762, 0.07795775368863328, -0.03956599163071553, 0.0204878848524986, -0.04019599529841761, 0.01437052222000747, 0.02094918413822138, 0.0002380029879239166, 0.001812150381254619, 0.005367337410650021, 0.001837356980625629, 0.004535080876170708, 0.005480027491297464, -0.0005001358063346803, -0.006812343173897981, 0.3601527450145414, 0.01232765296300307, -0.1622341200061357, 0.08153752599212878, -0.0006009450167747687, -0.006991460695780724, 0.383676996524501, 0.01277817128416278, -0.1694773465898181, 0.08457692962422415, -0.006523124592847089, 0.1120354635499204, -0.0283687925528124, -0.02876737029736351},
           {-0.08206162861657926, 0.04210448874881591, -0.005113095458540893, 0.04091970905290104, 2.341749455117384e-5, -0.0002290395856407843, -0.007412387556176681, -0.02493669269251081, -0.006378826155709089, -0.004050602527486207, -0.004100312277032421, -0.006542687656761566, -0.02577129333290297, -0.007665043120111844, -0.0002228939390537659, 4.467047898199899e-5, 0.05045951461514692, -0.09208921127942296, 0.09729156881140547, -0.0870438353655462, 0.389190263548285, 0.06450838624682941, -0.0242011088797944, 0.01413186617411144, 0.05430120017774138, -0.09628408261121719, 0.1008346967926837, -0.08979020140609671, 0.005367337410662271, 0.001812150381250128, 0.0002380029879134219, 0.00453508087617798, 0.001837356980619879, 0.005480027491304572, 0.3601527450150877, -0.006812343173476097, -0.0005001358064894678, -0.1622341200064845, 0.01232765296291563, 0.08153752599234368, 0.0779577536884196, -0.03956599163068122, 0.02048788485249873, -0.0401959952983544, 0.01437052222000016, 0.02094918413820077, 0.3836769965240212, -0.1694773465898607, 0.08457692962431299, -0.006991460695323101, 0.01277817128405119, -0.0006009450169349915, 0.112035463549993, -0.02836879255285705, -0.006523124592790802, -0.02876737029739062},
           {0.04210448874883659, -0.005113095458466687, -0.08206162861657784, 0.04091970905289318, 0.0504595146152353, -0.09208921127944872, 0.09729156881140727, -0.08704383536553569, 2.341749453672253e-5, -0.0002290395856518887, -0.007412387556178843, -0.02493669269248943, 0.01413186617392666, -0.02420110887951583, 0.06450838624630276, 0.3891902635483079, -0.006378826155712608, -0.004050602527488945, -0.004100312277036562, -0.006542687656769518, -0.08979020140615292, 0.1008346967927727, -0.09628408261134883, 0.05430120017793492, -0.02577129333290145, -0.007665043120120364, -0.0002228939390651763, 4.467047896725867e-5, -0.0005001358064306915, -0.006812343173634296, 0.3601527450148977, 0.01232765296295008, -0.1622341200063749, 0.08153752599227977, 0.02048788485251361, -0.03956599163072284, 0.0779577536885618, 0.01437052222001385, -0.04019599529841333, 0.02094918413822845, 0.005367337410661934, 0.001812150381253247, 0.0002380029879175553, 0.004535080876178953, 0.001837356980623641, 0.005480027491307406, 0.08457692962432156, 0.01277817128409835, -0.00060094501687489, -0.1694773465899277, -0.006991460695496059, 0.3836769965244238, -0.02836879255286377, -0.006523124592817542, 0.1120354635500727, -0.02876737029740848},
           {0.03719660205593159, -0.08031812322131542, 0.03788903367788939, 0.01199854521449235, -0.01935880386214262, -0.007532103925226436, -0.002613717587142857, -0.003202715632392506, 0.467095352380471, -0.04888926858983899, 0.03930824784160308, -0.02843083425681067, 0.1002406708776895, -0.1088325131336821, 0.1008304895277407, -0.08390990640837651, -0.01894548277719382, -0.007362264275544271, -0.002539487123477432, -0.003091092560017291, -0.005840502261477439, -0.003726404412070564, -0.003697445395975915, -0.005747324838813368, -0.08224817620172445, 0.09854917820329961, -0.1058179901596533, 0.09589134483758355, 0.3486090494611656, -0.1407871195807191, 0.06602765092233483, -0.04105844229853263, 0.01927058641872762, 0.01246401229833251, 0.0040196776245282, 0.003426151886331957, 0.003967802882425949, 0.001926966314663222, 0.001912126615754902, 0.0009877993584876071, 0.0644681086871865, -0.1368364353555424, 0.3347402337384836, 0.01875748656921064, -0.03957369301841965, 0.01202195268902502, 0.0195367774446359, -0.04029085603358654, 0.08952494113761579, 0.01362681625487569, -0.03988849974280665, 0.01926257068111373, -0.0221209499165972, 0.09060814598471982, -0.021932224945595, -0.009565944071644543},
           {-0.08031812322121303, 0.03788903367786912, 0.03719660205592196, 0.01199854521460551, -0.01894548277716374, -0.007362264275544405, -0.002539487123491255, -0.003091092560037581, -0.01935880386210569, -0.007532103925224404, -0.002613717587156343, -0.003202715632412242, -0.005747324838814061, -0.003697445395976235, -0.003726404412070888, -0.005840502261476895, 0.4670953523806515, -0.04888926859054427, 0.03930824784201935, -0.02843083425709188, 0.09589134483794527, -0.1058179901597782, 0.09854917820334032, -0.08224817620172298, 0.1002406708780035, -0.1088325131337657, 0.1008304895277484, -0.08390990640835003, 0.003967802882420616, 0.003426151886327178, 0.004019677624521891, 0.001912126615756361, 0.001926966314664128, 0.0009877993584921816, 0.3347402337384109, -0.1368364353554186, 0.06446810868710114, -0.03957369301861468, 0.01875748656924774, 0.0120219526891044, 0.3486090494608887, -0.1407871195805344, 0.06602765092222407, -0.04105844229871447, 0.01927058641875883, 0.01246401229840843, 0.08952494113775818, -0.03988849974283822, 0.01926257068112092, -0.0402908560336132, 0.01362681625488003, 0.01953677744463954, 0.09060814598464875, -0.02193222494557105, -0.0221209499165703, -0.009565944071664341},
           {0.03788903367793316, 0.03719660205596148, -0.08031812322144871, 0.01199854521435691, 0.4670953523799489, -0.04888926858896592, 0.03930824784109575, -0.02843083425647187, -0.01894548277724077, -0.007362264275547777, -0.002539487123461524, -0.003091092559994472, -0.08224817620176239, 0.09854917820328533, -0.1058179901595243, 0.0958913448371246, -0.01935880386219844, -0.007532103925233364, -0.002613717587127968, -0.003202715632371072, -0.0839099064084473, 0.1008304895277707, -0.1088325131336091, 0.1002406708772977, -0.005747324838819031, -0.003697445395979387, -0.003726404412074546, -0.005840502261485085, 0.064468108687324, -0.1368364353557553, 0.334740233738717, 0.01875748656917325, -0.03957369301819764, 0.01202195268893446, 0.06602765092250562, -0.1407871195810157, 0.348609049461684, 0.01927058641869906, -0.04105844229833083, 0.01246401229824692, 0.003967802882437258, 0.003426151886341324, 0.004019677624541142, 0.001912126615755743, 0.001926966314664202, 0.0009877993584832387, 0.01926257068112589, 0.01362681625488449, 0.01953677744465411, -0.03988849974280958, -0.04029085603359799, 0.08952494113753774, -0.0219322249456509, -0.02212094991665772, 0.09060814598492603, -0.009565944071632448},
           {-0.04559048522698331, 0.05984217014405693, -0.009108487644805379, 0.01805024379723927, 9.388942938549225e-5, 4.151913816385261e-5, -0.002510426582938904, -0.01115227534400977, -0.005588925276691014, -0.001538494892042801, 0.01621139988449406, -0.02785653009544914, -0.1006714585198767, -0.00843647737106001, -0.01403736616464592, 0.01648925767475271, 0.001925861687800559, 0.002079911947136138, -0.0008689617990650365, -0.01481429374559407, 0.0435884444623492, 0.007983896505348862, -0.0008267874487153941, 0.01093630910167301, 0.09372074093522237, -0.1014388493411882, 0.08029024515608958, -0.1107056048239895, 0.01165543996881999, -0.0009081802082563096, -0.0003383434275003875, -0.02683518678884775, 0.00249654869318917, 0.02547626280970692, -0.003207664160847376, -0.0006505635057463039, -0.0002496250541780136, -0.0009778824452386472, 0.002122159459057199, 0.0131817445100543, -0.006952706700968636, 0.01589586031959463, 0.01893583555700024, -0.005351597248269494, -0.03666799267795095, 0.03408995955569304, -0.1549294996218886, 0.4877852478354011, 0.6096705621123917, -0.003894927036907219, 0.08930713318059227, -0.03260251815634836, 0.01726755886822248, 0.09730398600719069, -0.001310302500895967, -0.04641977492972794},
           {0.05984217014405431, -0.009108487644671188, -0.04559048522701959, 0.01805024379731088, 0.001925861687812037, 0.00207991194714972, -0.0008689617990627567, -0.01481429374566201, 9.388942938043168e-5, 4.151913815953811e-5, -0.002510426582951615, -0.01115227534404545, 0.01093630910153181, -0.0008267874487120866, 0.007983896505387323, 0.04358844446236409, -0.00558892527671404, -0.001538494892047728, 0.01621139988455765, -0.02785653009555926, -0.1107056048239959, 0.08029024515636667, -0.1014388493413207, 0.09372074093531395, -0.1006714585198246, -0.008436477371178574, -0.01403736616440204, 0.01648925767449434, -0.0002496250541697901, -0.0006505635057512362, -0.003207664160865623, 0.002122159459072988, -0.0009778824452498895, 0.01318174451010423, 0.01893583555709259, 0.01589586031971467, -0.006952706701012135, -0.03666799267812116, -0.005351597248315575, 0.03408995955584966, 0.01165543996884826, -0.0009081802082882086, -0.0003383434274852601, -0.02683518678893082, 0.002496548693212705, 0.0254762628097872, 0.6096705621119615, 0.08930713317958421, -0.03260251815590176, 0.4877852478361577, -0.003894927037068576, -0.1549294996219991, 0.09730398600757184, -0.001310302500945933, 0.01726755886833817, -0.04641977492990576},
           {-0.009108487644674604, -0.04559048522695015, 0.05984217014406395, 0.01805024379734019, -0.005588925276734408, -0.001538494892069159, 0.0162113998846071, -0.02785653009561622, 0.001925861687811, 0.002079911947146243, -0.0008689617990730233, -0.01481429374567297, 0.093720740935175, -0.1014388493411713, 0.08029024515626101, -0.1107056048239971, 9.388942938099713e-5, 4.151913815986547e-5, -0.002510426582955786, -0.01115227534406406, 0.01648925767450824, -0.01403736616442621, -0.008436477371133838, -0.1006714585198948, 0.0109363091015271, -0.0008267874486998972, 0.007983896505376715, 0.04358844446227943, -0.006952706701007243, 0.01589586031968748, 0.01893583555717931, -0.005351597248290863, -0.03666799267819321, 0.03408995955588975, -0.0003383434274872238, -0.0009081802082857198, 0.01165543996892685, 0.002496548693216738, -0.0268351867890118, 0.02547626280984143, -0.0002496250541706778, -0.0006505635057493166, -0.003207664160861114, 0.002122159459075225, -0.0009778824452380487, 0.01318174451011451, -0.032602518155905, -0.003894927037100847, -0.1549294996216738, 0.08930713317962186, 0.4877852478346342, 0.6096705621131386, -0.001310302500949355, 0.01726755886828598, 0.09730398600777168, -0.04641977492996271},
           {0.05138272781590759, 0.04983008005223753, -0.0168336136334058, 0.05197951359223204, 0.006476472075025514, 0.01510994274047558, 0.0118708589083771, -0.05933773488833937, -0.006794720969240678, -0.004144759932939317, -0.004097410544169715, -0.006625431426759879, -0.05669830871302256, 0.0112032060081394, 0.01427594012975225, 0.006034797033756783, -0.03303629976066385, -0.01582770941211345, 0.06130260902788674, -0.08746635941440078, -0.118228113916646, 0.5216486833777008, -0.05107468410184093, 0.04160079282648942, -0.03073701292561708, -0.01468320063309481, 0.05822333004044386, -0.08359892414333128, 0.01105967623127306, -0.004806464884585579, -0.005345752037357837, 0.008216462052741217, -0.00475926205761177, 0.01082490034457799, 0.1939521502106065, 0.2932813573389613, -0.04226826638691232, -0.2016283015829489, -0.08970749523312394, 0.1520557413207577, 0.009678543563506321, -0.02007883169609784, 0.01668012938086284, -0.01979744336632675, 0.01152311645749094, 0.01632033300840612, 0.1793748969668167, -0.190477307929871, 0.144726855981482, 0.271594657252819, -0.08448909834538179, -0.03938313344768159, 0.1117311497690261, -0.04341185487515575, 0.04612972153576926, -0.04275114878488137},
           {0.04983008005221701, -0.0168336136334737, 0.05138272781586065, 0.05197951359224987, -0.03303629976069781, -0.01582770941216406, 0.06130260902794889, -0.08746635941444895, 0.006476472075044244, 0.01510994274048202, 0.0118708589083606, -0.05933773488834382, 0.04160079282666194, -0.05107468410215912, 0.5216486833777445, -0.1182281139164882, -0.006794720969242794, -0.004144759932940065, -0.004097410544169648, -0.00662543142675905, -0.08359892414330973, 0.05822333004044899, -0.01468320063312255, -0.03073701292560895, -0.05669830871298076, 0.01120320600811204, 0.01427594012974355, 0.006034797033766435, -0.04226826638698543, 0.2932813573390164, 0.1939521502109493, -0.08970749523308889, -0.2016283015830878, 0.152055741320803, 0.01668012938087099, -0.02007883169611386, 0.00967854356353018, 0.01152311645749374, -0.01979744336633686, 0.01632033300840761, 0.01105967623127295, -0.00480646488457977, -0.005345752037357467, 0.008216462052739491, -0.004759262057605071, 0.01082490034457351, 0.1447268559813969, -0.08448909834525758, -0.03938313344769894, -0.1904773079298078, 0.2715946572524935, 0.1793748969668815, -0.04341185487516089, 0.04612972153573023, 0.1117311497690642, -0.04275114878487499},
           {-0.01683361363359075, 0.05138272781578224, 0.04983008005224447, 0.05197951359222857, -0.006794720969243829, -0.004144759932941268, -0.00409741054417186, -0.006625431426763539, -0.03303629976069618, -0.01582770941222063, 0.06130260902797759, -0.08746635941443709, -0.03073701292565734, -0.01468320063320073, 0.05822333004054457, -0.08359892414338442, 0.006476472075064973, 0.01510994274047186, 0.01187085890831529, -0.05933773488828716, 0.006034797033795371, 0.01427594012975199, 0.01120320600808359, -0.05669830871298517, 0.04160079282695908, -0.05107468410270475, 0.521648683377792, -0.1182281139162216, 0.009678543563573946, -0.02007883169613866, 0.01668012938087954, -0.01979744336636753, 0.01152311645750136, 0.01632033300842381, -0.00534575203735842, -0.004806464884569497, 0.01105967623126906, -0.004759262057596182, 0.008216462052739079, 0.01082490034457516, -0.0422682663870363, 0.2932813573385481, 0.1939521502111511, -0.08970749523289717, -0.2016283015830439, 0.1520557413206989, -0.03938313344780833, 0.2715946572525279, 0.1793748969673838, -0.08448909834519081, -0.1904773079300118, 0.1447268559814601, 0.04612972153567619, 0.1117311497691608, -0.04341185487516443, -0.04275114878489263},
           {0.05188506514716213, 0.05027165263096893, 0.04618233442964229, -0.02344574619742205, -0.1006487943372059, 0.5205211385534348, -0.08130079239206854, 0.05833877116158465, -0.05547902974248465, 0.009183619589478808, 0.01424486123495627, 0.007413322538706117, -0.08589146441652699, 0.06227082860262161, -0.01887893970307016, -0.03219278396819913, -0.05740688488754293, 0.00960624221976489, 0.01487965903114385, 0.007829398385093807, -0.08885370253281683, 0.0647298658831031, -0.01993992720777417, -0.03399735961123483, -0.006811913326132378, -0.004203243772168805, -0.004241311448634912, -0.006947703575347801, 0.144319714009358, -0.1963008204158615, 0.2017990630800447, -0.07758366781620521, 0.261170217724108, -0.04382837607670962, 0.1497883118337736, -0.2049216155638818, 0.2141680226389716, -0.0812126243945053, 0.2769555657710887, -0.04628698197009074, 0.01077375268861524, 0.008198814708000121, 0.01095593793890534, -0.004200091918188875, -0.004230910873891736, -0.005361578736602743, 0.01710710727610708, 0.01200350738744299, 0.01740181783630362, -0.02151785747997681, -0.02175961232888171, 0.01244964224682967, -0.04343294383027499, -0.04395576472238998, 0.1175219668452647, 0.04286224185361653},
           {0.04618233442941735, 0.051885065147162, 0.0502716526309448, -0.02344574619763846, -0.05547902974239406, 0.009183619589398303, 0.01424486123493811, 0.007413322538741969, -0.05740688488747899, 0.009606242219687602, 0.01487965903113509, 0.007829398385138324, -0.006811913326131739, -0.004203243772168953, -0.004241311448635541, -0.006947703575349307, -0.1006487943364746, 0.5205211385534607, -0.08130079239306089, 0.05833877116213469, -0.0321927839682084, -0.01887893970321354, 0.0622708286027199, -0.08589146441654147, -0.03399735961127244, -0.01993992720794072, 0.06472986588324298, -0.08885370253287718, 0.01077375268860167, 0.008198814707992174, 0.01095593793889423, -0.004200091918164627, -0.004230910873867062, -0.005361578736596837, 0.201799063080663, -0.1963008204158939, 0.1443197140092177, 0.2611702177234049, -0.07758366781587905, -0.04382837607679853, 0.2141680226398217, -0.2049216155640484, 0.1497883118337125, 0.2769555657705926, -0.081212624394222, -0.04628698197022454, 0.01244964224692843, -0.02151785748002038, 0.01710710727611819, -0.02175961232892948, 0.01200350738745099, 0.01740181783631915, 0.1175219668453682, -0.04343294383025508, -0.0439557647223773, 0.04286224185345516},
           {0.05027165263097341, 0.04618233442951621, 0.05188506514716896, -0.02344574619756102, -0.05740688488751051, 0.009606242219718111, 0.01487965903113991, 0.007829398385123133, -0.1006487943367805, 0.5205211385533114, -0.08130079239268911, 0.05833877116193496, -0.03399735961126026, -0.01993992720787305, 0.0647298658831922, -0.0888537025328634, -0.0554790297424506, 0.009183619589433005, 0.01424486123495139, 0.007413322538733024, -0.006947703575352595, -0.004241311448637719, -0.004203243772171517, -0.006811913326136843, -0.08589146441656789, 0.0622708286027039, -0.01887893970316282, -0.03219278396822027, 0.214168022639481, -0.2049216155639928, 0.1497883118337496, 0.2769555657707916, -0.08121262439433541, -0.04628698197017868, 0.01095593793890465, 0.008198814708000487, 0.01077375268861444, -0.004230910873879504, -0.004200091918176792, -0.005361578736602815, 0.1443197140093269, -0.196300820415955, 0.2017990630805032, -0.07758366781603666, 0.2611702177237995, -0.04382837607678799, 0.01740181783632286, -0.02175961232892317, 0.01244964224689663, 0.01200350738745504, -0.02151785748001766, 0.01710710727612553, -0.04395576472240858, 0.1175219668454072, -0.04343294383029253, 0.04286224185354705},
           {-0.001770078816843447, 0.03040343150440053, 0.007670069513338826, -0.004500331724485065, -0.0110632570292077, 0.005321815689969421, 0.003648932984951173, 0.005078733250852475, -0.03677011968812836, 0.01038053012708099, 0.006376054832415436, 0.0009801163307293598, -0.01720993097534805, -0.00454526017093681, -0.0008404212466916966, -0.0009531564946370956, 0.003682395805488461, -0.00179820944380546, -0.007680840036742176, 0.009149253694118375, 0.001940877455168077, 0.00293934163157837, 0.005553751831288165, -0.01120229099254154, 0.0007140933556719513, 0.006299055859396181, 0.01082760923687324, -0.03709616061689689, 0.03040619790015074, 0.005728854798745562, 0.002053538582893142, -0.01790325462285082, -0.004520857507927825, -0.007654264969469807, -0.005796234100057955, -0.02951407822140198, 0.02572424768624394, 0.9149139802285891, -0.02984847188192253, -0.01889989391069792, -0.006698500751858005, -0.044534508976093, 0.06701343853190421, 0.06281524496564837, -0.04361335269480399, -0.007557753852512035, -0.007397580592469386, -0.01851670870543175, 0.03068722111648318, -0.004602090870975024, 0.005753165034353436, 0.002074373100841975, 0.1103509833149429, -0.08382291121696665, -0.01028793475043717, 0.1081111464980218},
           {0.03040343150440782, 0.00767006951325848, -0.001770078816947276, -0.004500331724461833, 0.003682395805695623, -0.001798209444062016, -0.007680840036720638, 0.009149253694070254, -0.01106325702909271, 0.005321815689915642, 0.003648932984913659, 0.005078733250824186, -0.01120229099241925, 0.005553751831221907, 0.0029393416315745, 0.001940877455285393, -0.0367701196881408, 0.01038053012708845, 0.006376054832415705, 0.0009801163307269832, -0.03709616061689423, 0.01082760923686008, 0.006299055859399864, 0.0007140933556820243, -0.01720993097536052, -0.004545260170936088, -0.0008404212466880325, -0.0009531564946323285, 0.02572424768596765, -0.02951407822107268, -0.005796234100498982, -0.02984847188158431, 0.9149139802285171, -0.01889989391052846, 0.06701343853190567, -0.04453450897606014, -0.00669850075189038, -0.04361335269481398, 0.06281524496561294, -0.00755775385250412, 0.0304061979001765, 0.005728854798740052, 0.002053538582883105, -0.01790325462287204, -0.004520857507922701, -0.007654264969470201, 0.03068722111649629, 0.00575316503434638, 0.002074373100830735, -0.01851670870542495, -0.004602090870965813, -0.007397580592481759, -0.08382291121701152, -0.0102879347503962, 0.1103509833149279, 0.1081111464981094},
           {0.007670069513233637, -0.001770078816890862, 0.03040343150441503, -0.004500331724544992, -0.03677011968814005, 0.01038053012707793, 0.00637605483241927, 0.0009801163307352444, 0.003682395805582644, -0.001798209443951791, -0.007680840036909642, 0.009149253694236562, 0.0007140933556765593, 0.006299055859399612, 0.01082760923687235, -0.03709616061691028, -0.0110632570290525, 0.005321815689891373, 0.003648932984925272, 0.005078733250918332, -0.000953156494631024, -0.0008404212466871951, -0.004545260170936717, -0.01720993097536743, -0.01120229099238577, 0.005553751831208937, 0.002939341631550112, 0.001940877455219006, -0.006698500751873104, -0.04453450897608704, 0.06701343853191663, 0.06281524496561215, -0.04361335269479372, -0.007557753852530625, 0.002053538582879531, 0.005728854798738347, 0.03040619790018061, -0.004520857507919223, -0.01790325462286188, -0.007654264969479492, 0.02572424768588118, -0.02951407822095829, -0.005796234100202966, -0.02984847188148935, 0.9149139802284638, -0.0188998939109016, 0.002074373100828232, -0.004602090870966214, -0.007397580592478283, 0.005753165034346044, -0.01851670870544622, 0.0306872211165147, -0.01028793475038541, 0.1103509833150161, -0.08382291121703946, 0.108111146498082},
