
#include <cmath>
#include <cstdint>
#define restrict __restrict__

template <typename T>
void compute_geometry_tensor(const T *restrict coords, T G[3][3])
{
  // Quadrature independent code
  // FLOPS: 9 * 2
  T J[9] = {0};
  J[0] = coords[1] - coords[0];
  J[1] = coords[2] - coords[0];
  J[2] = coords[3] - coords[0];
  J[3] = coords[5] - coords[4];
  J[4] = coords[6] - coords[4];
  J[5] = coords[7] - coords[4];
  J[6] = coords[9] - coords[8];
  J[7] = coords[10] - coords[8];
  J[8] = coords[11] - coords[8];

  // Determinant of jacobian
  // FLOPS: 3 * 4
  T detJ = {0};
  detJ += J[0] * (J[4] * J[8] - J[5] * J[7]);
  detJ -= J[1] * (J[3] * J[8] - J[6] * J[5]);
  detJ += J[2] * (J[3] * J[7] - J[6] * J[4]);

  // FLOPS : 9 * 5 * ip
  T invJ[3][3] = {{0}};
  invJ[0][0] = (J[4] * J[8] - J[5] * J[7]);
  invJ[0][1] = (J[2] * J[7] - J[1] * J[8]);
  invJ[0][2] = (J[1] * J[5] - J[2] * J[4]);
  invJ[1][0] = (J[5] * J[6] - J[3] * J[8]);
  invJ[1][1] = (J[0] * J[8] - J[2] * J[6]);
  invJ[1][2] = (J[2] * J[3] - J[0] * J[5]);
  invJ[2][0] = (J[3] * J[7] - J[4] * J[6]);
  invJ[2][1] = (J[1] * J[6] - J[0] * J[7]);
  invJ[2][2] = (J[0] * J[4] - J[1] * J[3]);

  // invJ^T * invJ * detJ
  G[0][0] = (invJ[0][0] * invJ[0][0] + invJ[1][0] * invJ[1][0] + invJ[2][0] * invJ[2][0]) / detJ;
  G[0][1] = (invJ[0][0] * invJ[0][1] + invJ[1][0] * invJ[1][1] + invJ[2][0] * invJ[2][1]) / detJ;
  G[0][2] = (invJ[0][0] * invJ[0][2] + invJ[1][0] * invJ[1][2] + invJ[2][0] * invJ[2][2]) / detJ;

  G[1][0] = (invJ[0][1] * invJ[0][0] + invJ[1][1] * invJ[1][0] + invJ[2][1] * invJ[2][0]) / detJ;
  G[1][1] = (invJ[0][1] * invJ[0][1] + invJ[1][1] * invJ[1][1] + invJ[2][1] * invJ[2][1]) / detJ;
  G[1][2] = (invJ[0][1] * invJ[0][2] + invJ[1][1] * invJ[1][2] + invJ[2][1] * invJ[2][2]) / detJ;

  G[2][0] = (invJ[0][2] * invJ[0][0] + invJ[1][2] * invJ[1][0] + invJ[2][2] * invJ[2][0]) / detJ;
  G[2][1] = (invJ[0][2] * invJ[0][1] + invJ[1][2] * invJ[1][1] + invJ[2][2] * invJ[2][1]) / detJ;
  G[2][2] = (invJ[0][2] * invJ[0][2] + invJ[1][2] * invJ[1][2] + invJ[2][2] * invJ[2][2]) / detJ;
}

template <typename T, typename S, int P, int block_size>
struct Operator
{
  constexpr static std::size_t num_dofs = (P + 1) * (P + 2) * (P + 3) / 6;
  constexpr static int Nc = num_dofs;
  constexpr static std::size_t input_size = num_dofs + 4;

#if DEGREE == 1
  constexpr static std::size_t Nq = 1;
  static constexpr S D0[1][4] = {-1.0, 1.0, 0.0, 0.0};
  static constexpr S D1[1][4] = {-1.0, 0.0, 1.0, 0.0};
  static constexpr S D2[1][4] = {-1.0, 0.0, 0.0, 1.0};
  static constexpr S Phi[1][4] = {0.25, 0.25, 0.25, 0.25};
  static constexpr S weights[1] = {0.1666666666666667};
#elif DEGREE == 2
  constexpr static std::size_t Nq = 5;
  static constexpr S weights[5] = {-0.1333333333333333, 0.075, 0.075, 0.075, 0.075};
  static constexpr S D0[Nq][Nc] = {{0.0, 0.0, 0.0, 0.0, 0.0, 1.0, 1.0, -1.0, -1.0, 0.0},
                                   {0.3333333333333333, 1.0, 0.0, 0.0, 0.0, 0.6666666666666665, 0.6666666666666663, -0.6666666666666669, -0.6666666666666667, -1.333333333333333},
                                   {0.3333333333333334, -0.333333333333333, 0.0, 0.0, 0.0, 0.6666666666666666, 1.999999999999999, -0.6666666666666666, -2.0, 0.0},
                                   {0.3333333333333333, -0.3333333333333331, 0.0, 0.0, 0.0, 2.0, 0.6666666666666661, -2.0, -0.6666666666666672, 0.0},
                                   {-1.0, -0.3333333333333336, 0.0, 0.0, 0.0, 0.6666666666666667, 0.6666666666666663, -0.6666666666666666, -0.6666666666666667, 1.333333333333334}};
  static constexpr S D1[Nq][Nc] = {{0.0, 0.0, 0.0, 0.0, 1.0, 0.0, 1.0, -1.0, 0.0, -1.0},
                                   {0.3333333333333333, 0.0, -0.3333333333333337, 0.0, 0.666666666666666, 0.0, 2.0, -0.6666666666666669, 0.0, -2.0},
                                   {0.3333333333333334, 0.0, 1.0, 0.0, 0.6666666666666663, 0.0, 0.6666666666666663, -0.6666666666666667, -1.333333333333333, -0.6666666666666665},
                                   {0.3333333333333333, 0.0, -0.3333333333333334, 0.0, 2.0, 0.0, 0.6666666666666665, -2.0, 0.0, -0.6666666666666671},
                                   {-1.0, 0.0, -0.3333333333333336, 0.0, 0.6666666666666665, 0.0, 0.6666666666666666, -0.6666666666666667, 1.333333333333334, -0.6666666666666667}};
  static constexpr S D2[Nq][Nc] = {{0.0, 0.0, 0.0, 0.0, 1.0, 1.0, 0.0, 0.0, -1.0, -1.0},
                                   {0.3333333333333332, 0.0, 0.0, -0.3333333333333333, 0.6666666666666666, 2.0, 0.0, 0.0, -0.6666666666666667, -2.0},
                                   {0.3333333333333333, 0.0, 0.0, -0.3333333333333334, 2.0, 0.6666666666666669, 0.0, 0.0, -2.0, -0.6666666666666667},
                                   {0.3333333333333334, 0.0, 0.0, 1.0, 0.6666666666666666, 0.6666666666666666, 0.0, -1.333333333333333, -0.666666666666667, -0.666666666666667},
                                   {-1.0, 0.0, 0.0, -0.3333333333333335, 0.6666666666666665, 0.6666666666666663, 0.0, 1.333333333333333, -0.6666666666666665, -0.6666666666666665}};
  static constexpr S Phi[Nq][4] = {{0.25, 0.25, 0.25, 0.25},
                                   {0.1666666666666667, 0.4999999999999999, 0.1666666666666667, 0.1666666666666666},
                                   {0.1666666666666667, 0.1666666666666667, 0.5, 0.1666666666666666},
                                   {0.1666666666666667, 0.1666666666666667, 0.1666666666666667, 0.5},
                                   {0.5, 0.1666666666666666, 0.1666666666666667, 0.1666666666666666}};
#elif DEGREE == 3
  constexpr static std::size_t Nq = 15;
  static constexpr S weights[15] = {0.03028367809708918, 0.006026785714285717, 0.006026785714285717, 0.006026785714285717, 0.006026785714285717, 0.01164524908602897, 0.01164524908602897, 0.01164524908602897, 0.01164524908602897, 0.01094914156138645, 0.01094914156138645, 0.01094914156138645, 0.01094914156138645, 0.01094914156138645, 0.01094914156138645};
  // Precomputed values of basis functions and precomputations
  // FE* dimensions: [permutation][entities][points][dofs]
  static constexpr S D0[15][20] =
      {{0.4999999999999999, 0.0, 0.0, -0.4999999999999999, -0.1931356214843423, 0.505635621484342, -0.1931356214843425, 0.5056356214843425, 0.0, 0.0, -0.6987712429686845, 0.6987712429686843, -0.5056356214843424, 0.1931356214843419, -0.5056356214843419, 0.193135621484342, 1.6875, 0.0, 0.0, -1.6875},
       {0.6666666666666669, 0.0, 0.0, -0.6666666666666666, 0.2122033395833916, 1.454463327083275, 0.0, 0.0, 0.0, 0.0, -1.242259987499884, 1.242259987499883, -1.454463327083276, -0.212203339583392, 0.0, 0.0, 0.0, 0.0, 0.0, 0.0},
       {-1.333333333333332, -0.1111111111111113, -0.111111111111111, -0.777777777777778, 0.2122033395833907, 1.454463327083276, 0.2122033395833915, 1.454463327083276, 0.0, 0.0, 1.454463327083274, 0.2122033395833926, 1.454463327083274, 0.2122033395833915, 1.454463327083273, 0.2122033395833923, 2.999999999999999, -2.999999999999997, -3.0, -3.0},
       {0.7777777777777778, 0.1111111111111116, 0.1111111111111113, 1.333333333333333, -0.2122033395833915, -1.454463327083275, -0.2122033395833922, -1.454463327083275, 0.0, 0.0, -0.2122033395833914, -1.454463327083275, -1.454463327083275, -0.2122033395833922, -1.454463327083274, -0.2122033395833924, 2.999999999999999, 3.0, 3.000000000000003, -2.999999999999997},
       {0.6666666666666665, 0.0, 0.0, -0.6666666666666667, 0.0, 0.0, 0.2122033395833915, 1.454463327083275, 0.0, 0.0, -1.242259987499883, 1.242259987499883, 0.0, 0.0, -1.454463327083275, -0.2122033395833918, 0.0, 0.0, 0.0, 0.0},
       {-0.2809917355371895, 0.0, 0.0, 0.28099173553719, -0.3147947929235497, -0.2223952897210782, 3.539902126446074, -0.8952740272725174, 0.0, 0.0, -0.09239950320247178, 0.09239950320247065, 0.2223952897210787, 0.3147947929235502, 0.8952740272725183, -3.539902126446073, 1.785123966942148, 0.0, 0.0, -1.785123966942148},
       {-1.553719008264463, 0.05785123966942159, 0.05785123966942182, 0.3388429752066118, -0.3147947929235497, -0.2223952897210784, -0.3147947929235496, -0.222395289721078, 0.0, 0.0, 2.247732298708536, -0.8014513069729975, -1.292169827737538, 0.09382272029952127, -1.292169827737537, 0.09382272029952163, 0.2231404958677691, 1.561983471074379, 1.561983471074381, -0.2231404958677668},
       {-0.3388429752066117, -0.05785123966942159, -0.05785123966942129, 1.553719008264463, -0.09382272029952231, 1.292169827737539, -0.09382272029952168, 1.292169827737539, 0.0, 0.0, 0.8014513069729977, -2.247732298708535, 0.2223952897210788, 0.3147947929235493, 0.2223952897210786, 0.3147947929235501, 0.2231404958677682, -1.56198347107438, -1.561983471074381, -0.2231404958677684},
       {-0.2809917355371903, 0.0, 0.0, 0.2809917355371901, 3.539902126446073, -0.8952740272725183, -0.3147947929235495, -0.2223952897210791, 0.0, 0.0, -0.09239950320247073, 0.09239950320247073, 0.8952740272725197, -3.539902126446073, 0.2223952897210781, 0.3147947929235493, 1.785123966942148, 0.0, 0.0, -1.785123966942148},
       {0.6709206163383284, 0.1590326155208602, 0.0244172309054759, 0.6132283086460214, -0.2578584336092227, -0.2083415697968974, 0.4022982909502706, -1.053230599323802, 0.0, 0.0, -0.02861154346972489, -0.8886376886619536, -0.4309098344199956, 0.1645929106618486, -3.110297328210257, -1.009748829042015, 0.7788461538461533, 0.6592652344478394, 4.293880619063226, -0.7788461538461517},
       {0.6709206163383289, 0.02441723090547638, 0.1590326155208601, 0.6132283086460214, 0.4022982909502711, -1.053230599323802, -0.2578584336092231, -0.2083415697968972, 0.0, 0.0, -0.02861154346972592, -0.8886376886619533, -3.110297328210258, -1.009748829042016, -0.4309098344199958, 0.1645929106618481, 0.7788461538461549, 4.293880619063223, 0.6592652344478417, -0.7788461538461516},
       {0.5118880008174687, 0.0, 0.0, -0.5118880008174683, -0.1645929106618489, 0.4309098344199955, -0.1645929106618496, 0.4309098344199962, 0.0, 0.0, -2.100548499168243, 2.100548499168242, -0.4309098344199961, 0.1645929106618493, -0.4309098344199959, 0.1645929106618489, 0.1195809193983143, 0.0, 0.0, -0.1195809193983148},
       {-0.6132283086460215, -0.02441723090547609, -0.15903261552086, -0.6709206163383286, 1.009748829042014, 3.110297328210259, -0.1645929106618488, 0.4309098344199965, 0.0, 0.0, 0.8886376886619525, 0.02861154346972595, 1.053230599323802, -0.4022982909502708, 0.2083415697968966, 0.2578584336092232, 0.7788461538461536, -4.293880619063223, -0.659265234447841, -0.7788461538461542},
       {-0.6132283086460211, -0.1590326155208601, -0.02441723090547569, -0.6709206163383288, -0.1645929106618493, 0.4309098344199964, 1.009748829042016, 3.11029732821026, 0.0, 0.0, 0.8886376886619525, 0.02861154346972585, 0.2083415697968968, 0.2578584336092223, 1.053230599323802, -0.4022982909502705, 0.7788461538461534, -0.6592652344478388, -4.293880619063226, -0.7788461538461543},
       {-0.5888110777405454, 0.0, 0.0, 0.5888110777405456, 0.4022982909502705, -1.053230599323801, 0.4022982909502703, -1.053230599323802, 0.0, 0.0, -0.04951686381232544, 0.04951686381232537, 1.053230599323802, -0.4022982909502705, 1.053230599323802, -0.4022982909502704, 5.072726772909376, 0.0, 0.0, -5.072726772909378}};
  static constexpr S D1[15][20] =
      {{0.4999999999999998, 0.0, -0.5000000000000001, 0.0, 0.5056356214843425, -0.1931356214843417, 0.0, 0.0, -0.1931356214843427, 0.505635621484342, -0.5056356214843425, 0.1931356214843421, -0.6987712429686845, 0.6987712429686842, -0.505635621484342, 0.1931356214843419, 1.6875, 0.0, -1.6875, 0.0},
       {0.6666666666666666, 0.0, -0.6666666666666667, 0.0, 1.454463327083275, 0.212203339583392, 0.0, 0.0, 0.0, 0.0, -1.454463327083276, -0.2122033395833922, -1.242259987499884, 1.242259987499883, 0.0, 0.0, 0.0, 0.0, 0.0, 0.0},
       {-1.333333333333333, -0.1111111111111114, -0.7777777777777777, -0.1111111111111113, 1.454463327083274, 0.2122033395833932, 0.0, 0.0, 0.2122033395833916, 1.454463327083274, 1.454463327083274, 0.2122033395833924, 1.454463327083274, 0.2122033395833917, 1.454463327083274, 0.2122033395833923, 2.999999999999998, -2.999999999999997, -3.0, -3.0},
       {0.6666666666666664, 0.0, -0.6666666666666665, 0.0, 0.0, 0.0, 0.0, 0.0, 0.2122033395833912, 1.454463327083275, 0.0, 0.0, -1.242259987499883, 1.242259987499883, -1.454463327083274, -0.2122033395833918, 0.0, 0.0, 0.0, 0.0},
       {0.777777777777778, 0.111111111111112, 1.333333333333333, 0.111111111111111, -1.454463327083275, -0.2122033395833919, 0.0, 0.0, -0.2122033395833927, -1.454463327083275, -1.454463327083276, -0.2122033395833917, -0.2122033395833923, -1.454463327083275, -1.454463327083275, -0.2122033395833929, 3.0, 3.0, -2.999999999999998, 3.000000000000001},
       {-0.2809917355371899, 0.0, 0.28099173553719, 0.0, -0.2223952897210787, -0.3147947929235492, 0.0, 0.0, 3.539902126446071, -0.8952740272725188, 0.2223952897210779, 0.3147947929235499, -0.09239950320247024, 0.09239950320247076, 0.8952740272725185, -3.539902126446073, 1.785123966942148, 0.0, -1.785123966942148, 0.0},
       {-1.553719008264463, 0.0578512396694215, 0.3388429752066117, 0.05785123966942136, -0.2223952897210788, -0.3147947929235493, 0.0, 0.0, -0.3147947929235484, -0.2223952897210787, -1.292169827737538, 0.09382272029952218, 2.247732298708535, -0.8014513069729973, -1.292169827737538, 0.09382272029952129, 0.2231404958677693, 1.56198347107438, -0.2231404958677677, 1.561983471074379},
       {-0.28099173553719, 0.0, 0.2809917355371908, 0.0, -0.8952740272725199, 3.539902126446074, 0.0, 0.0, -0.3147947929235496, -0.2223952897210789, 0.8952740272725189, -3.539902126446073, -0.09239950320247126, 0.09239950320247069, 0.2223952897210782, 0.3147947929235497, 1.785123966942149, 0.0, -1.785123966942149, 0.0},
       {-0.3388429752066119, -0.05785123966942182, 1.553719008264463, -0.05785123966942148, 1.292169827737537, -0.09382272029952152, 0.0, 0.0, -0.0938227202995206, 1.292169827737538, 0.2223952897210791, 0.3147947929235497, 0.8014513069729979, -2.247732298708536, 0.2223952897210787, 0.3147947929235494, 0.2231404958677687, -1.561983471074379, -0.2231404958677694, -1.56198347107438},
       {0.6709206163383286, 0.1590326155208605, 0.6132283086460211, 0.02441723090547552, -0.2083415697968977, -0.2578584336092223, 0.0, 0.0, 0.4022982909502703, -1.053230599323803, -0.430909834419996, 0.1645929106618489, -0.02861154346972559, -0.8886376886619529, -3.110297328210258, -1.009748829042016, 0.7788461538461536, 0.6592652344478396, -0.7788461538461525, 4.293880619063225},
       {0.5118880008174687, 0.0, -0.5118880008174684, 0.0, 0.4309098344199964, -0.1645929106618491, 0.0, 0.0, -0.1645929106618498, 0.4309098344199965, -0.4309098344199961, 0.1645929106618489, -2.100548499168243, 2.100548499168242, -0.4309098344199958, 0.1645929106618491, 0.119580919398314, 0.0, -0.1195809193983133, 0.0},
       {0.6709206163383291, 0.02441723090547634, 0.6132283086460213, 0.1590326155208602, -1.053230599323802, 0.40229829095027, 0.0, 0.0, -0.257858433609223, -0.2083415697968967, -3.110297328210258, -1.009748829042016, -0.0286115434697264, -0.8886376886619523, -0.430909834419996, 0.164592910661848, 0.7788461538461555, 4.293880619063223, -0.7788461538461519, 0.6592652344478405},
       {-0.6132283086460215, -0.02441723090547622, -0.6709206163383291, -0.1590326155208602, 3.110297328210258, 1.009748829042017, 0.0, 0.0, -0.1645929106618481, 0.430909834419995, 1.053230599323802, -0.4022982909502701, 0.8886376886619534, 0.02861154346972494, 0.2083415697968968, 0.2578584336092233, 0.7788461538461535, -4.293880619063223, -0.7788461538461552, -0.6592652344478399},
       {-0.5888110777405452, 0.0, 0.5888110777405458, 0.0, -1.053230599323802, 0.4022982909502716, 0.0, 0.0, 0.4022982909502694, -1.053230599323802, 1.053230599323801, -0.4022982909502698, -0.04951686381232553, 0.04951686381232519, 1.053230599323801, -0.4022982909502707, 5.072726772909377, 0.0, -5.072726772909379, 0.0},
       {-0.6132283086460217, -0.1590326155208605, -0.6709206163383287, -0.02441723090547568, 0.430909834419996, -0.1645929106618488, 0.0, 0.0, 1.009748829042015, 3.110297328210259, 0.2083415697968976, 0.2578584336092226, 0.8886376886619537, 0.02861154346972524, 1.053230599323802, -0.4022982909502703, 0.7788461538461532, -0.6592652344478389, -0.7788461538461539, -4.293880619063227}};
  static constexpr S D2[15][20] =
      {{0.4999999999999997, -0.5, 0.0, 0.0, 0.0, 0.0, 0.5056356214843425, -0.1931356214843422, 0.5056356214843425, -0.1931356214843427, -0.505635621484342, 0.1931356214843418, -0.5056356214843417, 0.1931356214843416, -0.6987712429686836, 0.6987712429686842, 1.687499999999999, -1.687499999999999, 0.0, 0.0},
       {0.7777777777777778, 1.333333333333334, 0.1111111111111111, 0.1111111111111114, 0.0, 0.0, -1.454463327083275, -0.2122033395833922, -1.454463327083276, -0.2122033395833926, -1.454463327083276, -0.2122033395833925, -1.454463327083276, -0.2122033395833915, -0.2122033395833914, -1.454463327083275, 3.0, -2.999999999999997, 3.000000000000004, 3.000000000000004},
       {-1.333333333333333, -0.7777777777777781, -0.111111111111111, -0.1111111111111113, 0.0, 0.0, 1.454463327083275, 0.2122033395833923, 1.454463327083275, 0.2122033395833908, 1.454463327083274, 0.2122033395833924, 1.454463327083275, 0.2122033395833913, 1.454463327083274, 0.2122033395833919, 2.999999999999999, -2.999999999999998, -3.000000000000001, -3.0},
       {0.6666666666666663, -0.6666666666666667, 0.0, 0.0, 0.0, 0.0, 0.0, 0.0, 1.454463327083275, 0.2122033395833916, 0.0, 0.0, -1.454463327083275, -0.2122033395833925, -1.242259987499882, 1.242259987499883, 0.0, 0.0, 0.0, 0.0},
       {0.6666666666666664, -0.6666666666666667, 0.0, 0.0, 0.0, 0.0, 1.454463327083276, 0.2122033395833915, 0.0, 0.0, -1.454463327083275, -0.2122033395833922, 0.0, 0.0, -1.242259987499883, 1.242259987499883, 0.0, 0.0, 0.0, 0.0},
       {-0.3388429752066113, 1.553719008264463, -0.05785123966942163, -0.05785123966942156, 0.0, 0.0, 1.292169827737539, -0.09382272029952098, 1.292169827737538, -0.09382272029952129, 0.2223952897210779, 0.3147947929235496, 0.2223952897210786, 0.3147947929235504, 0.8014513069729963, -2.247732298708534, 0.2231404958677684, -0.2231404958677685, -1.561983471074381, -1.56198347107438},
       {-1.553719008264463, 0.3388429752066115, 0.05785123966942143, 0.05785123966942152, 0.0, 0.0, -0.2223952897210782, -0.3147947929235492, -0.2223952897210787, -0.3147947929235488, -1.292169827737539, 0.09382272029952191, -1.292169827737538, 0.09382272029952216, 2.247732298708534, -0.8014513069729974, 0.2231404958677699, -0.2231404958677676, 1.561983471074381, 1.561983471074381},
       {-0.2809917355371903, 0.28099173553719, 0.0, 0.0, 0.0, 0.0, -0.895274027272519, 3.539902126446073, -0.222395289721078, -0.3147947929235499, 0.8952740272725201, -3.539902126446073, 0.2223952897210789, 0.314794792923549, -0.09239950320247081, 0.09239950320247133, 1.785123966942148, -1.785123966942146, 0.0, 0.0},
       {-0.2809917355371904, 0.28099173553719, 0.0, 0.0, 0.0, 0.0, -0.222395289721079, -0.3147947929235498, -0.895274027272519, 3.539902126446073, 0.2223952897210792, 0.3147947929235494, 0.8952740272725197, -3.539902126446073, -0.09239950320247073, 0.0923995032024706, 1.785123966942148, -1.785123966942147, 0.0, 0.0},
       {0.5118880008174682, -0.5118880008174688, 0.0, 0.0, 0.0, 0.0, 0.4309098344199963, -0.1645929106618497, 0.4309098344199969, -0.1645929106618494, -0.4309098344199954, 0.1645929106618488, -0.4309098344199957, 0.1645929106618484, -2.100548499168242, 2.100548499168243, 0.1195809193983136, -0.1195809193983147, 0.0, 0.0},
       {0.670920616338329, 0.6132283086460212, 0.15903261552086, 0.02441723090547572, 0.0, 0.0, -0.2083415697968973, -0.2578584336092217, -1.053230599323802, 0.4022982909502704, -0.4309098344199964, 0.1645929106618485, -3.110297328210258, -1.009748829042015, -0.02861154346972624, -0.8886376886619523, 0.778846153846154, -0.7788461538461531, 0.6592652344478409, 4.293880619063226},
       {0.6709206163383287, 0.6132283086460208, 0.02441723090547558, 0.1590326155208603, 0.0, 0.0, -1.053230599323801, 0.4022982909502698, -0.2083415697968971, -0.2578584336092219, -3.110297328210258, -1.009748829042016, -0.4309098344199956, 0.1645929106618493, -0.02861154346972569, -0.8886376886619517, 0.778846153846154, -0.7788461538461527, 4.293880619063226, 0.6592652344478407},
       {-0.5888110777405456, 0.5888110777405453, 0.0, 0.0, 0.0, 0.0, -1.053230599323802, 0.4022982909502705, -1.053230599323802, 0.4022982909502691, 1.053230599323802, -0.4022982909502705, 1.053230599323803, -0.4022982909502711, -0.04951686381232554, 0.04951686381232599, 5.072726772909377, -5.072726772909375, 0.0, 0.0},
       {-0.6132283086460214, -0.6709206163383289, -0.02441723090547555, -0.1590326155208604, 0.0, 0.0, 3.110297328210259, 1.009748829042017, 0.4309098344199964, -0.1645929106618494, 1.053230599323802, -0.4022982909502703, 0.2083415697968972, 0.2578584336092223, 0.8886376886619527, 0.02861154346972535, 0.7788461538461529, -0.7788461538461532, -4.293880619063227, -0.6592652344478401},
       {-0.613228308646022, -0.6709206163383293, -0.1590326155208601, -0.02441723090547567, 0.0, 0.0, 0.4309098344199967, -0.1645929106618493, 3.110297328210259, 1.009748829042016, 0.2083415697968977, 0.2578584336092225, 1.053230599323803, -0.402298290950271, 0.8886376886619537, 0.02861154346972557, 0.7788461538461531, -0.7788461538461533, -0.6592652344478406, -4.293880619063228}};
  static constexpr S Phi[15][4] =
      {{0.25, 0.25, 0.25, 0.25},
       {0.3333333333333334, 0.0, 0.3333333333333334, 0.3333333333333333},
       {0.0, 0.3333333333333333, 0.3333333333333334, 0.3333333333333333},
       {0.3333333333333333, 0.3333333333333334, 0.3333333333333334, 0.0},
       {0.3333333333333333, 0.3333333333333333, 0.0, 0.3333333333333333},
       {0.09090909090909094, 0.7272727272727272, 0.09090909090909086, 0.09090909090909088},
       {0.7272727272727273, 0.09090909090909088, 0.09090909090909086, 0.09090909090909088},
       {0.09090909090909091, 0.09090909090909088, 0.09090909090909088, 0.7272727272727273},
       {0.09090909090909099, 0.09090909090909099, 0.7272727272727273, 0.09090909090909088},
       {0.4334498464263357, 0.4334498464263357, 0.06655015357366426, 0.06655015357366428},
       {0.4334498464263357, 0.06655015357366434, 0.4334498464263357, 0.06655015357366428},
       {0.4334498464263357, 0.06655015357366434, 0.06655015357366428, 0.4334498464263357},
       {0.06655015357366434, 0.06655015357366434, 0.4334498464263358, 0.4334498464263357},
       {0.06655015357366428, 0.4334498464263357, 0.06655015357366428, 0.4334498464263357},
       {0.06655015357366428, 0.4334498464263357, 0.4334498464263357, 0.06655015357366428}};
#elif DEGREE == 4
  constexpr static std::size_t Nq = 31;
  // Quadrature rules
  static constexpr S weights[31] = {0.0182642234661088, 0.01059994152441417, 0.01059994152441417, 0.01059994152441417, 0.01059994152441417, -0.06251774011432995, -0.06251774011432995, -0.06251774011432995, -0.06251774011432995, 0.004891425263073534, 0.004891425263073534, 0.004891425263073534, 0.004891425263073534, 0.0009700176366843, 0.0009700176366843, 0.0009700176366843, 0.0009700176366843, 0.0009700176366843, 0.0009700176366843, 0.02755731922398508, 0.02755731922398508, 0.02755731922398508, 0.02755731922398508, 0.02755731922398508, 0.02755731922398508, 0.02755731922398508, 0.02755731922398508, 0.02755731922398508, 0.02755731922398508, 0.02755731922398508, 0.02755731922398508};
  // Precomputed values of basis functions and precomputations
  // FE* dimensions: [permutation][entities][points][dofs]
  static constexpr S D0[31][35] =
      {{-0.7427835558031141, 0.0, 0.0, 0.7427835558031117, 0.0, -0.09854230951229812, -0.821938756416453, 0.0, -0.09854230951229938, -0.8219387564164539, 0.0, 0.0, 0.0, 0.8219387564164554, 0.0, -0.8219387564164534, 0.8219387564164552, 0.09854230951229964, 0.0, 0.8219387564164553, 0.09854230951229906, 0.0, 0.1774826235647512, 0.1774826235647511, 1.898902710966502, -1.721420087401751, 0.0, 1.72142008740175, -1.721420087401751, 0.0, 1.721420087401749, -1.898902710966501, -0.1774826235647528, -0.1774826235647522, 0.0},
       {0.000544548863947294, 0.0, 0.0, -0.0005445488639501629, 0.2372201432405244, 0.109346850908054, 0.05654466642885513, 3.619991254558196, -0.5957866865062189, 0.1516372589926026, 0.0, 0.0, 0.0, 0.1806754768116749, 0.0, -0.180675476811671, -0.05654466642885278, -0.1093468509080536, -0.2372201432405259, -0.1516372589925982, 0.5957866865062171, -3.619991254558201, 3.568776157303456, -0.96293952180151, -0.4471258298128784, -0.05271168234634926, 0.0, 0.05271168234634803, -0.5158136919886357, 0.0, 0.5158136919886297, 0.4471258298128791, -3.56877615730346, 0.9629395218015133, 0.0},
       {-0.7723262497619915, -0.1142796828660154, -0.1142796828660155, -0.1148242317299652, 0.2578873785151286, 0.1166525967334308, 0.07721190170345611, 0.257887378515128, 0.1166525967334314, 0.07721190170345699, 0.02066723527460207, 0.007305745825377485, 0.02066723527460337, 1.390075399787667, -0.3112087149000911, 0.2505697881002043, -2.229915854770534, 0.2845779716061275, 0.09893252910760207, -2.229915854770534, 0.2845779716061287, 0.09893252910760131, -0.1461510118195783, -0.146151011819576, -0.09343932947323141, 2.640517566554227, -0.9122824109198303, -0.3964687189311977, 2.640517566554227, -0.9122824109198288, -0.3964687189311967, -0.9282585907492314, 0.0506571108816841, 0.05065711088168424, 1.076092960763052},
       {0.1148242317299634, 0.1142796828660148, 0.1142796828660148, 0.7723262497619898, -0.09893252910760064, -0.2845779716061303, 2.229915854770532, -0.09893252910759999, -0.2845779716061303, 2.229915854770531, -0.02066723527460203, -0.007305745825377657, -0.02066723527460216, -0.2505697881002001, 0.3112087149000853, -1.390075399787661, -0.07721190170345563, -0.1166525967334312, -0.2578873785151284, -0.0772119017034556, -0.1166525967334312, -0.2578873785151282, -0.0506571108816843, -0.05065711088168325, 0.9282585907492319, 0.396468718931195, 0.9122824109198283, -2.640517566554222, 0.3964687189311945, 0.912282410919828, -2.64051756655422, 0.09343932947323053, 0.1461510118195777, 0.1461510118195777, -1.07609296076305},
       {0.0005445488639479221, 0.0, 0.0, -0.0005445488639501995, 3.619991254558196, -0.5957866865062189, 0.1516372589926026, 0.2372201432405258, 0.1093468509080553, 0.05654466642885442, 0.0, 0.0, 0.0, 0.1806754768116739, 0.0, -0.1806754768116715, -0.1516372589925976, 0.595786686506215, -3.619991254558201, -0.05654466642885365, -0.109346850908053, -0.2372201432405263, -0.9629395218015133, 3.568776157303459, -0.4471258298128811, -0.5158136919886366, 0.0, 0.5158136919886305, -0.0527116823463496, 0.0, 0.05271168234634775, 0.4471258298128789, 0.9629395218015123, -3.568776157303456, 0.0},
       {-0.380255308793049, 0.0, 0.0, 0.3802553087930483, 0.2432036634286761, 0.01286002579922934, -0.1334920888887574, 1.035877715756587, 0.3626943460079943, -0.6238186355244936, 0.0, 0.0, 0.0, 0.3766957523174365, 0.0, -0.3766957523174346, 0.1334920888887586, -0.01286002579922982, -0.2432036634286767, 0.623818635524494, -0.3626943460079917, -1.035877715756589, 3.494007578688662, -0.8719661438039218, 0.1657555209625135, -0.1992833008434724, 0.0, 0.1992833008434721, -1.037721664766435, 0.0, 1.037721664766434, -0.1657555209625097, -3.494007578688664, 0.871966143803923, 0.0},
       {0.6530010709352441, -0.114118166883303, -0.114118166883303, 0.2661371419097454, 0.2806213437013951, 0.02608695517877973, -0.09607440861603948, 0.2806213437013955, 0.02608695517877977, -0.09607440861603907, 0.03741768027271854, 0.01322692937955018, 0.03741768027271828, -0.6656842056733367, 0.6600586487635288, -0.565287836941593, -1.701561921429924, 0.2973643027555344, 0.05853079858290003, -1.701561921429924, 0.2973643027555346, 0.05853079858289995, -0.2538967803114496, -0.253896780311448, -0.05461347946797906, 1.698854236119945, -0.790959457683244, 0.2467622070831908, 1.698854236119945, -0.7909594576832435, 0.2467622070831905, -1.795153342568717, 0.08100668612067917, 0.08100668612067979, 1.948248123881189},
       {-0.2661371419097459, 0.1141181668833023, 0.1141181668833025, -0.6530010709352418, -0.05853079858289931, -0.2973643027555358, 1.701561921429926, -0.0585307985828987, -0.2973643027555363, 1.701561921429924, -0.03741768027271794, -0.0132269293795504, -0.03741768027271807, 0.5652878369415932, -0.6600586487635275, 0.665684205673335, 0.09607440861604001, -0.02608695517878016, -0.2806213437013951, 0.09607440861604009, -0.02608695517878028, -0.280621343701395, -0.08100668612068038, -0.08100668612067925, 1.795153342568717, -0.2467622070831904, 0.7909594576832438, -1.698854236119946, -0.2467622070831901, 0.7909594576832438, -1.698854236119945, 0.05461347946797727, 0.2538967803114494, 0.2538967803114492, -1.948248123881188},
       {-0.380255308793049, 0.0, 0.0, 0.3802553087930482, 1.035877715756589, 0.3626943460079953, -0.623818635524494, 0.2432036634286774, 0.01286002579922983, -0.1334920888887577, 0.0, 0.0, 0.0, 0.3766957523174364, 0.0, -0.3766957523174345, 0.6238186355244937, -0.3626943460079922, -1.035877715756589, 0.1334920888887581, -0.01286002579922964, -0.2432036634286771, -0.8719661438039236, 3.494007578688662, 0.1657555209625118, -1.037721664766436, 0.0, 1.037721664766434, -0.1992833008434729, 0.0, 0.1992833008434717, -0.1657555209625101, 0.8719661438039228, -3.494007578688662, 0.0},
       {-0.3597037807101087, 0.0, 0.0, 0.3597037807101059, -0.1517140864411396, 0.6279192096083257, -0.7354630848932369, 0.01154325014490631, -0.01170218750533755, -0.009175910776441872, 0.0, 0.0, 0.0, 0.5837489984521027, 0.0, -0.5837489984520986, 0.7354630848932406, -0.6279192096083233, 0.1517140864411392, 0.00917591077644205, 0.01170218750533731, -0.01154325014490674, -0.01936365361533201, 0.009454345562086281, 0.03848030382005562, -4.051307837002982, 0.0, 4.051307837002978, -0.02902595825796766, 0.0, 0.0290259582579671, -0.03848030382005568, 0.0193636536153326, -0.009454345562088459, 0.0},
       {1.849859338205412, 0.04189744545482716, 0.04189744545482826, 0.4016012261649333, -0.3312197767597875, 0.5644650063609006, -0.9149687752118858, -0.3312197767597855, 0.5644650063608998, -0.9149687752118858, -0.1795056903186474, -0.06345420324742622, -0.1795056903186491, -1.891198625917888, 0.06786913140631623, 0.3670870086782121, -1.902741876062794, 0.07957131891165321, 0.3762629194546532, -1.902741876062793, 0.07957131891165342, 0.3762629194546522, 1.7343005503783, 1.734300550378308, 5.785608387381289, 3.069005926053544, -0.8954319952560904, -0.8664060369981271, 3.069005926053543, -0.8954319952560926, -0.8664060369981258, 3.088369579668877, -0.9048863408181785, -0.9048863408181763, -9.346427192716465},
       {-0.4016012261649354, -0.04189744545482787, -0.04189744545482798, -1.849859338205402, -0.3762629194546513, -0.07957131891165366, 1.902741876062785, -0.3762629194546519, -0.07957131891165374, 1.902741876062786, 0.1795056903186485, 0.06345420324742485, 0.179505690318648, -0.367087008678212, -0.06786913140631384, 1.891198625917879, 0.9149687752118878, -0.5644650063608991, 0.331219776759787, 0.914968775211888, -0.5644650063608995, 0.3312197767597885, 0.904886340818181, 0.9048863408181781, -3.088369579668869, 0.866406036998124, 0.89543199525609, -3.069005926053538, 0.8664060369981241, 0.8954319952560901, -3.069005926053536, -5.78560838738128, -1.734300550378308, -1.734300550378307, 9.346427192716458},
       {-0.3597037807101087, 0.0, 0.0, 0.3597037807101059, 0.01154325014490623, -0.01170218750533697, -0.00917591077644111, -0.1517140864411392, 0.6279192096083265, -0.735463084893237, 0.0, 0.0, 0.0, 0.5837489984521022, 0.0, -0.5837489984520988, 0.009175910776441604, 0.0117021875053377, -0.01154325014490657, 0.7354630848932403, -0.6279192096083239, 0.1517140864411391, 0.009454345562087569, -0.01936365361533238, 0.03848030382005554, -0.02902595825796727, 0.0, 0.02902595825796788, -4.051307837002982, 0.0, 4.051307837002979, -0.03848030382005547, -0.009454345562088072, 0.01936365361533216, 0.0},
       {1.665734840344261, 0.0, -0.2776996914340953, -1.027699691434096, 0.307292935137454, 6.394169238049195, 2.980462090528362, 0.0, 0.0, 0.0, 0.0, 0.0, 0.0, -2.511064378597518, 1.22097978712568, 0.7766906470683023, -2.511064378597518, 1.22097978712568, 0.7766906470683003, 0.0, 0.0, 0.0, 0.0, 0.0, 0.0, 6.175749855347996, -7.595610843866006, -7.595610843866007, 0.0, 0.0, 0.0, 0.0, 0.0, 0.0, 0.0},
       {1.665734840344262, -0.2776996914340951, 0.0, -1.027699691434096, 0.0, 0.0, 0.0, 0.3072929351374543, 6.394169238049193, 2.980462090528362, 0.0, 0.0, 0.0, -2.511064378597518, 1.220979787125681, 0.7766906470683034, 0.0, 0.0, 0.0, -2.511064378597517, 1.22097978712568, 0.7766906470683019, 0.0, 0.0, 0.0, 0.0, 0.0, 0.0, 6.175749855348, -7.595610843866003, -7.595610843866003, 0.0, 0.0, 0.0, 0.0},
       {1.665734840344263, 0.0, 0.0, -1.665734840344258, -0.7766906470682999, -1.220979787125681, 2.511064378597511, -0.776690647068303, -1.220979787125675, 2.511064378597513, 0.0, 0.0, 0.0, 0.0, 0.0, 0.0, -2.511064378597519, 1.220979787125681, 0.7766906470683015, -2.511064378597517, 1.220979787125682, 0.7766906470683019, 7.595610843865999, 7.595610843866003, -6.175749855347988, 0.0, 0.0, 0.0, 0.0, 0.0, 0.0, 6.175749855347997, -7.595610843866002, -7.595610843865999, 0.0},
       {1.027699691434098, 0.2776996914340958, 0.0, -1.665734840344258, 0.0, 0.0, 0.0, -0.7766906470683016, -1.22097978712568, 2.511064378597514, 0.0, 0.0, 0.0, -0.7766906470683049, -1.220979787125679, 2.511064378597514, 0.0, 0.0, 0.0, -2.980462090528362, -6.3941692380492, -0.3072929351374566, 0.0, 0.0, 0.0, 0.0, 0.0, 0.0, 7.595610843866004, 7.595610843866005, -6.175749855347988, 0.0, 0.0, 0.0, 0.0},
       {1.027699691434098, 0.0, 0.2776996914340953, -1.665734840344257, -0.7766906470682983, -1.220979787125682, 2.511064378597511, 0.0, 0.0, 0.0, 0.0, 0.0, 0.0, -0.7766906470683038, -1.220979787125678, 2.511064378597513, -2.980462090528363, -6.394169238049201, -0.3072929351374561, 0.0, 0.0, 0.0, 0.0, 0.0, 0.0, 7.595610843866001, 7.595610843866004, -6.175749855347989, 0.0, 0.0, 0.0, 0.0, 0.0, 0.0, 0.0},
       {0.7500000000000006, 0.0, 0.0, -0.7499999999999992, 0.0, 0.0, 0.0, 0.0, 0.0, 0.0, 0.0, 0.0, 0.0, -2.673169155390906, 0.0, 2.673169155390906, 0.0, 0.0, 0.0, 0.0, 0.0, 0.0, 0.0, 0.0, 0.0, 0.0, 0.0, 0.0, 0.0, 0.0, 0.0, 0.0, 0.0, 0.0, 0.0},
       {0.7932251789623141, -0.1222159753147278, -0.1022811510592788, 0.0456853657107357, 0.2984160780962207, 0.08551756104773955, 0.02384369672422681, 0.1259891089252583, 0.03716505680043942, 0.03061432202835162, 0.04916686962199333, 0.01738019854688418, 0.04916686962199329, -0.5947233202925284, 0.1765601913831653, -0.1249629366060997, -1.036941316820878, 0.388822144713794, -0.003809068794240483, -2.305350569283513, -0.2453333333333344, 0.2146839026168447, -0.1669653251344325, -0.3873070963218571, -0.166965325134434, 1.295362404098049, -0.7978844221824802, -0.1368591086202079, 2.704313687277539, -0.3804711093463975, -0.1601293381589738, -2.263630144902688, -0.06021243302845055, 0.1601293381589747, 2.56},
       {0.7932251789623137, -0.1022811510592787, -0.1222159753147277, 0.04568536571073582, 0.1259891089252581, 0.03716505680043933, 0.03061432202835084, 0.2984160780962212, 0.0855175610477395, 0.02384369672422745, 0.0491668696219934, 0.01738019854688412, 0.04916686962199284, -0.5947233202925278, 0.1765601913831654, -0.1249629366060998, -2.305350569283512, -0.245333333333334, 0.2146839026168444, -1.036941316820879, 0.3888221447137934, -0.003809068794240668, -0.3873070963218578, -0.166965325134432, -0.1669653251344328, 2.704313687277538, -0.3804711093463989, -0.1601293381589742, 1.295362404098048, -0.7978844221824802, -0.1368591086202077, -2.263630144902688, 0.1601293381589739, -0.06021243302844896, 2.56},
       {0.6854153340497056, -0.0790762951427986, -0.07907629514279838, 0.6176757869574225, 0.2747234826567872, -0.1254526071026013, -0.3105566942169247, 0.2747234826567878, -0.1254526071026011, -0.3105566942169249, 0.01966674784879729, 0.006952079418753073, 0.01966674784879698, -1.407165733072167, 1.694986172961222, -1.314749898522336, -1.066441438594074, 0.3783940255856634, -0.03330919056743675, -1.066441438594074, 0.3783940255856629, -0.03330919056743683, -0.1822946602527842, -0.1822946602527841, 0.1482179965283509, 0.2884950986362883, -0.5928719861134075, 1.169862183385984, 0.2884950986362886, -0.592871986113407, 1.169862183385984, -1.1204561845432, 0.09142355698763051, 0.09142355698763151, 1.023999999999998},
       {-0.7398917622721523, 0.1078098449126076, -0.02320485591648031, 0.1247616608535342, 0.2787493302474234, 0.07856548162898622, 0.004176948875430198, 0.4717181183015467, -0.2018338342024973, -0.09165374603866373, 0.02950012177319422, 0.01042811912813118, 0.02950012177319681, 0.4365458031421845, 0.1626176639030402, -0.2441091606284365, 0.359723563838919, 0.1428328056494856, -0.225556613034794, 1.529433801139183, -1.940319506294555, -0.8981848362113452, 2.415818588641248, -0.8893079791701108, -0.2282826656078367, -0.3151833216627848, -0.205012436069072, 0.01532933511835186, -1.550333292732383, 2.41581858864125, 0.4327426479544319, -1.230074616414433, -2.552125243538977, 0.753001324272381, 1.535999999999999},
       {-0.7398917622721518, -0.02320485591648051, 0.1078098449126071, 0.1247616608535344, 0.471718118301548, -0.2018338342024977, -0.09165374603866398, 0.2787493302474235, 0.07856548162898669, 0.004176948875429486, 0.0295001217731963, 0.01042811912813031, 0.02950012177319509, 0.4365458031421847, 0.1626176639030415, -0.2441091606284366, 1.529433801139183, -1.940319506294555, -0.8981848362113446, 0.3597235638389187, 0.1428328056494853, -0.2255566130347946, -0.8893079791701101, 2.415818588641247, -0.2282826656078383, -1.550333292732384, 2.415818588641251, 0.4327426479544332, -0.3151833216627849, -0.2050124360690724, 0.01532933511835281, -1.230074616414434, 0.7530013242723806, -2.552125243538976, 1.536},
       {-0.6176757869574242, 0.079076295142798, 0.07907629514279825, -0.6854153340497041, 0.03330919056743693, -0.3783940255856638, 1.066441438594074, 0.03330919056743752, -0.3783940255856643, 1.066441438594074, -0.01966674784879665, -0.006952079418753448, -0.01966674784879699, 1.314749898522338, -1.694986172961223, 1.407165733072167, 0.3105566942169257, 0.1254526071026017, -0.2747234826567875, 0.3105566942169259, 0.1254526071026015, -0.2747234826567872, -0.0914235569876314, -0.09142355698763097, 1.1204561845432, -1.169862183385985, 0.5928719861134077, -0.2884950986362878, -1.169862183385985, 0.5928719861134073, -0.2884950986362876, -0.1482179965283525, 0.1822946602527844, 0.1822946602527839, -1.023999999999999},
       {-0.04568536571073543, 0.1022811510592777, 0.1222159753147274, -0.7932251789623116, -0.2146839026168436, 0.245333333333332, 2.305350569283512, 0.003809068794242659, -0.3888221447137949, 1.036941316820878, -0.04916686962199224, -0.01738019854688407, -0.04916686962199267, 0.1249629366060996, -0.1765601913831647, 0.5947233202925268, -0.03061432202835125, -0.03716505680043961, -0.1259891089252583, -0.02384369672422707, -0.08551756104773987, -0.2984160780962204, -0.1601293381589755, 0.06021243302845033, 2.263630144902688, 0.1601293381589754, 0.3804711093463982, -2.704313687277538, 0.136859108620208, 0.7978844221824793, -1.295362404098048, 0.1669653251344326, 0.3873070963218568, 0.166965325134433, -2.559999999999999},
       {-0.1479665167700145, 0.0, 0.0, 0.1479665167700143, 0.4422179965283524, -0.2122619533306278, -0.1211538678118599, 0.07682223930326609, 0.01978485825355646, -0.01855254759364205, 0.0, 0.0, 0.0, 0.2745723813719945, 0.0, -0.2745723813719939, 0.1211538678118595, 0.2122619533306296, -0.442217996528352, 0.01855254759364185, -0.01978485825355529, -0.07682223930326537, -0.3202586763179497, 4.967943832180224, -0.320258676317948, -0.6610253135622728, 0.0, 0.6610253135622708, -0.2203417711874262, 0.0, 0.2203417711874243, 0.3202586763179491, 0.3202586763179481, -4.967943832180224, 0.0},
       {-0.1247616608535342, -0.1078098449126073, 0.02320485591648026, 0.7398917622721501, 0.2255566130347936, -0.1428328056494854, -0.3597235638389175, 0.8981848362113434, 1.940319506294555, -1.529433801139181, -0.02950012177319703, -0.01042811912813002, -0.02950012177319595, 0.2441091606284375, -0.1626176639030423, -0.4365458031421833, -0.00417694887542976, -0.07856548162898624, -0.2787493302474236, 0.09165374603866366, 0.2018338342024994, -0.4717181183015483, 2.552125243538975, -0.7530013242723804, 1.230074616414435, -0.0153293351183518, 0.2050124360690743, 0.3151833216627851, -0.4327426479544324, -2.415818588641249, 1.550333292732382, 0.2282826656078393, -2.415818588641249, 0.889307979170111, -1.536},
       {-0.1247616608535347, 0.02320485591647928, -0.1078098449126071, 0.7398917622721501, 0.8981848362113426, 1.940319506294556, -1.52943380113918, 0.2255566130347954, -0.1428328056494854, -0.3597235638389179, -0.02950012177319427, -0.01042811912813145, -0.02950012177319607, 0.2441091606284372, -0.1626176639030414, -0.4365458031421834, 0.09165374603866341, 0.2018338342024991, -0.4717181183015475, -0.004176948875430015, -0.07856548162898634, -0.2787493302474237, -0.7530013242723823, 2.552125243538977, 1.230074616414435, -0.4327426479544335, -2.415818588641247, 1.550333292732383, -0.01532933511835333, 0.2050124360690727, 0.3151833216627847, 0.2282826656078393, 0.8893079791701098, -2.415818588641246, -1.536},
       {-0.04568536571073608, 0.1222159753147272, 0.1022811510592782, -0.7932251789623116, 0.003809068794241218, -0.3888221447137947, 1.036941316820878, -0.2146839026168429, 0.2453333333333313, 2.305350569283511, -0.0491668696219927, -0.01738019854688378, -0.04916686962199288, 0.1249629366061007, -0.1765601913831654, 0.5947233202925273, -0.02384369672422692, -0.08551756104773965, -0.2984160780962206, -0.03061432202835077, -0.03716505680043943, -0.1259891089252582, 0.0602124330284487, -0.1601293381589735, 2.263630144902686, 0.1368591086202076, 0.7978844221824796, -1.295362404098048, 0.1601293381589744, 0.3804711093463978, -2.704313687277535, 0.1669653251344324, 0.1669653251344325, 0.3873070963218567, -2.559999999999998},
       {-0.1479665167700138, 0.0, 0.0, 0.1479665167700144, 0.07682223930326457, 0.01978485825355551, -0.0185525475936418, 0.4422179965283508, -0.2122619533306275, -0.1211538678118594, 0.0, 0.0, 0.0, 0.2745723813719944, 0.0, -0.2745723813719935, 0.01855254759364119, -0.01978485825355567, -0.07682223930326514, 0.1211538678118589, 0.2122619533306308, -0.4422179965283519, 4.967943832180224, -0.3202586763179478, -0.3202586763179464, -0.2203417711874249, 0.0, 0.2203417711874248, -0.6610253135622717, 0.0, 0.6610253135622713, 0.3202586763179514, -4.967943832180228, 0.3202586763179489, 0.0}};
  static constexpr S D1[31][35] =
      {{-0.7427835558031143, 0.0, 0.7427835558031125, 0.0, -0.8219387564164532, -0.09854230951229875, 0.0, 0.0, 0.0, 0.0, 0.0, -0.09854230951229891, -0.8219387564164536, 0.8219387564164553, 0.0985423095122991, 0.0, 0.8219387564164556, 0.0, -0.8219387564164535, 0.8219387564164554, 0.098542309512299, 0.0, 0.1774826235647513, 1.8989027109665, 0.1774826235647532, -1.721420087401751, 1.72142008740175, 0.0, -1.898902710966501, -0.1774826235647517, -0.177482623564752, -1.721420087401751, 0.0, 1.721420087401748, 0.0},
       {0.0005445488639468499, 0.0, -0.0005445488639493264, 0.0, 0.0565446664288516, 0.1093468509080539, 0.2372201432405274, 0.0, 0.0, 0.0, 3.619991254558195, -0.5957866865062154, 0.1516372589926007, -0.05654466642885177, -0.1093468509080562, -0.2372201432405257, 0.1806754768116761, 0.0, -0.1806754768116727, -0.1516372589925969, 0.5957866865062162, -3.619991254558202, 3.568776157303457, -0.4471258298128756, -0.9629395218015092, -0.0527116823463496, 0.05271168234634706, 0.0, 0.4471258298128808, -3.568776157303459, 0.9629395218015118, -0.5158136919886367, 0.0, 0.5158136919886328, 0.0},
       {-0.7723262497619916, -0.1142796828660157, -0.1148242317299653, -0.1142796828660151, 0.077211901703456, 0.1166525967334312, 0.2578873785151282, 0.02066723527460186, 0.007305745825377793, 0.02066723527460214, 0.2578873785151289, 0.1166525967334304, 0.07721190170345688, -2.229915854770536, 0.2845779716061288, 0.09893252910760188, 1.390075399787667, -0.3112087149000896, 0.2505697881002029, -2.229915854770534, 0.2845779716061285, 0.09893252910760111, -0.1461510118195764, -0.09343932947323048, -0.1461510118195779, 2.640517566554226, -0.3964687189311968, -0.9122824109198288, -0.9282585907492314, 0.05065711088168407, 0.05065711088168511, 2.640517566554226, -0.912282410919828, -0.3964687189311975, 1.076092960763051},
       {0.000544548863947854, 0.0, -0.0005445488639506194, 0.0, 0.1516372589926038, -0.5957866865062218, 3.619991254558197, 0.0, 0.0, 0.0, 0.2372201432405262, 0.1093468509080544, 0.05654466642885411, -0.1516372589925985, 0.5957866865062138, -3.619991254558199, 0.1806754768116736, 0.0, -0.1806754768116724, -0.05654466642885365, -0.1093468509080543, -0.2372201432405261, -0.9629395218015138, -0.4471258298128798, 3.568776157303456, -0.5158136919886361, 0.5158136919886296, 0.0, 0.4471258298128792, 0.9629395218015121, -3.568776157303455, -0.05271168234634763, 0.0, 0.05271168234634648, 0.0},
       {0.1148242317299635, 0.114279682866015, 0.7723262497619904, 0.1142796828660151, 2.22991585477053, -0.2845779716061284, -0.09893252910760154, -0.02066723527460249, -0.00730574582537691, -0.02066723527460167, -0.09893252910760093, -0.28457797160613, 2.229915854770532, -0.07721190170345511, -0.1166525967334313, -0.2578873785151279, -0.2505697881002001, 0.3112087149000859, -1.390075399787663, -0.07721190170345579, -0.1166525967334307, -0.2578873785151283, -0.05065711088168429, 0.9282585907492341, -0.05065711088168279, 0.3964687189311928, -2.640517566554224, 0.9122824109198295, 0.0934393294732289, 0.1461510118195782, 0.1461510118195789, 0.3964687189311951, 0.9122824109198284, -2.640517566554221, -1.076092960763049},
       {-0.3802553087930495, 0.0, 0.380255308793049, 0.0, -0.1334920888887592, 0.01286002579922922, 0.2432036634286773, 0.0, 0.0, 0.0, 1.035877715756587, 0.3626943460079963, -0.623818635524495, 0.1334920888887593, -0.01286002579923102, -0.2432036634286769, 0.3766957523174372, 0.0, -0.3766957523174356, 0.6238186355244945, -0.362694346007992, -1.03587771575659, 3.494007578688662, 0.1657555209625139, -0.8719661438039203, -0.1992833008434731, 0.1992833008434724, 0.0, -0.1657555209625086, -3.494007578688661, 0.8719661438039228, -1.037721664766435, 0.0, 1.037721664766435, 0.0},
       {0.6530010709352438, -0.114118166883303, 0.2661371419097459, -0.1141181668833027, -0.0960744086160402, 0.02608695517877993, 0.280621343701395, 0.03741768027271866, 0.01322692937955096, 0.03741768027271809, 0.2806213437013951, 0.02608695517877958, -0.09607440861604019, -1.701561921429924, 0.2973643027555349, 0.05853079858289997, -0.6656842056733372, 0.6600586487635293, -0.5652878369415949, -1.701561921429924, 0.2973643027555348, 0.05853079858290011, -0.2538967803114494, -0.05461347946797671, -0.2538967803114499, 1.698854236119944, 0.2467622070831914, -0.7909594576832431, -1.795153342568716, 0.08100668612067936, 0.08100668612067964, 1.698854236119945, -0.7909594576832425, 0.246762207083191, 1.948248123881188},
       {-0.3802553087930488, 0.0, 0.3802553087930489, 0.0, -0.6238186355244936, 0.3626943460079937, 1.03587771575659, 0.0, 0.0, 0.0, 0.243203663428677, 0.01286002579922989, -0.1334920888887583, 0.6238186355244929, -0.3626943460079913, -1.035877715756589, 0.3766957523174358, 0.0, -0.3766957523174354, 0.133492088888758, -0.01286002579923019, -0.243203663428677, -0.8719661438039243, 0.1657555209625108, 3.49400757868866, -1.037721664766435, 1.037721664766434, 0.0, -0.16575552096251, 0.8719661438039239, -3.494007578688661, -0.1992833008434718, 0.0, 0.1992833008434718, 0.0},
       {-0.2661371419097464, 0.1141181668833023, -0.6530010709352426, 0.1141181668833028, 1.701561921429924, -0.2973643027555343, -0.05853079858289988, -0.03741768027271809, -0.01322692937955047, -0.03741768027271787, -0.05853079858289866, -0.2973643027555365, 1.701561921429924, 0.09607440861604058, -0.02608695517878051, -0.2806213437013949, 0.5652878369415943, -0.660058648763528, 0.6656842056733352, 0.09607440861604016, -0.02608695517878001, -0.2806213437013951, -0.08100668612068064, 1.795153342568717, -0.08100668612067809, -0.2467622070831927, -1.698854236119944, 0.7909594576832438, 0.05461347946797587, 0.2538967803114494, 0.2538967803114498, -0.2467622070831908, 0.7909594576832427, -1.698854236119944, -1.948248123881188},
       {-0.3597037807101082, 0.0, 0.3597037807101061, 0.0, -0.7354630848932369, 0.6279192096083255, -0.1517140864411393, 0.0, 0.0, 0.0, 0.01154325014490587, -0.01170218750533754, -0.009175910776442166, 0.7354630848932411, -0.6279192096083235, 0.1517140864411388, 0.583748998452102, 0.0, -0.5837489984520979, 0.009175910776442342, 0.01170218750533795, -0.01154325014490675, -0.01936365361533237, 0.03848030382005382, 0.009454345562087617, -4.051307837002981, 4.051307837002978, 0.0, -0.03848030382005545, 0.0193636536153335, -0.009454345562088455, -0.02902595825796707, 0.0, 0.02902595825796649, 0.0},
       {1.849859338205412, 0.04189744545482699, 0.4016012261649341, 0.04189744545482788, -0.9149687752118847, 0.5644650063609007, -0.3312197767597876, -0.1795056903186467, -0.06345420324742414, -0.1795056903186483, -0.3312197767597858, 0.564465006360898, -0.9149687752118862, -1.902741876062793, 0.07957131891165285, 0.3762629194546528, -1.891198625917888, 0.06786913140631634, 0.367087008678212, -1.902741876062793, 0.07957131891165334, 0.3762629194546522, 1.734300550378301, 5.785608387381288, 1.734300550378308, 3.069005926053542, -0.8664060369981246, -0.8954319952560917, 3.088369579668874, -0.904886340818181, -0.9048863408181778, 3.069005926053544, -0.895431995256091, -0.8664060369981247, -9.346427192716465},
       {-0.3597037807101089, 0.0, 0.3597037807101058, 0.0, -0.009175910776441509, -0.01170218750533755, 0.01154325014490738, 0.0, 0.0, 0.0, -0.1517140864411388, 0.6279192096083263, -0.7354630848932366, 0.009175910776441575, 0.01170218750533722, -0.01154325014490616, 0.5837489984521028, 0.0, -0.583748998452098, 0.735463084893241, -0.6279192096083243, 0.1517140864411391, 0.009454345562087839, 0.03848030382005409, -0.01936365361533123, -0.02902595825796704, 0.0290259582579658, 0.0, -0.03848030382005403, -0.009454345562087954, 0.01936365361533263, -4.051307837002983, 0.0, 4.051307837002978, 0.0},
       {-0.4016012261649357, -0.04189744545482766, -1.849859338205404, -0.04189744545482794, 1.902741876062784, -0.07957131891165312, -0.3762629194546527, 0.1795056903186476, 0.06345420324742329, 0.1795056903186477, -0.3762629194546523, -0.07957131891165359, 1.902741876062787, 0.9149687752118871, -0.5644650063608996, 0.3312197767597863, -0.3670870086782117, -0.06786913140631332, 1.891198625917879, 0.9149687752118869, -0.5644650063608995, 0.331219776759788, 0.9048863408181812, -3.088369579668869, 0.9048863408181798, 0.8664060369981232, -3.069005926053536, 0.8954319952560893, -5.785608387381281, -1.734300550378307, -1.734300550378309, 0.8664060369981217, 0.8954319952560905, -3.069005926053535, 9.346427192716458},
       {1.665734840344261, 0.0, -1.027699691434096, -0.2776996914340964, 2.98046209052836, 6.394169238049198, 0.307292935137456, 0.0, 0.0, 0.0, 0.0, 0.0, 0.0, -2.511064378597518, 1.220979787125679, 0.7766906470683027, -2.511064378597517, 1.22097978712568, 0.7766906470683014, 0.0, 0.0, 0.0, 0.0, 0.0, 0.0, 6.175749855347996, -7.595610843866005, -7.595610843866006, 0.0, 0.0, 0.0, 0.0, 0.0, 0.0, 0.0},
       {1.665734840344264, 0.0, -1.665734840344258, 0.0, 2.51106437859751, -1.220979787125681, -0.7766906470683022, 0.0, 0.0, 0.0, -0.7766906470683052, -1.220979787125679, 2.51106437859751, -2.511064378597518, 1.220979787125682, 0.7766906470683036, 0.0, 0.0, 0.0, -2.511064378597516, 1.220979787125681, 0.7766906470683013, 7.595610843866001, -6.175749855347989, 7.595610843865998, 0.0, 0.0, 0.0, 6.175749855347999, -7.595610843866003, -7.595610843866003, 0.0, 0.0, 0.0, 0.0},
       {1.665734840344263, -0.277699691434096, -1.027699691434095, 0.0, 0.0, 0.0, 0.0, 0.0, 0.0, 0.0, 0.3072929351374534, 6.394169238049193, 2.980462090528362, 0.0, 0.0, 0.0, -2.511064378597518, 1.22097978712568, 0.7766906470683025, -2.511064378597517, 1.220979787125682, 0.7766906470683019, 0.0, 0.0, 0.0, 0.0, 0.0, 0.0, 0.0, 0.0, 0.0, 6.175749855347997, -7.595610843866, -7.595610843866001, 0.0},
       {1.027699691434098, 0.2776996914340961, -1.665734840344258, 0.0, 0.0, 0.0, 0.0, 0.0, 0.0, 0.0, -0.7766906470683018, -1.220979787125679, 2.511064378597514, 0.0, 0.0, 0.0, -0.776690647068305, -1.220979787125678, 2.511064378597514, -2.980462090528362, -6.3941692380492, -0.3072929351374568, 0.0, 0.0, 0.0, 0.0, 0.0, 0.0, 0.0, 0.0, 0.0, 7.595610843866001, 7.595610843866005, -6.175749855347989, 0.0},
       {0.7500000000000004, 0.0, -0.7499999999999991, 0.0, 0.0, 0.0, 0.0, 0.0, 0.0, 0.0, 0.0, 0.0, 0.0, 0.0, 0.0, 0.0, -2.673169155390907, 0.0, 2.673169155390906, 0.0, 0.0, 0.0, 0.0, 0.0, 0.0, 0.0, 0.0, 0.0, 0.0, 0.0, 0.0, 0.0, 0.0, 0.0, 0.0},
       {1.027699691434097, 0.0, -1.665734840344258, 0.2776996914340959, 2.511064378597511, -1.220979787125678, -0.7766906470683003, 0.0, 0.0, 0.0, 0.0, 0.0, 0.0, -2.980462090528364, -6.394169238049199, -0.3072929351374561, -0.7766906470683055, -1.220979787125678, 2.511064378597512, 0.0, 0.0, 0.0, 0.0, 0.0, 0.0, 7.595610843866, -6.17574985534799, 7.595610843866004, 0.0, 0.0, 0.0, 0.0, 0.0, 0.0, 0.0},
       {0.7932251789623141, -0.1222159753147279, 0.04568536571073545, -0.1022811510592784, 0.02384369672422714, 0.08551756104773953, 0.2984160780962204, 0.0491668696219931, 0.01738019854688475, 0.0491668696219926, 0.1259891089252583, 0.03716505680043932, 0.03061432202835148, -1.036941316820878, 0.388822144713794, -0.00380906879424127, -0.5947233202925291, 0.1765601913831655, -0.1249629366061003, -2.305350569283513, -0.2453333333333341, 0.2146839026168448, -0.1669653251344323, -0.166965325134433, -0.3873070963218576, 1.295362404098049, -0.1368591086202084, -0.7978844221824792, -2.263630144902689, -0.06021243302845007, 0.1601293381589744, 2.704313687277538, -0.3804711093463968, -0.160129338158975, 2.56},
       {0.6854153340497057, -0.07907629514279846, 0.6176757869574226, -0.07907629514279833, -0.3105566942169252, -0.1254526071026016, 0.2747234826567875, 0.01966674784879754, 0.006952079418754016, 0.01966674784879698, 0.2747234826567872, -0.1254526071026014, -0.3105566942169255, -1.066441438594074, 0.3783940255856636, -0.03330919056743657, -1.407165733072168, 1.694986172961221, -1.314749898522337, -1.066441438594074, 0.3783940255856633, -0.03330919056743658, -0.1822946602527845, 0.1482179965283519, -0.182294660252785, 0.2884950986362887, 1.169862183385984, -0.5928719861134069, -1.120456184543199, 0.0914235569876309, 0.09142355698763059, 0.2884950986362881, -0.5928719861134062, 1.169862183385984, 1.023999999999999},
       {0.7932251789623137, -0.1022811510592787, 0.04568536571073543, -0.1222159753147275, 0.03061432202835121, 0.03716505680043978, 0.1259891089252584, 0.04916686962199365, 0.01738019854688404, 0.04916686962199294, 0.2984160780962211, 0.08551756104773943, 0.02384369672422691, -2.305350569283512, -0.2453333333333334, 0.2146839026168444, -0.5947233202925286, 0.1765601913831653, -0.1249629366061004, -1.036941316820879, 0.3888221447137933, -0.003809068794240723, -0.3873070963218564, -0.1669653251344329, -0.166965325134433, 2.704313687277538, -0.1601293381589757, -0.3804711093463977, -2.263630144902688, 0.1601293381589735, -0.06021243302844993, 1.295362404098049, -0.7978844221824783, -0.1368591086202084, 2.56},
       {-0.7398917622721526, 0.1078098449126082, 0.1247616608535339, -0.02320485591648008, 0.004176948875429821, 0.07856548162898587, 0.2787493302474238, 0.02950012177319348, 0.01042811912813087, 0.0295001217731957, 0.4717181183015456, -0.2018338342024964, -0.09165374603866314, 0.359723563838919, 0.1428328056494849, -0.2255566130347949, 0.4365458031421856, 0.1626176639030412, -0.2441091606284369, 1.529433801139183, -1.940319506294555, -0.8981848362113456, 2.415818588641248, -0.2282826656078384, -0.889307979170108, -0.3151833216627848, 0.01532933511835068, -0.205012436069073, -1.230074616414433, -2.552125243538977, 0.7530013242723806, -1.550333292732385, 2.415818588641249, 0.4327426479544316, 1.536000000000001},
       {-0.6176757869574243, 0.07907629514279796, -0.6854153340497046, 0.07907629514279842, 1.066441438594073, -0.3783940255856631, 0.03330919056743709, -0.01966674784879704, -0.006952079418753958, -0.01966674784879677, 0.0333091905674377, -0.3783940255856639, 1.066441438594074, 0.3105566942169261, 0.1254526071026011, -0.2747234826567874, 1.314749898522338, -1.694986172961222, 1.407165733072167, 0.3105566942169258, 0.1254526071026012, -0.2747234826567875, -0.09142355698763148, 1.120456184543199, -0.09142355698762959, -1.169862183385986, -0.2884950986362874, 0.5928719861134073, -0.1482179965283525, 0.1822946602527842, 0.1822946602527848, -1.169862183385985, 0.5928719861134056, -0.2884950986362869, -1.023999999999999},
       {-0.739891762272152, -0.02320485591648018, 0.1247616608535341, 0.1078098449126075, -0.0916537460386635, -0.2018338342024987, 0.4717181183015483, 0.02950012177319638, 0.01042811912812896, 0.02950012177319539, 0.2787493302474237, 0.07856548162898677, 0.004176948875430162, 1.529433801139182, -1.940319506294556, -0.898184836211345, 0.4365458031421843, 0.1626176639030416, -0.2441091606284364, 0.3597235638389182, 0.142832805649485, -0.2255566130347945, -0.8893079791701105, -0.2282826656078399, 2.415818588641247, -1.550333292732383, 0.4327426479544313, 2.415818588641251, -1.230074616414434, 0.7530013242723822, -2.552125243538977, -0.3151833216627851, -0.2050124360690723, 0.01532933511835089, 1.535999999999999},
       {-0.1247616608535339, 0.02320485591647932, 0.7398917622721511, -0.1078098449126074, -1.529433801139181, 1.940319506294554, 0.8981848362113449, -0.02950012177319396, -0.01042811912813145, -0.02950012177319617, 0.2255566130347952, -0.1428328056494854, -0.3597235638389186, 0.09165374603866298, 0.2018338342024995, -0.4717181183015473, 0.2441091606284369, -0.1626176639030411, -0.4365458031421842, -0.004176948875429909, -0.07856548162898652, -0.2787493302474234, -0.7530013242723828, 1.230074616414434, 2.552125243538977, -0.432742647954432, 1.550333292732382, -2.415818588641249, 0.2282826656078399, 0.8893079791701104, -2.415818588641248, -0.01532933511835131, 0.2050124360690727, 0.3151833216627845, -1.536},
       {-0.04568536571073616, 0.1222159753147271, -0.7932251789623119, 0.1022811510592784, 1.036941316820877, -0.3888221447137934, 0.003809068794240676, -0.04916686962199272, -0.01738019854688352, -0.04916686962199264, -0.2146839026168433, 0.2453333333333313, 2.305350569283511, -0.02384369672422645, -0.08551756104774001, -0.2984160780962206, 0.124962936606101, -0.1765601913831658, 0.5947233202925271, -0.03061432202835087, -0.03716505680043944, -0.1259891089252583, 0.06021243302844864, 2.263630144902689, -0.1601293381589734, 0.1368591086202065, -1.295362404098046, 0.7978844221824793, 0.1669653251344307, 0.1669653251344326, 0.3873070963218567, 0.1601293381589735, 0.3804711093463973, -2.704313687277534, -2.559999999999998},
       {-0.1479665167700144, 0.0, 0.1479665167700139, 0.0, -0.01855254759364232, 0.0197848582535553, 0.07682223930326541, 0.0, 0.0, 0.0, 0.4422179965283503, -0.2122619533306278, -0.1211538678118599, 0.01855254759364214, -0.01978485825355675, -0.07682223930326523, 0.274572381371995, 0.0, -0.2745723813719936, 0.1211538678118599, 0.2122619533306301, -0.442217996528353, 4.967943832180225, -0.3202586763179479, -0.320258676317946, -0.2203417711874244, 0.2203417711874242, 0.0, 0.3202586763179505, -4.967943832180226, 0.3202586763179477, -0.6610253135622718, 0.0, 0.6610253135622716, 0.0},
       {-0.04568536571073619, 0.1022811510592778, -0.7932251789623125, 0.1222159753147275, 2.30535056928351, 0.2453333333333338, -0.214683902616844, -0.04916686962199258, -0.01738019854688409, -0.04916686962199244, 0.003809068794242399, -0.388822144713795, 1.036941316820878, -0.03061432202835097, -0.03716505680044017, -0.1259891089252581, 0.1249629366061005, -0.1765601913831652, 0.5947233202925268, -0.02384369672422731, -0.08551756104773971, -0.2984160780962208, -0.1601293381589757, 2.263630144902689, 0.06021243302845147, 0.1601293381589735, -2.704313687277535, 0.3804711093463977, 0.1669653251344308, 0.3873070963218561, 0.1669653251344332, 0.1368591086202074, 0.7978844221824786, -1.295362404098047, -2.559999999999999},
       {-0.1479665167700143, 0.0, 0.147966516770014, 0.0, -0.121153867811859, -0.2122619533306294, 0.4422179965283525, 0.0, 0.0, 0.0, 0.07682223930326557, 0.01978485825355574, -0.01855254759364168, 0.1211538678118592, 0.2122619533306294, -0.4422179965283515, 0.2745723813719942, 0.0, -0.2745723813719934, 0.01855254759364158, -0.01978485825355581, -0.0768222393032653, -0.3202586763179501, -0.3202586763179492, 4.967943832180224, -0.6610253135622722, 0.6610253135622708, 0.0, 0.3202586763179497, 0.3202586763179487, -4.967943832180225, -0.220341771187424, 0.0, 0.2203417711874238, 0.0},
       {-0.1247616608535343, -0.1078098449126074, 0.7398917622721507, 0.02320485591647993, -0.3597235638389183, -0.1428328056494858, 0.2255566130347952, -0.0295001217731975, -0.01042811912812982, -0.0295001217731955, 0.8981848362113435, 1.940319506294556, -1.529433801139181, -0.004176948875429033, -0.07856548162898751, -0.2787493302474234, 0.2441091606284377, -0.1626176639030419, -0.4365458031421834, 0.09165374603866377, 0.2018338342024998, -0.4717181183015484, 2.552125243538976, 1.230074616414435, -0.7530013242723793, -0.01532933511835219, 0.3151833216627848, 0.2050124360690724, 0.2282826656078406, -2.415818588641248, 0.8893079791701103, -0.4327426479544323, -2.41581858864125, 1.550333292732383, -1.536}};
  static constexpr S D2[31][35] =
      {{-0.7427835558031142, 0.7427835558031124, 0.0, 0.0, 0.0, 0.0, 0.0, -0.8219387564164539, -0.0985423095122992, 0.0, -0.821938756416454, -0.09854230951229914, 0.0, 0.8219387564164553, 0.09854230951229896, 0.0, 0.821938756416455, 0.09854230951229963, 0.0, 0.8219387564164554, 0.0, -0.8219387564164535, 1.898902710966501, 0.1774826235647516, 0.1774826235647535, -1.898902710966502, -0.1774826235647509, -0.1774826235647522, -1.721420087401751, 1.721420087401749, 0.0, -1.72142008740175, 1.721420087401748, 0.0, 0.0},
       {0.114824231729963, 0.7723262497619892, 0.1142796828660157, 0.114279682866015, -0.02066723527460391, -0.007305745825377489, -0.02066723527460116, 2.229915854770529, -0.284577971606128, -0.09893252910760139, 2.22991585477053, -0.2845779716061274, -0.09893252910760239, -0.07721190170345335, -0.1166525967334325, -0.2578873785151278, -0.07721190170345418, -0.1166525967334314, -0.2578873785151287, -0.2505697881001995, 0.3112087149000867, -1.390075399787663, 0.9282585907492327, -0.05065711088168169, -0.05065711088168152, 0.09343932947322872, 0.1461510118195797, 0.1461510118195776, 0.3964687189311938, -2.640517566554222, 0.9122824109198276, 0.3964687189311932, -2.640517566554223, 0.9122824109198305, -1.076092960763054},
       {-0.7723262497619913, -0.1148242317299641, -0.1142796828660156, -0.1142796828660151, 0.02066723527460216, 0.007305745825376781, 0.02066723527460134, 0.07721190170345547, 0.1166525967334316, 0.2578873785151289, 0.07721190170345574, 0.1166525967334305, 0.2578873785151278, -2.229915854770534, 0.2845779716061286, 0.09893252910760197, -2.229915854770536, 0.2845779716061272, 0.09893252910760149, 1.390075399787667, -0.3112087149000904, 0.250569788100204, -0.09343932947323177, -0.146151011819578, -0.1461510118195779, -0.9282585907492316, 0.05065711088168157, 0.05065711088168313, 2.640517566554228, -0.396468718931197, -0.9122824109198299, 2.640517566554229, -0.3964687189311966, -0.912282410919829, 1.076092960763054},
       {0.0005445488639478257, -0.0005445488639511068, 0.0, 0.0, 0.0, 0.0, 0.0, 0.1516372589926052, -0.5957866865062222, 3.619991254558198, 0.05654466642885447, 0.1093468509080542, 0.237220143240526, -0.1516372589925978, 0.5957866865062135, -3.619991254558199, -0.05654466642885379, -0.1093468509080538, -0.2372201432405263, 0.1806754768116731, 0.0, -0.1806754768116716, -0.4471258298128834, -0.9629395218015117, 3.568776157303456, 0.4471258298128786, 0.9629395218015115, -3.568776157303457, -0.5158136919886355, 0.5158136919886286, 0.0, -0.05271168234634781, 0.05271168234634624, 0.0, 0.0},
       {0.0005445488639472817, -0.0005445488639508212, 0.0, 0.0, 0.0, 0.0, 0.0, 0.05654466642885407, 0.109346850908055, 0.2372201432405264, 0.1516372589926048, -0.5957866865062232, 3.619991254558198, -0.05654466642885249, -0.1093468509080542, -0.2372201432405261, -0.1516372589925977, 0.5957866865062147, -3.619991254558202, 0.1806754768116736, 0.0, -0.1806754768116713, -0.447125829812882, 3.568776157303458, -0.9629395218015115, 0.4471258298128766, -3.568776157303456, 0.962939521801513, -0.05271168234635029, 0.05271168234634671, 0.0, -0.5158136919886375, 0.5158136919886288, 0.0, 0.0},
       {-0.2661371419097464, -0.6530010709352427, 0.114118166883303, 0.1141181668833027, -0.03741768027271876, -0.01322692937955041, -0.03741768027271772, 1.701561921429923, -0.2973643027555341, -0.05853079858289992, 1.701561921429924, -0.297364302755534, -0.05853079858290021, 0.09607440861604065, -0.02608695517878147, -0.280621343701395, 0.09607440861604105, -0.02608695517878042, -0.2806213437013954, 0.5652878369415945, -0.6600586487635275, 0.6656842056733349, 1.795153342568717, -0.08100668612067906, -0.08100668612067781, 0.05461347946797646, 0.25389678031145, 0.2538967803114496, -0.2467622070831908, -1.698854236119945, 0.7909594576832434, -0.2467622070831911, -1.698854236119945, 0.7909594576832442, -1.94824812388119},
       {0.6530010709352442, 0.2661371419097465, -0.1141181668833029, -0.1141181668833028, 0.03741768027271783, 0.01322692937955018, 0.03741768027271781, -0.09607440861604023, 0.02608695517878031, 0.2806213437013954, -0.09607440861604045, 0.02608695517877916, 0.2806213437013945, -1.701561921429924, 0.2973643027555348, 0.05853079858290024, -1.701561921429926, 0.2973643027555346, 0.05853079858290005, -0.6656842056733365, 0.6600586487635288, -0.5652878369415942, -0.05461347946797793, -0.2538967803114496, -0.2538967803114504, -1.795153342568717, 0.08100668612067921, 0.08100668612067904, 1.698854236119945, 0.2467622070831912, -0.7909594576832444, 1.698854236119946, 0.2467622070831924, -0.7909594576832432, 1.948248123881189},
       {-0.3802553087930488, 0.3802553087930482, 0.0, 0.0, 0.0, 0.0, 0.0, -0.6238186355244928, 0.3626943460079922, 1.035877715756589, -0.1334920888887579, 0.01286002579922962, 0.2432036634286771, 0.6238186355244933, -0.3626943460079924, -1.035877715756589, 0.1334920888887578, -0.01286002579922948, -0.2432036634286768, 0.3766957523174356, 0.0, -0.3766957523174349, 0.1657555209625088, -0.8719661438039228, 3.494007578688663, -0.1657555209625101, 0.8719661438039233, -3.494007578688663, -1.037721664766435, 1.037721664766434, 0.0, -0.1992833008434718, 0.1992833008434716, 0.0, 0.0},
       {-0.3802553087930495, 0.3802553087930483, 0.0, 0.0, 0.0, 0.0, 0.0, -0.1334920888887579, 0.01286002579922965, 0.2432036634286771, -0.6238186355244925, 0.3626943460079922, 1.03587771575659, 0.1334920888887589, -0.01286002579923012, -0.2432036634286769, 0.6238186355244941, -0.3626943460079926, -1.03587771575659, 0.3766957523174361, 0.0, -0.376695752317435, 0.1657555209625106, 3.494007578688661, -0.8719661438039211, -0.1657555209625121, -3.494007578688661, 0.871966143803923, -0.1992833008434737, 0.199283300843472, 0.0, -1.037721664766436, 1.037721664766433, 0.0, 0.0},
       {-0.4016012261649356, -1.849859338205402, -0.04189744545482788, -0.04189744545482826, 0.1795056903186474, 0.0634542032474246, 0.1795056903186482, 1.902741876062785, -0.07957131891165406, -0.376262919454652, 1.902741876062787, -0.07957131891165414, -0.3762629194546528, 0.9149687752118876, -0.5644650063608998, 0.3312197767597875, 0.9149687752118879, -0.5644650063608984, 0.3312197767597866, -0.3670870086782112, -0.06786913140631348, 1.891198625917879, -3.088369579668869, 0.9048863408181762, 0.9048863408181774, -5.785608387381278, -1.734300550378307, -1.734300550378307, 0.8664060369981217, -3.069005926053531, 0.8954319952560884, 0.866406036998122, -3.069005926053532, 0.8954319952560891, 9.346427192716455},
       {1.849859338205412, 0.401601226164934, 0.041897445454828, 0.04189744545482783, -0.1795056903186482, -0.06345420324742514, -0.1795056903186489, -0.914968775211886, 0.5644650063609014, -0.3312197767597871, -0.9149687752118865, 0.5644650063608988, -0.3312197767597875, -1.902741876062793, 0.07957131891165246, 0.3762629194546528, -1.902741876062794, 0.07957131891165284, 0.3762629194546534, -1.891198625917887, 0.06786913140631728, 0.367087008678211, 5.785608387381283, 1.734300550378308, 1.734300550378308, 3.088369579668874, -0.9048863408181763, -0.9048863408181792, 3.069005926053542, -0.8664060369981287, -0.8954319952560904, 3.069005926053545, -0.8664060369981272, -0.8954319952560895, -9.346427192716465},
       {-0.3597037807101088, 0.3597037807101058, 0.0, 0.0, 0.0, 0.0, 0.0, -0.009175910776441462, -0.01170218750533801, 0.01154325014490663, -0.7354630848932365, 0.627919209608326, -0.1517140864411385, 0.009175910776441658, 0.01170218750533766, -0.0115432501449062, 0.7354630848932411, -0.6279192096083241, 0.151714086441139, 0.5837489984521024, 0.0, -0.5837489984520979, 0.03848030382005559, 0.009454345562087808, -0.01936365361533158, -0.03848030382005529, -0.009454345562088342, 0.01936365361533219, -0.02902595825796667, 0.02902595825796723, 0.0, -4.051307837002982, 4.051307837002978, 0.0, 0.0},
       {-0.3597037807101087, 0.3597037807101054, 0.0, 0.0, 0.0, 0.0, 0.0, -0.7354630848932361, 0.6279192096083253, -0.1517140864411389, -0.009175910776441098, -0.01170218750533734, 0.01154325014490719, 0.7354630848932401, -0.6279192096083245, 0.1517140864411383, 0.009175910776441157, 0.01170218750533807, -0.01154325014490613, 0.5837489984521016, 0.0, -0.5837489984520978, 0.03848030382005408, -0.01936365361533253, 0.009454345562089008, -0.03848030382005561, 0.01936365361533322, -0.009454345562087419, -4.051307837002984, 4.051307837002978, 0.0, -0.02902595825796772, 0.02902595825796641, 0.0, 0.0},
       {1.665734840344261, -1.665734840344263, 0.0, 0.0, 0.0, 0.0, 0.0, 2.511064378597521, -1.220979787125683, -0.7766906470683012, 2.511064378597521, -1.220979787125683, -0.776690647068303, -2.511064378597518, 1.22097978712568, 0.7766906470683034, -2.511064378597518, 1.220979787125682, 0.7766906470683007, 0.0, 0.0, 0.0, -6.175749855347999, 7.595610843866006, 7.595610843866003, 6.175749855347994, -7.595610843866004, -7.595610843866007, 0.0, 0.0, 0.0, 0.0, 0.0, 0.0, 0.0},
       {1.665734840344262, -1.027699691434095, 0.0, -0.2776996914340963, 0.0, 0.0, 0.0, 2.980462090528361, 6.394169238049194, 0.3072929351374546, 0.0, 0.0, 0.0, -2.511064378597519, 1.220979787125681, 0.7766906470683032, 0.0, 0.0, 0.0, -2.511064378597517, 1.22097978712568, 0.7766906470683029, 0.0, 0.0, 0.0, 0.0, 0.0, 0.0, 6.175749855347999, -7.595610843866003, -7.595610843866003, 0.0, 0.0, 0.0, 0.0},
       {1.665734840344262, -1.027699691434096, -0.2776996914340958, 0.0, 0.0, 0.0, 0.0, 0.0, 0.0, 0.0, 2.98046209052836, 6.394169238049196, 0.3072929351374554, 0.0, 0.0, 0.0, -2.511064378597517, 1.22097978712568, 0.7766906470683023, -2.511064378597517, 1.220979787125682, 0.7766906470683014, 0.0, 0.0, 0.0, 0.0, 0.0, 0.0, 0.0, 0.0, 0.0, 6.175749855347997, -7.595610843866, -7.595610843866002, 0.0},
       {0.7500000000000007, -0.7499999999999996, 0.0, 0.0, 0.0, 0.0, 0.0, 0.0, 0.0, 0.0, 0.0, 0.0, 0.0, 0.0, 0.0, 0.0, 0.0, 0.0, 0.0, -2.673169155390906, 0.0, 2.673169155390907, 0.0, 0.0, 0.0, 0.0, 0.0, 0.0, 0.0, 0.0, 0.0, 0.0, 0.0, 0.0, 0.0},
       {1.027699691434098, -1.665734840344256, 0.2776996914340955, 0.0, 0.0, 0.0, 0.0, 0.0, 0.0, 0.0, 2.511064378597512, -1.220979787125678, -0.7766906470683012, 0.0, 0.0, 0.0, -2.980462090528363, -6.394169238049202, -0.3072929351374555, -0.7766906470683048, -1.220979787125678, 2.511064378597512, 0.0, 0.0, 0.0, 0.0, 0.0, 0.0, 0.0, 0.0, 0.0, 7.595610843866002, -6.175749855347986, 7.595610843866005, 0.0},
       {1.027699691434098, -1.665734840344257, 0.0, 0.2776996914340958, 0.0, 0.0, 0.0, 2.511064378597511, -1.220979787125678, -0.7766906470682995, 0.0, 0.0, 0.0, -2.980462090528363, -6.394169238049201, -0.3072929351374548, 0.0, 0.0, 0.0, -0.7766906470683044, -1.220979787125678, 2.511064378597513, 0.0, 0.0, 0.0, 0.0, 0.0, 0.0, 7.595610843866001, -6.175749855347989, 7.595610843866004, 0.0, 0.0, 0.0, 0.0},
       {0.6854153340497058, 0.6176757869574233, -0.07907629514279832, -0.07907629514279829, 0.0196667478487967, 0.006952079418753488, 0.0196667478487972, -0.3105566942169251, -0.1254526071026017, 0.2747234826567877, -0.3105566942169254, -0.1254526071026022, 0.2747234826567872, -1.066441438594074, 0.3783940255856635, -0.0333091905674365, -1.066441438594075, 0.3783940255856637, -0.03330919056743671, -1.407165733072168, 1.694986172961222, -1.314749898522337, 0.1482179965283515, -0.1822946602527839, -0.1822946602527849, -1.1204561845432, 0.09142355698763156, 0.09142355698763098, 0.288495098636287, 1.169862183385985, -0.5928719861134072, 0.2884950986362869, 1.169862183385986, -0.5928719861134063, 1.023999999999998},
       {0.7932251789623141, 0.04568536571073649, -0.1222159753147277, -0.1022811510592784, 0.04916686962199249, 0.01738019854688357, 0.04916686962199231, 0.02384369672422698, 0.08551756104773998, 0.2984160780962209, 0.03061432202835084, 0.03716505680043877, 0.1259891089252579, -1.036941316820879, 0.3888221447137937, -0.003809068794241097, -2.305350569283513, -0.2453333333333338, 0.2146839026168445, -0.5947233202925285, 0.1765601913831661, -0.1249629366061008, -0.1669653251344336, -0.1669653251344334, -0.3873070963218577, -2.263630144902687, -0.06021243302845009, 0.1601293381589738, 1.295362404098048, -0.1368591086202079, -0.7978844221824802, 2.704313687277537, -0.1601293381589728, -0.3804711093463972, 2.56},
       {0.7932251789623141, 0.04568536571073668, -0.1022811510592786, -0.1222159753147277, 0.04916686962199245, 0.01738019854688372, 0.04916686962199231, 0.03061432202835055, 0.03716505680043968, 0.1259891089252587, 0.02384369672422699, 0.08551756104773871, 0.2984160780962198, -2.305350569283512, -0.2453333333333334, 0.2146839026168449, -1.03694131682088, 0.3888221447137939, -0.003809068794241018, -0.5947233202925281, 0.1765601913831659, -0.1249629366061011, -0.1669653251344327, -0.3873070963218579, -0.166965325134434, -2.263630144902687, 0.1601293381589739, -0.06021243302845056, 2.704313687277538, -0.1601293381589734, -0.3804711093463987, 1.295362404098048, -0.1368591086202062, -0.7978844221824792, 2.559999999999999},
       {-0.6176757869574246, -0.685415334049705, 0.07907629514279836, 0.07907629514279835, -0.01966674784879691, -0.006952079418753418, -0.01966674784879677, 1.066441438594073, -0.3783940255856629, 0.03330919056743688, 1.066441438594074, -0.3783940255856627, 0.03330919056743711, 0.3105566942169258, 0.1254526071026008, -0.2747234826567877, 0.3105566942169264, 0.1254526071026013, -0.2747234826567876, 1.314749898522338, -1.694986172961223, 1.407165733072168, 1.1204561845432, -0.09142355698763163, -0.09142355698762969, -0.1482179965283523, 0.1822946602527841, 0.1822946602527845, -1.169862183385985, -0.2884950986362877, 0.5928719861134067, -1.169862183385985, -0.2884950986362884, 0.5928719861134066, -1.023999999999999},
       {-0.7398917622721525, 0.1247616608535338, 0.1078098449126075, -0.02320485591648, 0.02950012177319565, 0.0104281191281303, 0.02950012177319665, 0.004176948875430325, 0.07856548162898573, 0.278749330247424, -0.09165374603866221, -0.2018338342024983, 0.4717181183015476, 0.3597235638389191, 0.1428328056494849, -0.2255566130347948, 1.529433801139183, -1.940319506294556, -0.8981848362113445, 0.4365458031421846, 0.1626176639030406, -0.244109160628436, -0.2282826656078397, 2.415818588641246, -0.8893079791701083, -1.230074616414435, -2.552125243538977, 0.7530013242723815, -0.3151833216627852, 0.01532933511835133, -0.2050124360690715, -1.550333292732385, 0.4327426479544308, 2.41581858864125, 1.536000000000001},
       {-0.739891762272152, 0.1247616608535339, -0.0232048559164801, 0.1078098449126074, 0.02950012177319584, 0.01042811912813008, 0.02950012177319599, -0.09165374603866332, -0.2018338342024988, 0.471718118301548, 0.004176948875430438, 0.07856548162898619, 0.2787493302474237, 1.529433801139183, -1.940319506294556, -0.8981848362113447, 0.3597235638389183, 0.1428328056494857, -0.2255566130347947, 0.4365458031421841, 0.1626176639030414, -0.2441091606284359, -0.2282826656078405, -0.8893079791701104, 2.415818588641247, -1.230074616414434, 0.7530013242723814, -2.552125243538975, -1.550333292732384, 0.4327426479544321, 2.41581858864125, -0.3151833216627849, 0.01532933511835175, -0.2050124360690731, 1.536000000000001},
       {-0.147966516770014, 0.1479665167700133, 0.0, 0.0, 0.0, 0.0, 0.0, -0.1211538678118575, -0.2122619533306304, 0.442217996528352, -0.01855254759364073, 0.01978485825355501, 0.07682223930326544, 0.1211538678118586, 0.2122619533306299, -0.442217996528351, 0.01855254759364109, -0.01978485825355533, -0.07682223930326537, 0.2745723813719939, 0.0, -0.2745723813719931, -0.3202586763179516, -0.3202586763179478, 4.967943832180224, 0.3202586763179498, 0.3202586763179486, -4.967943832180226, -0.6610253135622718, 0.6610253135622707, 0.0, -0.2203417711874237, 0.220341771187424, 0.0, 0.0},
       {-0.1247616608535347, 0.7398917622721505, -0.1078098449126074, 0.02320485591648006, -0.02950012177319533, -0.01042811912813043, -0.02950012177319597, -0.3597235638389181, -0.1428328056494848, 0.2255566130347949, -1.529433801139181, 1.940319506294553, 0.8981848362113445, -0.004176948875429388, -0.07856548162898624, -0.2787493302474238, 0.09165374603866402, 0.2018338342024981, -0.4717181183015473, 0.2441091606284374, -0.1626176639030409, -0.4365458031421836, 1.230074616414433, 2.552125243538977, -0.7530013242723799, 0.2282826656078383, -2.415818588641247, 0.8893079791701101, -0.01532933511835334, 0.3151833216627847, 0.2050124360690725, -0.4327426479544344, 1.550333292732382, -2.415818588641246, -1.535999999999998},
       {-0.04568536571073597, -0.7932251789623123, 0.1022811510592787, 0.1222159753147275, -0.0491668696219935, -0.01738019854688399, -0.04916686962199255, 2.30535056928351, 0.2453333333333338, -0.2146839026168446, 1.036941316820877, -0.3888221447137935, 0.003809068794240774, -0.03061432202835058, -0.03716505680044075, -0.125989108925258, -0.02384369672422627, -0.08551756104773983, -0.298416078096221, 0.1249629366061005, -0.1765601913831643, 0.5947233202925262, 2.263630144902687, -0.1601293381589738, 0.0602124330284514, 0.1669653251344317, 0.3873070963218579, 0.1669653251344332, 0.1601293381589746, -2.704313687277537, 0.3804711093463979, 0.1368591086202073, -1.295362404098048, 0.79788442218248, -2.56},
       {-0.147966516770015, 0.1479665167700136, 0.0, 0.0, 0.0, 0.0, 0.0, -0.01855254759364055, 0.01978485825355523, 0.07682223930326589, -0.1211538678118574, -0.2122619533306298, 0.4422179965283516, 0.01855254759364197, -0.01978485825355627, -0.0768222393032654, 0.1211538678118595, 0.2122619533306295, -0.4422179965283519, 0.2745723813719942, 0.0, -0.2745723813719932, -0.3202586763179502, 4.967943832180224, -0.3202586763179458, 0.3202586763179477, -4.967943832180223, 0.3202586763179476, -0.220341771187426, 0.2203417711874237, 0.0, -0.661025313562273, 0.6610253135622708, 0.0, 0.0},
       {-0.1247616608535345, 0.7398917622721508, 0.02320485591647998, -0.1078098449126074, -0.02950012177319578, -0.01042811912813109, -0.02950012177319541, -1.529433801139181, 1.940319506294553, 0.8981848362113444, -0.3597235638389187, -0.1428328056494849, 0.2255566130347948, 0.09165374603866391, 0.2018338342024985, -0.4717181183015476, -0.004176948875430223, -0.07856548162898594, -0.2787493302474231, 0.244109160628437, -0.1626176639030407, -0.4365458031421836, 1.230074616414432, -0.7530013242723808, 2.552125243538975, 0.228282665607839, 0.8893079791701106, -2.415818588641248, -0.432742647954433, 1.550333292732382, -2.415818588641247, -0.01532933511835135, 0.3151833216627838, 0.2050124360690725, -1.535999999999999},
       {-0.0456853657107358, -0.7932251789623125, 0.1222159753147278, 0.1022811510592783, -0.04916686962199346, -0.01738019854688386, -0.04916686962199231, 1.036941316820877, -0.3888221447137931, 0.00380906879424126, 2.30535056928351, 0.2453333333333341, -0.2146839026168447, -0.0238436967242268, -0.08551756104774136, -0.2984160780962204, -0.03061432202835064, -0.03716505680043995, -0.1259891089252586, 0.1249629366061002, -0.1765601913831641, 0.5947233202925262, 2.263630144902688, 0.06021243302845065, -0.1601293381589727, 0.1669653251344315, 0.1669653251344335, 0.3873070963218567, 0.1368591086202085, -1.295362404098048, 0.7978844221824788, 0.1601293381589753, -2.704313687277538, 0.380471109346399, -2.56}};
  static constexpr S Phi[31][4] =
      {{0.25, 0.25, 0.25, 0.25},
       {0.0782131923303187, 0.7653604230090441, 0.07821319233031859, 0.07821319233031859},
       {0.7653604230090441, 0.07821319233031859, 0.07821319233031859, 0.07821319233031859},
       {0.07821319233031883, 0.07821319233031858, 0.07821319233031858, 0.7653604230090441},
       {0.07821319233031884, 0.07821319233031862, 0.7653604230090441, 0.07821319233031859},
       {0.1218432166639044, 0.6344703500082867, 0.1218432166639044, 0.1218432166639044},
       {0.6344703500082867, 0.1218432166639044, 0.1218432166639044, 0.1218432166639044},
       {0.1218432166639044, 0.1218432166639044, 0.1218432166639044, 0.6344703500082869},
       {0.1218432166639044, 0.1218432166639044, 0.6344703500082868, 0.1218432166639044},
       {0.3325391644464204, 0.002382506660738415, 0.3325391644464206, 0.3325391644464206},
       {0.002382506660738193, 0.3325391644464206, 0.3325391644464206, 0.3325391644464206},
       {0.3325391644464205, 0.3325391644464207, 0.3325391644464206, 0.002382506660738276},
       {0.3325391644464204, 0.3325391644464206, 0.002382506660738276, 0.3325391644464206},
       {0.0, 0.0, 0.5, 0.5},
       {0.0, 0.4999999999999999, 0.0, 0.5},
       {0.0, 0.5, 0.5, 0.0},
       {0.4999999999999999, 0.5, 0.0, 0.0},
       {0.5, 0.0, 0.5, 0.0},
       {0.5, 0.0, 0.0, 0.5},
       {0.6, 0.2000000000000001, 0.09999999999999992, 0.09999999999999998},
       {0.6, 0.1, 0.2, 0.09999999999999998},
       {0.6, 0.1, 0.09999999999999992, 0.2},
       {0.2000000000000001, 0.6, 0.09999999999999992, 0.09999999999999998},
       {0.2000000000000001, 0.1, 0.5999999999999999, 0.09999999999999998},
       {0.2000000000000001, 0.09999999999999998, 0.09999999999999992, 0.6000000000000001},
       {0.1, 0.1, 0.2, 0.6000000000000001},
       {0.1000000000000001, 0.2000000000000001, 0.5999999999999999, 0.09999999999999998},
       {0.1, 0.6, 0.09999999999999992, 0.2},
       {0.1000000000000001, 0.1000000000000001, 0.6, 0.2},
       {0.1000000000000001, 0.2, 0.09999999999999992, 0.6000000000000001},
       {0.1, 0.6, 0.2, 0.09999999999999998}};
#elif DEGREE == 5
  static constexpr int Nq = 57;
  static constexpr S weights[57] = {0.0007162016044045418, 0.0009077771144629987, 0.0009168420416400242, 0.0009750266138313078, 0.00110019009257318, 0.001123566736937568, 0.001171941882444346, 0.001174462115726251, 0.001182281355818436, 0.001184296682706247, 0.001190006619366604, 0.001199964370174361, 0.001313356829704151, 0.001336868422542667, 0.00136638338062151, 0.00138270596047503, 0.001524428447483085, 0.001527532399215677, 0.001629900429024985, 0.0016375601841337, 0.001718580977267058, 0.00193749218890168, 0.001960422756541077, 0.002095484520412313, 0.002162543037223973, 0.002164588522968261, 0.00218097825718004, 0.002205183817607957, 0.002212319341124885, 0.002214375065161267, 0.002279539234758831, 0.0023777410142238, 0.002482591391785385, 0.00251979649860075, 0.002563955465818867, 0.002619562878906952, 0.00274589846301462, 0.00331480176776181, 0.003559049951653051, 0.00373011850287772, 0.003834914870295062, 0.004215437802807641, 0.004232085234391223, 0.004275313663630222, 0.004380082113958086, 0.00439593140299428, 0.00468786977428942, 0.005307550768351452, 0.005439951471336866, 0.005520179070379667, 0.005870060438901905, 0.005879894123846905, 0.005952755449705822, 0.006370180985658904, 0.006979224618881529, 0.007535230513202575, 0.008183687426958101};
  // Precomputed values of basis functions and precomputations
  // FE* dimensions: [permutation][entities][points][dofs]
  static constexpr S D0[57][56] =
      {{-0.864354518644077, -0.01249290189511253, -0.5432715889015921, -0.01033887751012766, 2.029206467419381, 8.363963666010331, -1.000214870889157, 0.2075885268400535, -0.03162873042869457, 0.02698203788721973, 0.02723895355918987, 0.01235660818108826, 0.01762817824310395, -0.007003538692202472, -0.003681803552010314, -0.0239243797938479, 0.6921595433318061, 0.1109490625695323, -0.143745121189405, -0.2199256291094886, 1.801634115113928, -1.933588824083563, 1.66858354857777, -0.003197348467893469, 0.02975171684844409, 0.02200835261491349, 0.02949615029629764, 0.05511450294288289, 0.1046617360189358, -0.2063423518914127, 0.3984952846755091, -0.1558893691748355, 0.5457174248247121, -0.09625897126479201, -2.264418371348162, 4.534057836038546, -10.96626522607261, 0.2259761873243964, -2.629628256007825, 0.9294858430641558, -0.03400805301042185, -0.03647711160427262, -0.05857955193286443, -0.003300827367045279, -0.004840968372355396, 0.01243725296955504, -0.09288107519608388, -0.0843527817617105, -0.157155107436422, 0.1728762242704117, 0.2450077089157336, -0.2988676928307493, 0.1829082936400178, 0.2624419642303867, -0.7842098483618657, -0.03788348961771365},
       {-0.8985062698181107, -0.007464478445756076, -0.04892863201612326, 0.4487177534844861, 1.937324113069306, -1.853315733698117, 1.459988906686102, -1.076102738416102, 0.03137890784221596, 0.01632733182610278, -0.09868917164659559, -0.3416104519473355, 0.01476129246883389, -0.01572148988570493, -0.0113767655057287, -0.03958813767357577, 0.01814674044364015, 0.03223467277735513, 0.0659451729463323, 0.1289747872247769, 1.983133643948349, -2.362072231108433, 2.480107312334777, -1.7308609338688, 0.5946559504813922, 0.1700833765558273, -0.01142936441986112, -0.02376258559878619, -0.1343681937220842, 0.1487719752935344, 11.68442741138174, 0.1514853234287534, -3.250366695886212, 1.290480710496029, -0.08308479561144866, 0.2535352747473284, -0.884742892250331, -0.174197138200025, 0.672839775512752, -0.3935613908800071, -0.02519602405161241, -0.01206208335556481, -0.0008770670621318106, -0.05523580597595986, -0.02866307998402283, -0.1027358801320008, -2.039134151174304, -0.2580975135143541, 0.1078680486921874, 4.397881370517975, -0.0550164273651669, -11.51195815340482, 0.2022896083611686, 0.06592626970203666, -1.303061158733264, 0.4745017051293299},
       {-0.3141094843885782, -0.06789867003277733, -0.00257761425825853, 0.09460174638076585, -0.1533240427973907, -0.0755534563974834, -0.04035405658124856, -0.04656157000400876, 8.305882838220906, -1.699069770707256, 0.7234590341308066, -0.3285883890912579, -0.008614125066175595, -0.001807952148088333, -0.002849768024420187, 0.004418254951447588, -0.05355135248714403, -0.0042372415817064, 0.05350289129418297, 0.1218461090135265, 0.08319975721231455, 0.06194828472333214, 0.08630735346277985, 0.157250668116683, 0.8463937721383964, -1.408357131136253, 2.524591282227526, -8.060626977871436, 4.708970568747944, -1.457801751645855, 0.5783384964437157, -0.8192436672937032, 0.2598577913211699, 0.2218425151877848, 0.007972043889264329, -0.0007441177838534659, -0.009240873633081452, -0.008493586137817368, -0.01585260148791679, -0.02576525129598049, 0.1582324740227724, -0.170381886807882, -1.048527782500969, -0.1026682055285604, 0.8455161555137495, -0.4206837968713105, -0.3483542044674216, 1.059757193418735, -4.672677055359424, -0.3200697345981196, 1.473951380132948, -0.5897556005367501, -0.009339255621154974, -0.2708019124331553, 0.05746582395282866, 0.1231764520728972},
       {-1.558114911006371, -0.1398125451463979, -0.0211038257015544, -1.400420807045918, 0.2035275453921955, -0.7945128135052681, 3.685689475161384, 5.612859751111193, 0.137452638361403, 0.1262826879304008, -0.5103896548318712, 0.6783907584745317, 0.08146100027210117, 0.01495971063991757, 0.02006894753022096, 0.01754805915885685, 3.03130538997073, -2.866258585938445, 1.93183346418584, 0.3420234282677835, 1.258874889783904, 0.1352316690046031, -0.2129875484657816, -0.2200964381693843, 0.2681799501091923, 0.1597043265585754, 0.1477106619471198, 0.2266636336728548, -0.04758581137830523, -0.08095674142238506, -0.1615738297795614, -0.5330591287493285, 0.7257396060248, 3.303262251328424, -3.740008168819377, 0.4933383622346538, 0.9842237818575713, 6.345241192252092, -3.039920240303897, -10.42329970780319, -0.7753187775897825, -0.497911116736706, -0.6698169293261499, 1.247313376445349, 1.12695746277868, -1.624644568303582, -0.3038167558619033, -0.2267636043507946, -0.2635834447940625, -0.01075503676329756, -0.007753920901709437, 0.08438531092845857, 1.412137037541666, 1.279451509080566, -0.3304276132781407, -4.620925352031902},
       {-1.823971195666217, 0.009434194716462931, 0.009855530044790235, 0.8363148973888487, -0.2670338677240517, 0.2226564797093699, 0.6068321028331628, -1.241216113076365, -0.7350935479427883, -0.06784716624537115, 0.9244516406152582, -1.394086046030321, -0.05100891219752338, -0.04306836793326414, -0.04469035416235218, -0.03071901126471138, 0.1568194543604625, 0.1033997682406996, 0.1088602714418897, 0.1763547490047537, 2.457811892196784, -0.9588980125674078, -0.4095279540397145, 0.2514309595328901, 2.766384657139101, -1.511094440241306, -0.06745384932217331, 0.7410813619994336, 3.35373570512441, 12.50720947898694, 0.587725322917485, -4.256457347701552, -3.436547852754223, 3.191173822593221, -0.3061755081915561, 0.2242709835225533, 0.1012613532558313, -0.2420342473991558, 0.2367902850899417, -0.3381936518951446, -0.3469893331509167, 0.3379839250987107, -0.004058521340280476, -0.2686662931181502, 0.3587634849754514, -0.3834680649744664, -5.655952951859789, 6.163175884586826, -3.078255338199028, 4.875071787127125, -12.20422190645799, -0.3865248420017746, 1.079555602222905, -2.25235327643844, -1.74127856547201, 1.158480944642751},
       {-0.119794488525304, -0.001350250715510694, -0.03588747133117784, 0.008359123616427339, 7.562393473571443, -1.254383403081733, 0.4266870568859494, -0.1194361349404506, -0.1503425214573652, -0.06864982227736012, -0.0289159098135709, -0.02858160316714273, 0.002285383474090436, -0.001430241015404058, -0.0008995782392245133, -0.004352832661386893, -0.1020203509577557, -0.0262611327952816, 0.05143583300945585, 0.1359094084123642, 0.3842868961234225, -0.7824619068995174, 1.699116403474188, -7.432678759874268, 0.04637796473827682, 0.03976173227584618, 0.07435143069602847, 0.1524362927233299, 0.5563380616335758, -1.356100755281038, 4.144467804248301, 0.2177902956948526, -0.6328515024345893, 0.1516753590856347, 0.3281553076096204, -0.5271109433808187, -0.5602869900113362, -0.05304868535459593, 0.8749547553701217, -0.4602975798412051, 0.01740413850140705, 0.005771564923014379, -0.004974333105190482, -0.004148161745081935, -0.01417361934075534, -0.02594244520200843, -0.2140054212289066, -0.248980912778434, -0.5623141888153015, 0.7548394038283829, 1.364194113187516, -4.126141893707716, -0.05810233245716675, 0.03009548253614963, -0.1371120560322376, 0.1139509428494194},
       {-2.191848757371601, -0.01744010712210427, -0.004013227501187001, -0.9313458412004408, -0.6033488955272148, 0.2366752625676235, -1.289763220393817, 1.647535755892787, 0.2641947174833116, -0.1063772204385329, -0.04748996153948695, 0.9443566563364583, 0.0511561183626577, -0.1606648765685086, -0.1329488460449948, -0.2955518274174223, 1.005281149838193, 0.3596245570527907, 0.1523101406910903, 0.1929102807627966, 3.550920218457494, -2.307107338782635, 0.4700640193139842, 0.8837106187321675, 1.958970268108559, 0.006327956239357914, -0.3552458479851587, -0.2969484602222041, -1.086006904133713, 4.699085611159424, 5.543851896288099, 0.6755904757369851, 4.174480372489569, -2.599011654659862, -2.407479829627595, 2.765113546750572, -1.506247007460917, -0.70849682411906, 0.9840020692157526, -0.5468893841625639, -1.290488123384549, 0.1888806266738765, 0.4108613457376051, -0.4619604357904855, 0.1293479941039248, -0.2997912927616861, -4.765655429508907, 1.202539420945433, 1.205457153170803, 5.704023178055332, -3.671285218485126, -4.155128486358219, 4.816796661898229, -2.455265016352467, -11.18836153397707, 1.658093496832664},
       {0.7264821342609845, 0.07201504146660727, 0.0564334980837148, -0.3442193456824106, -0.1393611470264181, 0.0446805718481475, 0.0742023470405708, 0.06585452621845923, -0.1721271570805282, 0.05648682583232677, 0.09580894241214956, 0.08881433318277768, -0.004833139908278455, -0.002450153264703054, -0.002435852059608402, -0.005012037872601089, -3.564369146772745, 3.940601099690354, -1.397674060506101, 0.8725483357495821, -0.5759020893029438, 0.3440025305210914, -0.1209375344926145, -0.03312237404372266, -0.7971792934461331, 0.4285416482786594, -0.1400603493714433, -0.04878654107539711, 0.02335185665001968, 0.01748841797624289, 0.02507502160778053, -0.01604869951987145, -0.01658520706591846, -0.02449984869106075, -0.3226503844724293, -0.3204073079350148, 0.3342133382895714, 1.148193113164916, -0.3272295431258282, -0.3089399325502632, -0.4364531159141796, -0.4138248671427068, 0.4193746948856927, 1.569512745884832, -0.4224841619574036, -0.4176610627718541, -0.2734908482390406, 0.05564845243495945, -0.00250990972969427, 0.06031307581427102, -0.003189734101822767, -0.003578141948193427, 0.1527147839092026, -0.08319761490022382, -0.08770380868161069, 0.1565670754498497},
       {-0.3149662054272995, -0.1422133168123665, -0.142461726387004, 2.729670746721249, 0.2370417870554279, -0.08125288910876444, -0.4534189690671216, 3.234776914353048, 0.2364813382280316, -0.08064709137417664, -0.4534490699725152, 3.225826964394171, 0.01745565925191974, 0.008431324994861256, 0.008432041409066301, 0.01744669741672335, 0.7476843998127377, -1.036419693194852, 1.474720057815334, -4.32052048307629, 0.08296448472917095, 0.060027742434339, 0.09245414309137688, 0.182148816839291, 0.08276200484810069, 0.05991614218597374, 0.09234641794713898, 0.1819690393947273, -0.0248002932993653, -0.005881634583527555, -0.02482689685642171, -0.1013362791964283, -0.1011512068532017, 1.084729912121731, -0.3173529830505797, -0.3047246289758768, -0.6426046063037194, 0.8821046865902992, 1.448802420454198, -3.979127431717357, -0.3165664283274556, -0.3042300171104582, -0.6418396624723658, 0.879872393794361, 1.446479310925726, -3.968321016586514, -0.02822979632181061, -0.033592614739722, -0.04965659227776249, -0.03357089046611832, -0.04302018772927883, -0.04959718007865523, 0.2065115055432715, 0.2905496692067263, 0.2903239328983446, -1.306150763090331},
       {-0.4642502364118947, -0.03071456946385798, -0.05747103832230174, -1.291989033016385, 0.04251311440433104, 0.08440831033110188, -0.2408161963240521, 0.2580438422418382, 0.2154809158561044, -0.7453642057111051, 3.275147778908883, 5.624304328227025, 0.006811359449887163, 0.008167874379687197, 0.006287989258220826, 0.03032739318400609, 0.9283192749843775, -0.9345880525383968, 0.7314800957007924, 0.5037402709989078, 0.03831151362810502, 0.02964173185621095, 0.05076613306266399, 0.1114293965613851, 0.4147396472027747, 0.04161676097785812, -0.1087235431299324, -0.1822458166407328, -0.0548307960568458, -0.0300676945181333, 0.0002867317353422172, 0.2277280910618346, -0.2554386272022553, 1.17460975857217, -0.1181570470488224, -0.1269483554714525, -0.3064017208719774, 0.2274929779424386, 0.4479799514397938, -0.4761856970593816, -1.325436457080267, 0.2531469016760713, 0.7418391524358326, 2.648301878432008, -2.24637144958565, -8.144437418615112, -0.04975321550560419, -0.001824105689570523, 0.02329245744311712, -0.06129582135722987, -0.008348266563817309, -0.1179155993740412, 0.2827669797057458, -0.08226692807738281, 0.510069633029456, -1.47721035305175},
       {0.4366738218917009, 0.06646432269878995, 0.5369088865857574, 1.594610219642721, 0.1903021578999022, -2.390559793042457, 3.171449148971991, -3.186698320456609, -0.2429610972526916, -0.1651309118043045, -0.195452114338214, -0.3460007753033755, -0.1029874874009632, 0.05409513341063116, 0.03260615300733224, 0.1658244640873713, 0.1233869978338676, 0.1018217480178066, -0.2228706685207432, -1.119794262286869, -1.203920407783859, 2.209608585261506, -6.514983600655782, -2.286230080859743, -0.1739617998935459, -0.1608542276705112, -0.09440736127717239, 0.1301602703608614, 0.7557903983329353, -1.398683046976253, 2.565033014223209, 0.6049786981036974, -1.74534253352107, 1.031739311601271, -0.5262490871037516, 1.300135641386789, 10.47729127517956, 0.02337079557311899, -6.026929760388846, 3.414069904794792, -0.04725335421829519, 0.04450224923576713, 0.253372390274656, 0.05776279277783349, 0.2382307874719508, 0.3387451487420629, 0.8596799493692678, 0.6699806187670257, -0.472493392121678, -3.18260200775862, 1.090654219276318, -3.265837467191614, 0.0325408374959775, -1.325757711216712, 5.445245797678235, -1.619074470911027},
       {-0.3673404860129117, 0.0001302249983734555, 0.0003540358981277848, 0.3781579563835218, -0.1342205236715361, 0.2446507083562547, -0.1620731410369663, -0.2574565762859212, -0.05596502089434154, 0.09582093953379744, -0.05197383986633712, -0.07796113218871614, -1.424580580251479e-5, -6.618826287787982e-6, -6.748750124528141e-6, -1.262055046624605e-5, 0.9509419775875239, -3.196054578067007, 3.215518187435474, -0.9805982015738993, 0.2575876368672415, 0.1656973137688058, -0.2452779615605227, 0.1331077195845687, 0.07806893621313703, 0.05328319856861457, -0.09611364103528355, 0.05556216944329893, 0.01342344131121503, 0.007103777052880253, 0.01040719129268007, -0.0350429306725404, -0.02945758044752737, 0.02795685907643297, -1.405040578213854, 0.5824877033754374, 0.00233543363285238, 0.01555681500714511, -0.5874461980435619, 1.389295980460206, -0.406267074756555, 0.2175553666001902, 0.0008794776535929552, 0.004556594705703117, -0.2192617121186775, 0.401596083440411, -0.0287700348874815, 0.03517634023167043, -0.01336265204306883, 0.0295534868281672, -0.0070646239355434, -0.01035235196886864, -0.1425773402911339, -0.0002545878552999657, -0.000213649907695974, 0.1434210959606073},
       {0.2456704991387356, 0.1043525468450994, 0.1179802635994992, 2.464097684003206, -0.1237689625020034, -0.1093191437013034, -0.392604093946221, -1.249359045167098, -0.9523085519341775, -0.7532061860614815, 2.790548802000983, -4.08223607852249, 0.3489482619717215, 0.09478618224705113, 0.1383255220099134, -0.1956980948360524, 0.2460991971823611, 0.2728121532192889, -0.1540978216686766, -1.975265595593835, -0.2960843105886192, -0.1337412045810882, -0.06081191824166596, -0.04706403593576317, -0.6845228563236627, 1.211935622963352, -3.107039251894999, 0.2113114954674407, 2.410437135875334, -0.8190459575923331, 0.3723254806623241, -3.659616473792926, 0.6792109244758657, 3.059719952787472, -0.3342351491906702, -0.06845226635272353, 0.1795609366089252, -0.05024365867971299, 0.4219119802951405, 1.428304436631226, -0.9606615286917271, 2.487470912962278, 4.695967445803126, -0.6780181761648175, -6.024488357834901, 4.892345787830671, 1.549073484665075, -7.68772339695662, -3.945243571662334, 0.5413018216888301, -0.01676411077212237, 0.08677970654142692, 1.676115200726046, 12.473693456795, -1.245199518885441, -5.394267576921919},
